<?xml version="1.0"?>
<opencv_storage>
<cascade>
  <stageType>BOOST</stageType>
  <featureType>HAAR</featureType>
  <height>20</height>
  <width>20</width>
  <stageParams>
    <boostType>GAB</boostType>
    <minHitRate>9.9900001287460327e-01</minHitRate>
    <maxFalseAlarm>5.0000000000000000e-01</maxFalseAlarm>
    <weightTrimRate>9.4999999999999996e-01</weightTrimRate>
    <maxDepth>1</maxDepth>
    <maxWeakCount>100</maxWeakCount></stageParams>
  <featureParams>
    <maxCatCount>0</maxCatCount>
    <featSize>1</featSize>
    <mode>ALL</mode></featureParams>
  <stageNum>20</stageNum>
  <stages>
    <!-- stage 0 -->
    <_>
      <maxWeakCount>5</maxWeakCount>
      <stageThreshold>-1.2513120174407959e+00</stageThreshold>
      <weakClassifiers>
        <_>
          <internalNodes>
            0 -1 70 2.3832682520151138e-02</internalNodes>
          <leafValues>
            -7.1161049604415894e-01 8.4805655479431152e-01</leafValues></_>
        <_>
          <internalNodes>
            0 -1 123 -2.4196647573262453e-03</internalNodes>
          <leafValues>
            5.5801784992218018e-01 -8.1358546018600464e-01</leafValues></_>
        <_>
          <internalNodes>
            0 -1 79 -1.5034994110465050e-02</internalNodes>
          <leafValues>
            6.7506462335586548e-01 -6.1967319250106812e-01</leafValues></_>
        <_>
          <internalNodes>
            0 -1 49 2.5231812614947557e-03</internalNodes>
          <leafValues>
            -7.5638133287429810e-01 5.3354072570800781e-01</leafValues></_>
        <_>
          <internalNodes>
            0 -1 97 -6.5949418058153242e-05</internalNodes>
          <leafValues>
            3.6001637578010559e-01 -9.4074004888534546e-01</leafValues></_></weakClassifiers></_>
    <!-- stage 1 -->
    <_>
      <maxWeakCount>6</maxWeakCount>
      <stageThreshold>-1.1364228725433350e+00</stageThreshold>
      <weakClassifiers>
        <_>
          <internalNodes>
            0 -1 122 1.6994934529066086e-02</internalNodes>
          <leafValues>
            -7.2807019948959351e-01 6.7080748081207275e-01</leafValues></_>
        <_>
          <internalNodes>
            0 -1 107 1.5155919827520847e-03</internalNodes>
          <leafValues>
            -9.1432785987854004e-01 4.3013438582420349e-01</leafValues></_>
        <_>
          <internalNodes>
            0 -1 89 1.2118965387344360e-02</internalNodes>
          <leafValues>
            -4.8730888962745667e-01 7.3623210191726685e-01</leafValues></_>
        <_>
          <internalNodes>
            0 -1 161 -4.8825526610016823e-03</internalNodes>
          <leafValues>
            -8.2295244932174683e-01 3.9144477248191833e-01</leafValues></_>
        <_>
          <internalNodes>
            0 -1 134 -2.8038676828145981e-04</internalNodes>
          <leafValues>
            2.6741868257522583e-01 -9.1978669166564941e-01</leafValues></_>
        <_>
          <internalNodes>
            0 -1 51 -1.7924465646501631e-04</internalNodes>
          <leafValues>
            3.3442062139511108e-01 -7.9000312089920044e-01</leafValues></_></weakClassifiers></_>
    <!-- stage 2 -->
    <_>
      <maxWeakCount>6</maxWeakCount>
      <stageThreshold>-1.2330670356750488e+00</stageThreshold>
      <weakClassifiers>
        <_>
          <internalNodes>
            0 -1 13 3.5098128020763397e-02</internalNodes>
          <leafValues>
            -4.9333333969116211e-01 7.9199999570846558e-01</leafValues></_>
        <_>
          <internalNodes>
            0 -1 72 2.9306235956028104e-04</internalNodes>
          <leafValues>
            -8.8287693262100220e-01 4.2593652009963989e-01</leafValues></_>
        <_>
          <internalNodes>
            0 -1 159 -6.4826421439647675e-03</internalNodes>
          <leafValues>
            7.9957741498947144e-01 -4.0789350867271423e-01</leafValues></_>
        <_>
          <internalNodes>
            0 -1 11 -2.6652973145246506e-02</internalNodes>
          <leafValues>
            8.1696355342864990e-01 -3.6978539824485779e-01</leafValues></_>
        <_>
          <internalNodes>
            0 -1 9 -8.2364995032548904e-03</internalNodes>
          <leafValues>
            4.8151111602783203e-01 -6.0617202520370483e-01</leafValues></_>
        <_>
          <internalNodes>
            0 -1 35 2.3400285281240940e-03</internalNodes>
          <leafValues>
            3.4024515748023987e-01 -8.0334991216659546e-01</leafValues></_></weakClassifiers></_>
    <!-- stage 3 -->
    <_>
      <maxWeakCount>5</maxWeakCount>
      <stageThreshold>-7.5699508190155029e-01</stageThreshold>
      <weakClassifiers>
        <_>
          <internalNodes>
            0 -1 108 -1.5586381778120995e-02</internalNodes>
          <leafValues>
            6.9981241226196289e-01 -4.8148149251937866e-01</leafValues></_>
        <_>
          <internalNodes>
            0 -1 7 -5.1162905991077423e-02</internalNodes>
          <leafValues>
            7.8659695386886597e-01 -3.8397479057312012e-01</leafValues></_>
        <_>
          <internalNodes>
            0 -1 33 -6.6094938665628433e-03</internalNodes>
          <leafValues>
            -8.6219519376754761e-01 3.9228135347366333e-01</leafValues></_>
        <_>
          <internalNodes>
            0 -1 111 -6.9118821993470192e-03</internalNodes>
          <leafValues>
            -9.1057652235031128e-01 2.7567178010940552e-01</leafValues></_>
        <_>
          <internalNodes>
            0 -1 59 -3.0609786510467529e-02</internalNodes>
          <leafValues>
            6.2675637006759644e-01 -4.7220197319984436e-01</leafValues></_></weakClassifiers></_>
    <!-- stage 4 -->
    <_>
      <maxWeakCount>7</maxWeakCount>
      <stageThreshold>-1.1014577150344849e+00</stageThreshold>
      <weakClassifiers>
        <_>
          <internalNodes>
            0 -1 25 -5.2631031721830368e-03</internalNodes>
          <leafValues>
            5.3687316179275513e-01 -6.2559241056442261e-01</leafValues></_>
        <_>
          <internalNodes>
            0 -1 19 -7.8899897634983063e-02</internalNodes>
          <leafValues>
            6.0658764839172363e-01 -4.7642055153846741e-01</leafValues></_>
        <_>
          <internalNodes>
            0 -1 63 -4.8749889247119427e-03</internalNodes>
          <leafValues>
            2.9200556874275208e-01 -8.7430590391159058e-01</leafValues></_>
        <_>
          <internalNodes>
            0 -1 154 1.0520542040467262e-02</internalNodes>
          <leafValues>
            2.7206844091415405e-01 -9.4696658849716187e-01</leafValues></_>
        <_>
          <internalNodes>
            0 -1 139 -3.6972351372241974e-02</internalNodes>
          <leafValues>
            -9.2618727684020996e-01 2.1418139338493347e-01</leafValues></_>
        <_>
          <internalNodes>
            0 -1 88 -7.0385629078373313e-04</internalNodes>
          <leafValues>
            1.8820962309837341e-01 -7.7177649736404419e-01</leafValues></_>
        <_>
          <internalNodes>
            0 -1 109 1.2401721905916929e-03</internalNodes>
          <leafValues>
            -9.0585637092590332e-01 2.0040170848369598e-01</leafValues></_></weakClassifiers></_>
    <!-- stage 5 -->
    <_>
      <maxWeakCount>8</maxWeakCount>
      <stageThreshold>-1.1782324314117432e+00</stageThreshold>
      <weakClassifiers>
        <_>
          <internalNodes>
            0 -1 163 5.7285465300083160e-03</internalNodes>
          <leafValues>
            -4.2708334326744080e-01 6.6030532121658325e-01</leafValues></_>
        <_>
          <internalNodes>
            0 -1 90 -1.9845204427838326e-02</internalNodes>
          <leafValues>
            6.1524248123168945e-01 -3.5028716921806335e-01</leafValues></_>
        <_>
          <internalNodes>
            0 -1 105 7.1112937293946743e-03</internalNodes>
          <leafValues>
            3.0957657098770142e-01 -8.7194740772247314e-01</leafValues></_>
        <_>
          <internalNodes>
            0 -1 98 1.2182853184640408e-02</internalNodes>
          <leafValues>
            2.3737275600433350e-01 -9.3651169538497925e-01</leafValues></_>
        <_>
          <internalNodes>
            0 -1 114 -1.0813851840794086e-03</internalNodes>
          <leafValues>
            3.4969753026962280e-01 -5.7564985752105713e-01</leafValues></_>
        <_>
          <internalNodes>
            0 -1 20 4.3622222729027271e-03</internalNodes>
          <leafValues>
            -5.8146113157272339e-01 3.4688839316368103e-01</leafValues></_>
        <_>
          <internalNodes>
            0 -1 131 -2.0057170186191797e-03</internalNodes>
          <leafValues>
            -7.3016196489334106e-01 2.7163788676261902e-01</leafValues></_>
        <_>
          <internalNodes>
            0 -1 127 2.1118769422173500e-02</internalNodes>
          <leafValues>
            2.2710648179054260e-01 -9.3334364891052246e-01</leafValues></_></weakClassifiers></_>
    <!-- stage 6 -->
    <_>
      <maxWeakCount>10</maxWeakCount>
      <stageThreshold>-1.7114971876144409e+00</stageThreshold>
      <weakClassifiers>
        <_>
          <internalNodes>
            0 -1 82 2.5360635481774807e-03</internalNodes>
          <leafValues>
            -7.1428573131561279e-01 4.2416453361511230e-01</leafValues></_>
        <_>
          <internalNodes>
            0 -1 121 -1.2696674093604088e-03</internalNodes>
          <leafValues>
            3.1982389092445374e-01 -7.1682423353195190e-01</leafValues></_>
        <_>
          <internalNodes>
            0 -1 47 -1.5828337054699659e-03</internalNodes>
          <leafValues>
            -8.9584469795227051e-01 2.6827397942543030e-01</leafValues></_>
        <_>
          <internalNodes>
            0 -1 137 -8.1349111860617995e-04</internalNodes>
          <leafValues>
            -8.1515586376190186e-01 2.1941515803337097e-01</leafValues></_>
        <_>
          <internalNodes>
            0 -1 11 -3.8133271038532257e-02</internalNodes>
          <leafValues>
            7.7887070178985596e-01 -3.3050784468650818e-01</leafValues></_>
        <_>
          <internalNodes>
            0 -1 95 4.7123463446041569e-05</internalNodes>
          <leafValues>
            -6.7396211624145508e-01 3.5155615210533142e-01</leafValues></_>
        <_>
          <internalNodes>
            0 -1 69 -1.4431471005082130e-02</internalNodes>
          <leafValues>
            6.0250115394592285e-01 -3.7908285856246948e-01</leafValues></_>
        <_>
          <internalNodes>
            0 -1 169 -6.5519330091774464e-03</internalNodes>
          <leafValues>
            -7.6666110754013062e-01 3.3035781979560852e-01</leafValues></_>
        <_>
          <internalNodes>
            0 -1 23 4.8183193430304527e-03</internalNodes>
          <leafValues>
            1.3661335408687592e-01 -8.9022433757781982e-01</leafValues></_>
        <_>
          <internalNodes>
            0 -1 162 -3.4352925140410662e-03</internalNodes>
          <leafValues>
            -9.0162020921707153e-01 1.7417377233505249e-01</leafValues></_></weakClassifiers></_>
    <!-- stage 7 -->
    <_>
      <maxWeakCount>8</maxWeakCount>
      <stageThreshold>-1.2823272943496704e+00</stageThreshold>
      <weakClassifiers>
        <_>
          <internalNodes>
            0 -1 42 -1.2898602522909641e-02</internalNodes>
          <leafValues>
            4.8017621040344238e-01 -5.4176610708236694e-01</leafValues></_>
        <_>
          <internalNodes>
            0 -1 85 -8.5526928305625916e-03</internalNodes>
          <leafValues>
            2.9817366600036621e-01 -7.0131033658981323e-01</leafValues></_>
        <_>
          <internalNodes>
            0 -1 124 1.1914507922483608e-04</internalNodes>
          <leafValues>
            -8.2578879594802856e-01 2.3281244933605194e-01</leafValues></_>
        <_>
          <internalNodes>
            0 -1 2 -1.6051966696977615e-02</internalNodes>
          <leafValues>
            6.6124409437179565e-01 -3.2631590962409973e-01</leafValues></_>
        <_>
          <internalNodes>
            0 -1 92 -4.5409920858219266e-04</internalNodes>
          <leafValues>
            -9.0720456838607788e-01 2.2501319646835327e-01</leafValues></_>
        <_>
          <internalNodes>
            0 -1 21 -3.2233865931630135e-03</internalNodes>
          <leafValues>
            -8.8064116239547729e-01 1.6928145289421082e-01</leafValues></_>
        <_>
          <internalNodes>
            0 -1 158 1.4824334066361189e-03</internalNodes>
          <leafValues>
            -4.4981205463409424e-01 4.3181270360946655e-01</leafValues></_>
        <_>
          <internalNodes>
            0 -1 87 5.4705529473721981e-03</internalNodes>
          <leafValues>
            1.8081125617027283e-01 -9.6348541975021362e-01</leafValues></_></weakClassifiers></_>
    <!-- stage 8 -->
    <_>
      <maxWeakCount>8</maxWeakCount>
      <stageThreshold>-1.1064447164535522e+00</stageThreshold>
      <weakClassifiers>
        <_>
          <internalNodes>
            0 -1 12 5.6631155312061310e-02</internalNodes>
          <leafValues>
            -3.3021807670593262e-01 6.8122273683547974e-01</leafValues></_>
        <_>
          <internalNodes>
            0 -1 152 -4.4012814760208130e-03</internalNodes>
          <leafValues>
            7.2385120391845703e-01 -3.4464615583419800e-01</leafValues></_>
        <_>
          <internalNodes>
            0 -1 91 4.2562382295727730e-03</internalNodes>
          <leafValues>
            -4.4564819335937500e-01 4.5378226041793823e-01</leafValues></_>
        <_>
          <internalNodes>
            0 -1 3 -1.0154261440038681e-01</internalNodes>
          <leafValues>
            5.6077641248703003e-01 -3.7072324752807617e-01</leafValues></_>
        <_>
          <internalNodes>
            0 -1 112 2.3101670667529106e-03</internalNodes>
          <leafValues>
            -4.6532449126243591e-01 4.2507046461105347e-01</leafValues></_>
        <_>
          <internalNodes>
            0 -1 175 5.2953767590224743e-03</internalNodes>
          <leafValues>
            -3.4889936447143555e-01 6.0082995891571045e-01</leafValues></_>
        <_>
          <internalNodes>
            0 -1 37 2.1580306813120842e-02</internalNodes>
          <leafValues>
            2.1713370084762573e-01 -9.4354975223541260e-01</leafValues></_>
        <_>
          <internalNodes>
            0 -1 99 -2.9507938772439957e-02</internalNodes>
          <leafValues>
            -8.5514491796493530e-01 1.8139442801475525e-01</leafValues></_></weakClassifiers></_>
    <!-- stage 9 -->
    <_>
      <maxWeakCount>8</maxWeakCount>
      <stageThreshold>-1.3885418176651001e+00</stageThreshold>
      <weakClassifiers>
        <_>
          <internalNodes>
            0 -1 41 -1.3330295681953430e-02</internalNodes>
          <leafValues>
            4.6334311366081238e-01 -5.1674640178680420e-01</leafValues></_>
        <_>
          <internalNodes>
            0 -1 167 -2.2706801071763039e-02</internalNodes>
          <leafValues>
            6.8148016929626465e-01 -3.2905620336532593e-01</leafValues></_>
        <_>
          <internalNodes>
            0 -1 29 -2.4189867079257965e-02</internalNodes>
          <leafValues>
            8.1981712579727173e-01 -2.3135849833488464e-01</leafValues></_>
        <_>
          <internalNodes>
            0 -1 76 -3.9473315700888634e-03</internalNodes>
          <leafValues>
            -7.8728574514389038e-01 2.7465057373046875e-01</leafValues></_>
        <_>
          <internalNodes>
            0 -1 168 1.0429188841953874e-03</internalNodes>
          <leafValues>
            2.4718348681926727e-01 -6.9627481698989868e-01</leafValues></_>
        <_>
          <internalNodes>
            0 -1 133 4.4954885379411280e-04</internalNodes>
          <leafValues>
            -8.6775487661361694e-01 2.0111042261123657e-01</leafValues></_>
        <_>
          <internalNodes>
            0 -1 93 -2.3362372070550919e-02</internalNodes>
          <leafValues>
            7.7291250228881836e-01 -2.9204252362251282e-01</leafValues></_>
        <_>
          <internalNodes>
            0 -1 55 1.5043681487441063e-03</internalNodes>
          <leafValues>
            2.4585087597370148e-01 -8.0936074256896973e-01</leafValues></_></weakClassifiers></_>
    <!-- stage 10 -->
    <_>
      <maxWeakCount>10</maxWeakCount>
      <stageThreshold>-1.0461711883544922e+00</stageThreshold>
      <weakClassifiers>
        <_>
          <internalNodes>
            0 -1 96 -1.7712584231048822e-03</internalNodes>
          <leafValues>
            4.8286604881286621e-01 -4.5851528644561768e-01</leafValues></_>
        <_>
          <internalNodes>
            0 -1 58 -6.7047193646430969e-02</internalNodes>
          <leafValues>
            5.1068663597106934e-01 -4.2525327205657959e-01</leafValues></_>
        <_>
          <internalNodes>
            0 -1 106 -1.4012460596859455e-03</internalNodes>
          <leafValues>
            3.7811613082885742e-01 -5.0020253658294678e-01</leafValues></_>
        <_>
          <internalNodes>
            0 -1 142 4.6667886635987088e-05</internalNodes>
          <leafValues>
            -5.9806644916534424e-01 3.7195250391960144e-01</leafValues></_>
        <_>
          <internalNodes>
            0 -1 138 -9.3255313113331795e-03</internalNodes>
          <leafValues>
            -8.1660783290863037e-01 1.7934165894985199e-01</leafValues></_>
        <_>
          <internalNodes>
            0 -1 46 8.4228010382503271e-04</internalNodes>
          <leafValues>
            -7.0487231016159058e-01 2.3134660720825195e-01</leafValues></_>
        <_>
          <internalNodes>
            0 -1 103 2.0123652648180723e-03</internalNodes>
          <leafValues>
            1.8411359190940857e-01 -7.7424490451812744e-01</leafValues></_>
        <_>
          <internalNodes>
            0 -1 110 4.6907723299227655e-04</internalNodes>
          <leafValues>
            -8.7432295083999634e-01 1.7917194962501526e-01</leafValues></_>
        <_>
          <internalNodes>
            0 -1 1 7.3377147316932678e-02</internalNodes>
          <leafValues>
            -3.2612195611000061e-01 5.5370652675628662e-01</leafValues></_>
        <_>
          <internalNodes>
            0 -1 5 -4.5836951583623886e-02</internalNodes>
          <leafValues>
            8.2694613933563232e-01 -2.7819064259529114e-01</leafValues></_></weakClassifiers></_>
    <!-- stage 11 -->
    <_>
      <maxWeakCount>11</maxWeakCount>
      <stageThreshold>-1.8063836097717285e+00</stageThreshold>
      <weakClassifiers>
        <_>
          <internalNodes>
            0 -1 24 1.9089657068252563e-01</internalNodes>
          <leafValues>
            -2.0876288414001465e-01 8.0864197015762329e-01</leafValues></_>
        <_>
          <internalNodes>
            0 -1 44 1.0017674416303635e-02</internalNodes>
          <leafValues>
            2.8262263536453247e-01 -7.5250166654586792e-01</leafValues></_>
        <_>
          <internalNodes>
            0 -1 94 1.8405858427286148e-02</internalNodes>
          <leafValues>
            2.0786978304386139e-01 -7.9621410369873047e-01</leafValues></_>
        <_>
          <internalNodes>
            0 -1 160 -1.0732036083936691e-02</internalNodes>
          <leafValues>
            6.0941052436828613e-01 -3.1053325533866882e-01</leafValues></_>
        <_>
          <internalNodes>
            0 -1 173 -2.5109712034463882e-02</internalNodes>
          <leafValues>
            5.5714851617813110e-01 -3.1974655389785767e-01</leafValues></_>
        <_>
          <internalNodes>
            0 -1 135 -3.6019447725266218e-03</internalNodes>
          <leafValues>
            3.5940554738044739e-01 -4.8091757297515869e-01</leafValues></_>
        <_>
          <internalNodes>
            0 -1 130 1.6543082892894745e-03</internalNodes>
          <leafValues>
            2.0628634095191956e-01 -8.4132707118988037e-01</leafValues></_>
        <_>
          <internalNodes>
            0 -1 84 -1.9627846777439117e-02</internalNodes>
          <leafValues>
            -8.2070744037628174e-01 1.7333802580833435e-01</leafValues></_>
        <_>
          <internalNodes>
            0 -1 86 1.1336339637637138e-02</internalNodes>
          <leafValues>
            1.8118217587471008e-01 -7.8826802968978882e-01</leafValues></_>
        <_>
          <internalNodes>
            0 -1 8 -8.1650674343109131e-02</internalNodes>
          <leafValues>
            5.7941180467605591e-01 -3.1410020589828491e-01</leafValues></_>
        <_>
          <internalNodes>
            0 -1 77 -1.3206897303462029e-02</internalNodes>
          <leafValues>
            7.3405212163925171e-01 -2.2957666218280792e-01</leafValues></_></weakClassifiers></_>
    <!-- stage 12 -->
    <_>
      <maxWeakCount>12</maxWeakCount>
      <stageThreshold>-1.2245267629623413e+00</stageThreshold>
      <weakClassifiers>
        <_>
          <internalNodes>
            0 -1 143 1.3132235035300255e-03</internalNodes>
          <leafValues>
            -3.1825524568557739e-01 6.1746358871459961e-01</leafValues></_>
        <_>
          <internalNodes>
            0 -1 155 -5.1645800704136491e-04</internalNodes>
          <leafValues>
            2.6341700553894043e-01 -7.3430967330932617e-01</leafValues></_>
        <_>
          <internalNodes>
            0 -1 71 -1.3585789129137993e-03</internalNodes>
          <leafValues>
            -7.8718495368957520e-01 2.0126689970493317e-01</leafValues></_>
        <_>
          <internalNodes>
            0 -1 36 -2.0354907959699631e-02</internalNodes>
          <leafValues>
            6.7175853252410889e-01 -2.7796897292137146e-01</leafValues></_>
        <_>
          <internalNodes>
            0 -1 30 8.7570184841752052e-03</internalNodes>
          <leafValues>
            -4.3195497989654541e-01 3.8103687763214111e-01</leafValues></_>
        <_>
          <internalNodes>
            0 -1 128 3.0015101656317711e-03</internalNodes>
          <leafValues>
            2.7886608242988586e-01 -6.8874943256378174e-01</leafValues></_>
        <_>
          <internalNodes>
            0 -1 78 -4.7439890913665295e-03</internalNodes>
          <leafValues>
            -7.2224479913711548e-01 1.6648446023464203e-01</leafValues></_>
        <_>
          <internalNodes>
            0 -1 149 2.3677296936511993e-02</internalNodes>
          <leafValues>
            -3.2477450370788574e-01 4.9639815092086792e-01</leafValues></_>
        <_>
          <internalNodes>
            0 -1 73 -1.0221700649708509e-03</internalNodes>
          <leafValues>
            2.4114000797271729e-01 -6.7181563377380371e-01</leafValues></_>
        <_>
          <internalNodes>
            0 -1 17 -9.7142072627320886e-04</internalNodes>
          <leafValues>
            -6.2055248022079468e-01 2.1730829775333405e-01</leafValues></_>
        <_>
          <internalNodes>
            0 -1 54 -1.2616270687431097e-03</internalNodes>
          <leafValues>
            4.6066343784332275e-01 -3.4628829360008240e-01</leafValues></_>
        <_>
          <internalNodes>
            0 -1 14 -7.9642124474048615e-02</internalNodes>
          <leafValues>
            -7.9574501514434814e-01 2.1737636625766754e-01</leafValues></_></weakClassifiers></_>
    <!-- stage 13 -->
    <_>
      <maxWeakCount>14</maxWeakCount>
      <stageThreshold>-1.5527098178863525e+00</stageThreshold>
      <weakClassifiers>
        <_>
          <internalNodes>
            0 -1 4 -1.4735884964466095e-02</internalNodes>
          <leafValues>
            6.9950741529464722e-01 -2.6512968540191650e-01</leafValues></_>
        <_>
          <internalNodes>
            0 -1 164 -1.1409474536776543e-02</internalNodes>
          <leafValues>
            5.8596074581146240e-01 -3.6424726247787476e-01</leafValues></_>
        <_>
          <internalNodes>
            0 -1 53 -5.4035271750763059e-04</internalNodes>
          <leafValues>
            3.1958264112472534e-01 -6.8684667348861694e-01</leafValues></_>
        <_>
          <internalNodes>
            0 -1 140 -1.2601560447365046e-03</internalNodes>
          <leafValues>
            -9.2214518785476685e-01 1.7939478158950806e-01</leafValues></_>
        <_>
          <internalNodes>
            0 -1 145 -4.5420188456773758e-02</internalNodes>
          <leafValues>
            6.0584497451782227e-01 -3.2762607932090759e-01</leafValues></_>
        <_>
          <internalNodes>
            0 -1 144 5.1131509244441986e-02</internalNodes>
          <leafValues>
            -3.6112901568412781e-01 5.2719092369079590e-01</leafValues></_>
        <_>
          <internalNodes>
            0 -1 27 1.6160020604729652e-03</internalNodes>
          <leafValues>
            1.6270962357521057e-01 -9.3944919109344482e-01</leafValues></_>
        <_>
          <internalNodes>
            0 -1 165 -3.8942848332226276e-03</internalNodes>
          <leafValues>
            -6.8647336959838867e-01 1.8279400467872620e-01</leafValues></_>
        <_>
          <internalNodes>
            0 -1 43 6.8488977849483490e-03</internalNodes>
          <leafValues>
            2.2113364934921265e-01 -6.8151003122329712e-01</leafValues></_>
        <_>
          <internalNodes>
            0 -1 68 -1.0100763756781816e-03</internalNodes>
          <leafValues>
            -7.3513829708099365e-01 1.8490707874298096e-01</leafValues></_>
        <_>
          <internalNodes>
            0 -1 50 1.3807401992380619e-03</internalNodes>
          <leafValues>
            -3.8635179400444031e-01 3.6726951599121094e-01</leafValues></_>
        <_>
          <internalNodes>
            0 -1 100 -4.8302471637725830e-02</internalNodes>
          <leafValues>
            -8.4547358751296997e-01 1.7997814714908600e-01</leafValues></_>
        <_>
          <internalNodes>
            0 -1 32 8.2458529504947364e-05</internalNodes>
          <leafValues>
            -4.1546979546546936e-01 3.6316716670989990e-01</leafValues></_>
        <_>
          <internalNodes>
            0 -1 56 -5.5412622168660164e-03</internalNodes>
          <leafValues>
            -7.2458600997924805e-01 2.0812116563320160e-01</leafValues></_></weakClassifiers></_>
    <!-- stage 14 -->
    <_>
      <maxWeakCount>11</maxWeakCount>
      <stageThreshold>-1.0945600271224976e+00</stageThreshold>
      <weakClassifiers>
        <_>
          <internalNodes>
            0 -1 156 7.2939973324537277e-04</internalNodes>
          <leafValues>
            -3.6226415634155273e-01 5.1228070259094238e-01</leafValues></_>
        <_>
          <internalNodes>
            0 -1 18 -1.3130262494087219e-02</internalNodes>
          <leafValues>
            6.3717544078826904e-01 -2.9193425178527832e-01</leafValues></_>
        <_>
          <internalNodes>
            0 -1 64 4.5553930103778839e-03</internalNodes>
          <leafValues>
            2.8220435976982117e-01 -6.2404209375381470e-01</leafValues></_>
        <_>
          <internalNodes>
            0 -1 83 5.4829167202115059e-03</internalNodes>
          <leafValues>
            2.1887026727199554e-01 -6.5481626987457275e-01</leafValues></_>
        <_>
          <internalNodes>
            0 -1 125 -6.8986075930297375e-03</internalNodes>
          <leafValues>
            4.0600475668907166e-01 -4.1406181454658508e-01</leafValues></_>
        <_>
          <internalNodes>
            0 -1 62 -1.5697313472628593e-02</internalNodes>
          <leafValues>
            -8.4423238039016724e-01 1.7441096901893616e-01</leafValues></_>
        <_>
          <internalNodes>
            0 -1 52 1.2673012912273407e-02</internalNodes>
          <leafValues>
            2.2002111375331879e-01 -6.8139731884002686e-01</leafValues></_>
        <_>
          <internalNodes>
            0 -1 10 -1.3706903904676437e-02</internalNodes>
          <leafValues>
            3.4745088219642639e-01 -4.0553379058837891e-01</leafValues></_>
        <_>
          <internalNodes>
            0 -1 151 -2.3256082087755203e-02</internalNodes>
          <leafValues>
            7.6406681537628174e-01 -2.2170969843864441e-01</leafValues></_>
        <_>
          <internalNodes>
            0 -1 38 -2.1385490254033357e-04</internalNodes>
          <leafValues>
            2.7155432105064392e-01 -6.0980463027954102e-01</leafValues></_>
        <_>
          <internalNodes>
            0 -1 67 -4.9773873761296272e-03</internalNodes>
          <leafValues>
            5.3317183256149292e-01 -3.0045869946479797e-01</leafValues></_></weakClassifiers></_>
    <!-- stage 15 -->
    <_>
      <maxWeakCount>12</maxWeakCount>
      <stageThreshold>-1.2828123569488525e+00</stageThreshold>
      <weakClassifiers>
        <_>
          <internalNodes>
            0 -1 115 1.8534553237259388e-03</internalNodes>
          <leafValues>
            -4.4419133663177490e-01 4.4629350304603577e-01</leafValues></_>
        <_>
          <internalNodes>
            0 -1 61 -1.3896519318223000e-02</internalNodes>
          <leafValues>
            -9.2935723066329956e-01 1.9268998503684998e-01</leafValues></_>
        <_>
          <internalNodes>
            0 -1 6 -5.8031883090734482e-03</internalNodes>
          <leafValues>
            4.5787155628204346e-01 -3.8202053308486938e-01</leafValues></_>
        <_>
          <internalNodes>
            0 -1 28 -4.3176738545298576e-03</internalNodes>
          <leafValues>
            -7.1808403730392456e-01 2.1313750743865967e-01</leafValues></_>
        <_>
          <internalNodes>
            0 -1 118 -2.8447010554373264e-03</internalNodes>
          <leafValues>
            5.4944527149200439e-01 -3.3170962333679199e-01</leafValues></_>
        <_>
          <internalNodes>
            0 -1 80 1.6976126935333014e-03</internalNodes>
          <leafValues>
            1.7660188674926758e-01 -7.6806843280792236e-01</leafValues></_>
        <_>
          <internalNodes>
            0 -1 60 -2.1688425913453102e-03</internalNodes>
          <leafValues>
            -7.3678690195083618e-01 2.1324138343334198e-01</leafValues></_>
        <_>
          <internalNodes>
            0 -1 65 -9.3357090372592211e-04</internalNodes>
          <leafValues>
            2.2469846904277802e-01 -6.6489720344543457e-01</leafValues></_>
        <_>
          <internalNodes>
            0 -1 22 -4.4604204595088959e-03</internalNodes>
          <leafValues>
            -8.7535333633422852e-01 1.5084822475910187e-01</leafValues></_>
        <_>
          <internalNodes>
            0 -1 74 9.8135452717542648e-03</internalNodes>
          <leafValues>
            1.4289681613445282e-01 -8.4982717037200928e-01</leafValues></_>
        <_>
          <internalNodes>
            0 -1 101 4.4507207348942757e-03</internalNodes>
          <leafValues>
            2.0302863419055939e-01 -6.1765670776367188e-01</leafValues></_>
        <_>
          <internalNodes>
            0 -1 66 4.7791199758648872e-03</internalNodes>
          <leafValues>
            1.7878350615501404e-01 -8.2744425535202026e-01</leafValues></_></weakClassifiers></_>
    <!-- stage 16 -->
    <_>
      <maxWeakCount>13</maxWeakCount>
      <stageThreshold>-1.3294379711151123e+00</stageThreshold>
      <weakClassifiers>
        <_>
          <internalNodes>
            0 -1 115 1.4801031211391091e-03</internalNodes>
          <leafValues>
            -5.0236964225769043e-01 4.6017700433731079e-01</leafValues></_>
        <_>
          <internalNodes>
            0 -1 15 -5.6032352149486542e-02</internalNodes>
          <leafValues>
            5.0223469734191895e-01 -3.8699764013290405e-01</leafValues></_>
        <_>
          <internalNodes>
            0 -1 150 2.1753645341959782e-05</internalNodes>
          <leafValues>
            -3.7588605284690857e-01 4.4968071579933167e-01</leafValues></_>
        <_>
          <internalNodes>
            0 -1 148 3.0817328952252865e-03</internalNodes>
          <leafValues>
            2.3418180644512177e-01 -7.3374485969543457e-01</leafValues></_>
        <_>
          <internalNodes>
            0 -1 34 -1.4119800180196762e-02</internalNodes>
          <leafValues>
            -7.7448695898056030e-01 1.9876664876937866e-01</leafValues></_>
        <_>
          <internalNodes>
            0 -1 40 -3.2836027443408966e-02</internalNodes>
          <leafValues>
            4.0740141272544861e-01 -4.2677330970764160e-01</leafValues></_>
        <_>
          <internalNodes>
            0 -1 0 5.0937384366989136e-02</internalNodes>
          <leafValues>
            -2.7242207527160645e-01 6.1683064699172974e-01</leafValues></_>
        <_>
          <internalNodes>
            0 -1 102 5.9631012845784426e-04</internalNodes>
          <leafValues>
            -2.9168927669525146e-01 5.8733350038528442e-01</leafValues></_>
        <_>
          <internalNodes>
            0 -1 166 2.1161739714443684e-03</internalNodes>
          <leafValues>
            2.6862889528274536e-01 -8.3270931243896484e-01</leafValues></_>
        <_>
          <internalNodes>
            0 -1 48 -1.0838790331035852e-03</internalNodes>
          <leafValues>
            2.6851856708526611e-01 -5.6671983003616333e-01</leafValues></_>
        <_>
          <internalNodes>
            0 -1 171 2.3620037245564163e-04</internalNodes>
          <leafValues>
            3.1650817394256592e-01 -5.6226634979248047e-01</leafValues></_>
        <_>
          <internalNodes>
            0 -1 81 -2.8904188424348831e-02</internalNodes>
          <leafValues>
            -7.7214378118515015e-01 2.1009996533393860e-01</leafValues></_>
        <_>
          <internalNodes>
            0 -1 16 1.2452527880668640e-03</internalNodes>
          <leafValues>
            -5.4632699489593506e-01 2.6523438096046448e-01</leafValues></_></weakClassifiers></_>
    <!-- stage 17 -->
    <_>
      <maxWeakCount>9</maxWeakCount>
      <stageThreshold>-9.4305282831192017e-01</stageThreshold>
      <weakClassifiers>
        <_>
          <internalNodes>
            0 -1 141 -3.6912097129970789e-03</internalNodes>
          <leafValues>
            5.0769233703613281e-01 -5.1111114025115967e-01</leafValues></_>
        <_>
          <internalNodes>
            0 -1 157 4.4460955541580915e-04</internalNodes>
          <leafValues>
            2.9653415083885193e-01 -8.0314141511917114e-01</leafValues></_>
        <_>
          <internalNodes>
            0 -1 117 1.0410750837763771e-04</internalNodes>
          <leafValues>
            -3.9333352446556091e-01 6.1038774251937866e-01</leafValues></_>
        <_>
          <internalNodes>
            0 -1 26 -7.1614515036344528e-03</internalNodes>
          <leafValues>
            6.4763516187667847e-01 -3.9116418361663818e-01</leafValues></_>
        <_>
          <internalNodes>
            0 -1 147 -2.1256894979160279e-04</internalNodes>
          <leafValues>
            -6.1903631687164307e-01 3.4466439485549927e-01</leafValues></_>
        <_>
          <internalNodes>
            0 -1 146 -1.3874596916139126e-03</internalNodes>
          <leafValues>
            4.8701432347297668e-01 -4.3764263391494751e-01</leafValues></_>
        <_>
          <internalNodes>
            0 -1 172 6.1708991415798664e-04</internalNodes>
          <leafValues>
            -3.3267262578010559e-01 6.0663557052612305e-01</leafValues></_>
        <_>
          <internalNodes>
            0 -1 75 1.5520583838224411e-02</internalNodes>
          <leafValues>
            2.8788402676582336e-01 -7.6845961809158325e-01</leafValues></_>
        <_>
          <internalNodes>
            0 -1 104 -4.0325816371478140e-04</internalNodes>
          <leafValues>
            -6.6512775421142578e-01 3.1082415580749512e-01</leafValues></_></weakClassifiers></_>
    <!-- stage 18 -->
    <_>
      <maxWeakCount>9</maxWeakCount>
      <stageThreshold>-1.2818250656127930e+00</stageThreshold>
      <weakClassifiers>
        <_>
          <internalNodes>
            0 -1 136 -2.2013552952557802e-03</internalNodes>
          <leafValues>
            6.7424243688583374e-01 -4.4755244255065918e-01</leafValues></_>
        <_>
          <internalNodes>
            0 -1 45 -2.8510596603155136e-03</internalNodes>
          <leafValues>
            7.1914374828338623e-01 -3.8364183902740479e-01</leafValues></_>
        <_>
          <internalNodes>
            0 -1 126 -2.5964979082345963e-02</internalNodes>
          <leafValues>
            -7.1897041797637939e-01 4.2887169122695923e-01</leafValues></_>
        <_>
          <internalNodes>
            0 -1 153 -7.7071518171578646e-04</internalNodes>
          <leafValues>
            7.7491015195846558e-01 -3.3916413784027100e-01</leafValues></_>
        <_>
          <internalNodes>
            0 -1 120 3.4120399504899979e-03</internalNodes>
          <leafValues>
            4.2063114047050476e-01 -7.3962223529815674e-01</leafValues></_>
        <_>
          <internalNodes>
            0 -1 31 1.3128295540809631e-02</internalNodes>
          <leafValues>
            -4.0481901168823242e-01 8.2275617122650146e-01</leafValues></_>
        <_>
          <internalNodes>
            0 -1 116 -2.1381294354796410e-03</internalNodes>
          <leafValues>
            -6.8605226278305054e-01 4.0578898787498474e-01</leafValues></_>
        <_>
          <internalNodes>
            0 -1 174 -1.6937576234340668e-02</internalNodes>
          <leafValues>
            8.3633190393447876e-01 -3.5813143849372864e-01</leafValues></_>
        <_>
          <internalNodes>
            0 -1 119 -9.0410443954169750e-04</internalNodes>
          <leafValues>
            -5.0725120306015015e-01 5.2649182081222534e-01</leafValues></_></weakClassifiers></_>
    <!-- stage 19 -->
    <_>
      <maxWeakCount>6</maxWeakCount>
      <stageThreshold>-8.5835599899291992e-01</stageThreshold>
      <weakClassifiers>
        <_>
          <internalNodes>
            0 -1 39 -2.1325562556739897e-04</internalNodes>
          <leafValues>
            7.8409093618392944e-01 -5.4895102977752686e-01</leafValues></_>
        <_>
          <internalNodes>
            0 -1 170 3.8118512020446360e-04</internalNodes>
          <leafValues>
            -3.9331039786338806e-01 8.5226953029632568e-01</leafValues></_>
        <_>
          <internalNodes>
            0 -1 132 -2.7559569571167231e-04</internalNodes>
          <leafValues>
            7.0708781480789185e-01 -4.6865394711494446e-01</leafValues></_>
        <_>
          <internalNodes>
            0 -1 113 -1.0460225166752934e-03</internalNodes>
          <leafValues>
            5.5458527803421021e-01 -6.5796518325805664e-01</leafValues></_>
        <_>
          <internalNodes>
            0 -1 57 -4.3008790817111731e-04</internalNodes>
          <leafValues>
            8.6339545249938965e-01 -4.3191763758659363e-01</leafValues></_>
        <_>
          <internalNodes>
            0 -1 129 -1.1429176665842533e-02</internalNodes>
          <leafValues>
            -7.4584996700286865e-01 5.4642409086227417e-01</leafValues></_></weakClassifiers></_></stages>
  <features>
    <_>
      <rects>
        <_>
          0 0 10 8 -1.</_>
        <_>
          0 0 5 4 2.</_>
        <_>
          5 4 5 4 2.</_></rects>
      <tilted>0</tilted></_>
    <_>
      <rects>
        <_>
          0 0 10 10 -1.</_>
        <_>
          0 0 5 5 2.</_>
        <_>
          5 5 5 5 2.</_></rects>
      <tilted>0</tilted></_>
    <_>
      <rects>
        <_>
          0 3 2 17 -1.</_>
        <_>
          1 3 1 17 2.</_></rects>
      <tilted>0</tilted></_>
    <_>
      <rects>
        <_>
          0 4 20 16 -1.</_>
        <_>
          5 4 10 16 2.</_></rects>
      <tilted>0</tilted></_>
    <_>
      <rects>
        <_>
          0 5 4 12 -1.</_>
        <_>
          1 5 2 12 2.</_></rects>
      <tilted>0</tilted></_>
    <_>
      <rects>
        <_>
          0 5 20 4 -1.</_>
        <_>
          5 5 10 4 2.</_></rects>
      <tilted>0</tilted></_>
    <_>
      <rects>
        <_>
          0 6 3 11 -1.</_>
        <_>
          1 6 1 11 3.</_></rects>
      <tilted>0</tilted></_>
    <_>
      <rects>
        <_>
          0 10 8 10 -1.</_>
        <_>
          0 10 4 5 2.</_>
        <_>
          4 15 4 5 2.</_></rects>
      <tilted>0</tilted></_>
    <_>
      <rects>
        <_>
          0 10 10 10 -1.</_>
        <_>
          0 10 5 5 2.</_>
        <_>
          5 15 5 5 2.</_></rects>
      <tilted>0</tilted></_>
    <_>
      <rects>
        <_>
          0 13 14 4 -1.</_>
        <_>
          0 13 7 2 2.</_>
        <_>
          7 15 7 2 2.</_></rects>
      <tilted>0</tilted></_>
    <_>
      <rects>
        <_>
          0 16 8 4 -1.</_>
        <_>
          4 16 4 4 2.</_></rects>
      <tilted>0</tilted></_>
    <_>
      <rects>
        <_>
          0 19 20 1 -1.</_>
        <_>
          5 19 10 1 2.</_></rects>
      <tilted>0</tilted></_>
    <_>
      <rects>
        <_>
          1 0 8 12 -1.</_>
        <_>
          1 0 4 6 2.</_>
        <_>
          5 6 4 6 2.</_></rects>
      <tilted>0</tilted></_>
    <_>
      <rects>
        <_>
          1 2 12 6 -1.</_>
        <_>
          1 2 6 3 2.</_>
        <_>
          7 5 6 3 2.</_></rects>
      <tilted>0</tilted></_>
    <_>
      <rects>
        <_>
          1 6 17 9 -1.</_>
        <_>
          1 9 17 3 3.</_></rects>
      <tilted>0</tilted></_>
    <_>
      <rects>
        <_>
          1 12 10 8 -1.</_>
        <_>
          1 12 5 4 2.</_>
        <_>
          6 16 5 4 2.</_></rects>
      <tilted>0</tilted></_>
    <_>
      <rects>
        <_>
          1 12 13 2 -1.</_>
        <_>
          1 13 13 1 2.</_></rects>
      <tilted>0</tilted></_>
    <_>
      <rects>
        <_>
          1 12 15 2 -1.</_>
        <_>
          1 13 15 1 2.</_></rects>
      <tilted>0</tilted></_>
    <_>
      <rects>
        <_>
          2 0 13 2 -1.</_>
        <_>
          2 1 13 1 2.</_></rects>
      <tilted>0</tilted></_>
    <_>
      <rects>
        <_>
          2 0 16 9 -1.</_>
        <_>
          2 3 16 3 3.</_></rects>
      <tilted>0</tilted></_>
    <_>
      <rects>
        <_>
          2 4 6 10 -1.</_>
        <_>
          2 4 3 5 2.</_>
        <_>
          5 9 3 5 2.</_></rects>
      <tilted>0</tilted></_>
    <_>
      <rects>
        <_>
          2 10 4 4 -1.</_>
        <_>
          2 11 4 2 2.</_></rects>
      <tilted>0</tilted></_>
    <_>
      <rects>
        <_>
          2 11 5 4 -1.</_>
        <_>
          2 12 5 2 2.</_></rects>
      <tilted>0</tilted></_>
    <_>
      <rects>
        <_>
          2 11 18 3 -1.</_>
        <_>
          2 12 18 1 3.</_></rects>
      <tilted>0</tilted></_>
    <_>
      <rects>
        <_>
          2 13 18 3 -1.</_>
        <_>
          8 14 6 1 9.</_></rects>
      <tilted>0</tilted></_>
    <_>
      <rects>
        <_>
          2 14 12 4 -1.</_>
        <_>
          2 15 12 2 2.</_></rects>
      <tilted>0</tilted></_>
    <_>
      <rects>
        <_>
          2 19 15 1 -1.</_>
        <_>
          7 19 5 1 3.</_></rects>
      <tilted>0</tilted></_>
    <_>
      <rects>
        <_>
          3 9 2 2 -1.</_>
        <_>
          3 10 2 1 2.</_></rects>
      <tilted>0</tilted></_>
    <_>
      <rects>
        <_>
          3 14 3 4 -1.</_>
        <_>
          3 15 3 2 2.</_></rects>
      <tilted>0</tilted></_>
    <_>
      <rects>
        <_>
          4 0 4 4 -1.</_>
        <_>
          5 1 2 4 2.</_></rects>
      <tilted>1</tilted></_>
    <_>
      <rects>
        <_>
          4 3 4 10 -1.</_>
        <_>
          4 3 2 5 2.</_>
        <_>
          6 8 2 5 2.</_></rects>
      <tilted>0</tilted></_>
    <_>
      <rects>
        <_>
          4 3 12 1 -1.</_>
        <_>
          7 6 6 1 2.</_></rects>
      <tilted>1</tilted></_>
    <_>
      <rects>
        <_>
          4 7 2 2 -1.</_>
        <_>
          4 7 1 1 2.</_>
        <_>
          5 8 1 1 2.</_></rects>
      <tilted>0</tilted></_>
    <_>
      <rects>
        <_>
          4 9 8 6 -1.</_>
        <_>
          4 12 8 3 2.</_></rects>
      <tilted>0</tilted></_>
    <_>
      <rects>
        <_>
          4 9 16 6 -1.</_>
        <_>
          4 12 16 3 2.</_></rects>
      <tilted>0</tilted></_>
    <_>
      <rects>
        <_>
          4 11 8 2 -1.</_>
        <_>
          4 12 8 1 2.</_></rects>
      <tilted>0</tilted></_>
    <_>
      <rects>
        <_>
          4 13 3 4 -1.</_>
        <_>
          3 14 3 2 2.</_></rects>
      <tilted>1</tilted></_>
    <_>
      <rects>
        <_>
          5 9 6 8 -1.</_>
        <_>
          5 13 6 4 2.</_></rects>
      <tilted>0</tilted></_>
    <_>
      <rects>
        <_>
          5 10 3 6 -1.</_>
        <_>
          5 13 3 3 2.</_></rects>
      <tilted>0</tilted></_>
    <_>
      <rects>
        <_>
          5 11 2 2 -1.</_>
        <_>
          5 12 2 1 2.</_></rects>
      <tilted>0</tilted></_>
    <_>
      <rects>
        <_>
          6 1 9 9 -1.</_>
        <_>
          6 4 9 3 3.</_></rects>
      <tilted>0</tilted></_>
    <_>
      <rects>
        <_>
          6 2 13 6 -1.</_>
        <_>
          6 4 13 2 3.</_></rects>
      <tilted>0</tilted></_>
    <_>
      <rects>
        <_>
          6 4 14 4 -1.</_>
        <_>
          6 4 7 2 2.</_>
        <_>
          13 6 7 2 2.</_></rects>
      <tilted>0</tilted></_>
    <_>
      <rects>
        <_>
          6 4 13 3 -1.</_>
        <_>
          5 5 13 1 3.</_></rects>
      <tilted>1</tilted></_>
    <_>
      <rects>
        <_>
          6 5 6 12 -1.</_>
        <_>
          6 5 3 6 2.</_>
        <_>
          9 11 3 6 2.</_></rects>
      <tilted>0</tilted></_>
    <_>
      <rects>
        <_>
          6 8 4 4 -1.</_>
        <_>
          6 8 2 2 2.</_>
        <_>
          8 10 2 2 2.</_></rects>
      <tilted>0</tilted></_>
    <_>
      <rects>
        <_>
          6 8 3 8 -1.</_>
        <_>
          6 10 3 4 2.</_></rects>
      <tilted>0</tilted></_>
    <_>
      <rects>
        <_>
          6 8 3 9 -1.</_>
        <_>
          6 11 3 3 3.</_></rects>
      <tilted>0</tilted></_>
    <_>
      <rects>
        <_>
          6 9 3 4 -1.</_>
        <_>
          5 10 3 2 2.</_></rects>
      <tilted>1</tilted></_>
    <_>
      <rects>
        <_>
          6 10 4 6 -1.</_>
        <_>
          6 10 2 3 2.</_>
        <_>
          8 13 2 3 2.</_></rects>
      <tilted>0</tilted></_>
    <_>
      <rects>
        <_>
          6 11 3 3 -1.</_>
        <_>
          7 11 1 3 3.</_></rects>
      <tilted>0</tilted></_>
    <_>
      <rects>
        <_>
          6 11 6 2 -1.</_>
        <_>
          9 11 3 2 2.</_></rects>
      <tilted>0</tilted></_>
    <_>
      <rects>
        <_>
          6 12 4 4 -1.</_>
        <_>
          6 12 2 4 2.</_></rects>
      <tilted>1</tilted></_>
    <_>
      <rects>
        <_>
          6 12 6 1 -1.</_>
        <_>
          9 12 3 1 2.</_></rects>
      <tilted>0</tilted></_>
    <_>
      <rects>
        <_>
          6 12 9 3 -1.</_>
        <_>
          9 13 3 1 9.</_></rects>
      <tilted>0</tilted></_>
    <_>
      <rects>
        <_>
          6 13 2 1 -1.</_>
        <_>
          6 13 1 1 2.</_></rects>
      <tilted>1</tilted></_>
    <_>
      <rects>
        <_>
          6 13 4 2 -1.</_>
        <_>
          6 13 2 2 2.</_></rects>
      <tilted>1</tilted></_>
    <_>
      <rects>
        <_>
          6 17 1 3 -1.</_>
        <_>
          6 18 1 1 3.</_></rects>
      <tilted>0</tilted></_>
    <_>
      <rects>
        <_>
          7 0 12 9 -1.</_>
        <_>
          7 3 12 3 3.</_></rects>
      <tilted>0</tilted></_>
    <_>
      <rects>
        <_>
          7 1 6 5 -1.</_>
        <_>
          9 3 2 5 3.</_></rects>
      <tilted>1</tilted></_>
    <_>
      <rects>
        <_>
          7 4 2 2 -1.</_>
        <_>
          7 4 2 1 2.</_></rects>
      <tilted>1</tilted></_>
    <_>
      <rects>
        <_>
          7 4 6 12 -1.</_>
        <_>
          9 4 2 12 3.</_></rects>
      <tilted>0</tilted></_>
    <_>
      <rects>
        <_>
          7 5 6 13 -1.</_>
        <_>
          10 5 3 13 2.</_></rects>
      <tilted>0</tilted></_>
    <_>
      <rects>
        <_>
          7 7 6 9 -1.</_>
        <_>
          9 10 2 3 9.</_></rects>
      <tilted>0</tilted></_>
    <_>
      <rects>
        <_>
          7 7 6 7 -1.</_>
        <_>
          9 7 2 7 3.</_></rects>
      <tilted>0</tilted></_>
    <_>
      <rects>
        <_>
          7 8 5 2 -1.</_>
        <_>
          7 8 5 1 2.</_></rects>
      <tilted>1</tilted></_>
    <_>
      <rects>
        <_>
          7 9 10 3 -1.</_>
        <_>
          12 9 5 3 2.</_></rects>
      <tilted>0</tilted></_>
    <_>
      <rects>
        <_>
          7 10 3 3 -1.</_>
        <_>
          6 11 3 1 3.</_></rects>
      <tilted>1</tilted></_>
    <_>
      <rects>
        <_>
          7 10 8 4 -1.</_>
        <_>
          7 12 8 2 2.</_></rects>
      <tilted>0</tilted></_>
    <_>
      <rects>
        <_>
          7 11 4 3 -1.</_>
        <_>
          6 12 4 1 3.</_></rects>
      <tilted>1</tilted></_>
    <_>
      <rects>
        <_>
          7 11 7 6 -1.</_>
        <_>
          7 13 7 2 3.</_></rects>
      <tilted>0</tilted></_>
    <_>
      <rects>
        <_>
          7 13 3 1 -1.</_>
        <_>
          8 14 1 1 3.</_></rects>
      <tilted>1</tilted></_>
    <_>
      <rects>
        <_>
          7 14 4 2 -1.</_>
        <_>
          9 14 2 2 2.</_></rects>
      <tilted>0</tilted></_>
    <_>
      <rects>
        <_>
          7 14 10 4 -1.</_>
        <_>
          7 15 10 2 2.</_></rects>
      <tilted>0</tilted></_>
    <_>
      <rects>
        <_>
          8 2 6 3 -1.</_>
        <_>
          10 2 2 3 3.</_></rects>
      <tilted>0</tilted></_>
    <_>
      <rects>
        <_>
          8 3 4 9 -1.</_>
        <_>
          10 3 2 9 2.</_></rects>
      <tilted>0</tilted></_>
    <_>
      <rects>
        <_>
          8 3 6 4 -1.</_>
        <_>
          8 3 6 2 2.</_></rects>
      <tilted>1</tilted></_>
    <_>
      <rects>
        <_>
          8 4 3 3 -1.</_>
        <_>
          9 5 1 3 3.</_></rects>
      <tilted>1</tilted></_>
    <_>
      <rects>
        <_>
          8 4 4 12 -1.</_>
        <_>
          10 4 2 12 2.</_></rects>
      <tilted>0</tilted></_>
    <_>
      <rects>
        <_>
          8 4 12 4 -1.</_>
        <_>
          8 4 6 2 2.</_>
        <_>
          14 6 6 2 2.</_></rects>
      <tilted>0</tilted></_>
    <_>
      <rects>
        <_>
          8 5 1 2 -1.</_>
        <_>
          8 5 1 1 2.</_></rects>
      <tilted>1</tilted></_>
    <_>
      <rects>
        <_>
          8 5 6 13 -1.</_>
        <_>
          11 5 3 13 2.</_></rects>
      <tilted>0</tilted></_>
    <_>
      <rects>
        <_>
          8 6 9 9 -1.</_>
        <_>
          11 6 3 9 3.</_></rects>
      <tilted>0</tilted></_>
    <_>
      <rects>
        <_>
          8 6 6 11 -1.</_>
        <_>
          11 6 3 11 2.</_></rects>
      <tilted>0</tilted></_>
    <_>
      <rects>
        <_>
          8 7 8 3 -1.</_>
        <_>
          8 7 4 3 2.</_></rects>
      <tilted>1</tilted></_>
    <_>
      <rects>
        <_>
          8 7 12 8 -1.</_>
        <_>
          8 9 12 4 2.</_></rects>
      <tilted>0</tilted></_>
    <_>
      <rects>
        <_>
          8 8 6 4 -1.</_>
        <_>
          8 8 3 4 2.</_></rects>
      <tilted>1</tilted></_>
    <_>
      <rects>
        <_>
          8 9 6 6 -1.</_>
        <_>
          10 11 2 2 9.</_></rects>
      <tilted>0</tilted></_>
    <_>
      <rects>
        <_>
          8 9 4 2 -1.</_>
        <_>
          8 9 4 1 2.</_></rects>
      <tilted>1</tilted></_>
    <_>
      <rects>
        <_>
          8 10 3 3 -1.</_>
        <_>
          7 11 3 1 3.</_></rects>
      <tilted>1</tilted></_>
    <_>
      <rects>
        <_>
          8 11 1 8 -1.</_>
        <_>
          6 13 1 4 2.</_></rects>
      <tilted>1</tilted></_>
    <_>
      <rects>
        <_>
          8 13 3 3 -1.</_>
        <_>
          8 14 3 1 3.</_></rects>
      <tilted>0</tilted></_>
    <_>
      <rects>
        <_>
          8 14 6 3 -1.</_>
        <_>
          10 14 2 3 3.</_></rects>
      <tilted>0</tilted></_>
    <_>
      <rects>
        <_>
          9 3 3 5 -1.</_>
        <_>
          10 4 1 5 3.</_></rects>
      <tilted>1</tilted></_>
    <_>
      <rects>
        <_>
          9 4 9 4 -1.</_>
        <_>
          9 4 9 2 2.</_></rects>
      <tilted>1</tilted></_>
    <_>
      <rects>
        <_>
          9 5 4 2 -1.</_>
        <_>
          10 5 2 2 2.</_></rects>
      <tilted>0</tilted></_>
    <_>
      <rects>
        <_>
          9 6 2 6 -1.</_>
        <_>
          9 8 2 2 3.</_></rects>
      <tilted>0</tilted></_>
    <_>
      <rects>
        <_>
          9 6 3 8 -1.</_>
        <_>
          9 10 3 4 2.</_></rects>
      <tilted>0</tilted></_>
    <_>
      <rects>
        <_>
          9 6 3 12 -1.</_>
        <_>
          9 12 3 6 2.</_></rects>
      <tilted>0</tilted></_>
    <_>
      <rects>
        <_>
          9 6 7 10 -1.</_>
        <_>
          9 11 7 5 2.</_></rects>
      <tilted>0</tilted></_>
    <_>
      <rects>
        <_>
          9 7 9 6 -1.</_>
        <_>
          12 9 3 2 9.</_></rects>
      <tilted>0</tilted></_>
    <_>
      <rects>
        <_>
          9 7 6 5 -1.</_>
        <_>
          9 7 3 5 2.</_></rects>
      <tilted>1</tilted></_>
    <_>
      <rects>
        <_>
          9 8 2 4 -1.</_>
        <_>
          9 8 1 2 2.</_>
        <_>
          10 10 1 2 2.</_></rects>
      <tilted>0</tilted></_>
    <_>
      <rects>
        <_>
          9 8 6 6 -1.</_>
        <_>
          11 10 2 2 9.</_></rects>
      <tilted>0</tilted></_>
    <_>
      <rects>
        <_>
          9 8 6 8 -1.</_>
        <_>
          11 8 2 8 3.</_></rects>
      <tilted>0</tilted></_>
    <_>
      <rects>
        <_>
          9 10 4 4 -1.</_>
        <_>
          9 10 2 4 2.</_></rects>
      <tilted>1</tilted></_>
    <_>
      <rects>
        <_>
          9 11 3 4 -1.</_>
        <_>
          9 12 3 2 2.</_></rects>
      <tilted>0</tilted></_>
    <_>
      <rects>
        <_>
          9 11 3 4 -1.</_>
        <_>
          9 13 3 2 2.</_></rects>
      <tilted>0</tilted></_>
    <_>
      <rects>
        <_>
          10 2 6 6 -1.</_>
        <_>
          10 2 3 3 2.</_>
        <_>
          13 5 3 3 2.</_></rects>
      <tilted>0</tilted></_>
    <_>
      <rects>
        <_>
          10 5 8 2 -1.</_>
        <_>
          10 5 4 2 2.</_></rects>
      <tilted>1</tilted></_>
    <_>
      <rects>
        <_>
          10 5 8 3 -1.</_>
        <_>
          10 5 4 3 2.</_></rects>
      <tilted>1</tilted></_>
    <_>
      <rects>
        <_>
          10 5 8 4 -1.</_>
        <_>
          10 5 4 4 2.</_></rects>
      <tilted>1</tilted></_>
    <_>
      <rects>
        <_>
          10 6 4 4 -1.</_>
        <_>
          10 6 2 2 2.</_>
        <_>
          12 8 2 2 2.</_></rects>
      <tilted>0</tilted></_>
    <_>
      <rects>
        <_>
          10 6 4 10 -1.</_>
        <_>
          12 6 2 10 2.</_></rects>
      <tilted>0</tilted></_>
    <_>
      <rects>
        <_>
          10 7 2 4 -1.</_>
        <_>
          10 8 2 2 2.</_></rects>
      <tilted>0</tilted></_>
    <_>
      <rects>
        <_>
          10 7 6 2 -1.</_>
        <_>
          10 7 3 1 2.</_>
        <_>
          13 8 3 1 2.</_></rects>
      <tilted>0</tilted></_>
    <_>
      <rects>
        <_>
          10 8 6 7 -1.</_>
        <_>
          12 8 2 7 3.</_></rects>
      <tilted>0</tilted></_>
    <_>
      <rects>
        <_>
          10 10 2 3 -1.</_>
        <_>
          10 11 2 1 3.</_></rects>
      <tilted>0</tilted></_>
    <_>
      <rects>
        <_>
          10 10 2 3 -1.</_>
        <_>
          9 11 2 1 3.</_></rects>
      <tilted>1</tilted></_>
    <_>
      <rects>
        <_>
          10 11 8 2 -1.</_>
        <_>
          10 11 4 1 2.</_>
        <_>
          14 12 4 1 2.</_></rects>
      <tilted>0</tilted></_>
    <_>
      <rects>
        <_>
          10 11 5 2 -1.</_>
        <_>
          10 11 5 1 2.</_></rects>
      <tilted>1</tilted></_>
    <_>
      <rects>
        <_>
          10 12 4 4 -1.</_>
        <_>
          10 12 2 2 2.</_>
        <_>
          12 14 2 2 2.</_></rects>
      <tilted>0</tilted></_>
    <_>
      <rects>
        <_>
          10 12 8 8 -1.</_>
        <_>
          10 12 4 4 2.</_>
        <_>
          14 16 4 4 2.</_></rects>
      <tilted>0</tilted></_>
    <_>
      <rects>
        <_>
          10 13 6 3 -1.</_>
        <_>
          13 13 3 3 2.</_></rects>
      <tilted>0</tilted></_>
    <_>
      <rects>
        <_>
          10 14 2 2 -1.</_>
        <_>
          10 14 1 2 2.</_></rects>
      <tilted>1</tilted></_>
    <_>
      <rects>
        <_>
          10 14 5 4 -1.</_>
        <_>
          10 15 5 2 2.</_></rects>
      <tilted>0</tilted></_>
    <_>
      <rects>
        <_>
          11 3 9 8 -1.</_>
        <_>
          11 3 9 4 2.</_></rects>
      <tilted>1</tilted></_>
    <_>
      <rects>
        <_>
          11 4 7 6 -1.</_>
        <_>
          11 4 7 3 2.</_></rects>
      <tilted>1</tilted></_>
    <_>
      <rects>
        <_>
          11 7 4 7 -1.</_>
        <_>
          12 8 2 7 2.</_></rects>
      <tilted>1</tilted></_>
    <_>
      <rects>
        <_>
          11 8 3 8 -1.</_>
        <_>
          12 9 1 8 3.</_></rects>
      <tilted>1</tilted></_>
    <_>
      <rects>
        <_>
          11 9 4 3 -1.</_>
        <_>
          11 9 2 3 2.</_></rects>
      <tilted>1</tilted></_>
    <_>
      <rects>
        <_>
          11 10 4 3 -1.</_>
        <_>
          13 10 2 3 2.</_></rects>
      <tilted>0</tilted></_>
    <_>
      <rects>
        <_>
          11 13 2 2 -1.</_>
        <_>
          11 13 1 1 2.</_>
        <_>
          12 14 1 1 2.</_></rects>
      <tilted>0</tilted></_>
    <_>
      <rects>
        <_>
          11 14 2 2 -1.</_>
        <_>
          11 14 1 2 2.</_></rects>
      <tilted>1</tilted></_>
    <_>
      <rects>
        <_>
          11 14 4 2 -1.</_>
        <_>
          13 14 2 2 2.</_></rects>
      <tilted>0</tilted></_>
    <_>
      <rects>
        <_>
          12 1 4 4 -1.</_>
        <_>
          11 2 4 2 2.</_></rects>
      <tilted>1</tilted></_>
    <_>
      <rects>
        <_>
          12 4 1 2 -1.</_>
        <_>
          12 4 1 1 2.</_></rects>
      <tilted>1</tilted></_>
    <_>
      <rects>
        <_>
          12 4 2 8 -1.</_>
        <_>
          12 4 2 4 2.</_></rects>
      <tilted>1</tilted></_>
    <_>
      <rects>
        <_>
          12 4 4 8 -1.</_>
        <_>
          12 4 4 4 2.</_></rects>
      <tilted>1</tilted></_>
    <_>
      <rects>
        <_>
          12 5 6 8 -1.</_>
        <_>
          12 5 6 4 2.</_></rects>
      <tilted>1</tilted></_>
    <_>
      <rects>
        <_>
          12 11 4 4 -1.</_>
        <_>
          11 12 4 2 2.</_></rects>
      <tilted>1</tilted></_>
    <_>
      <rects>
        <_>
          13 3 1 4 -1.</_>
        <_>
          13 3 1 2 2.</_></rects>
      <tilted>1</tilted></_>
    <_>
      <rects>
        <_>
          13 8 3 8 -1.</_>
        <_>
          13 10 3 4 2.</_></rects>
      <tilted>0</tilted></_>
    <_>
      <rects>
        <_>
          13 14 2 2 -1.</_>
        <_>
          13 14 1 1 2.</_>
        <_>
          14 15 1 1 2.</_></rects>
      <tilted>0</tilted></_>
    <_>
      <rects>
        <_>
          14 2 6 18 -1.</_>
        <_>
          17 2 3 18 2.</_></rects>
      <tilted>0</tilted></_>
    <_>
      <rects>
        <_>
          14 2 6 4 -1.</_>
        <_>
          14 2 6 2 2.</_></rects>
      <tilted>1</tilted></_>
    <_>
      <rects>
        <_>
          14 3 2 8 -1.</_>
        <_>
          14 3 1 4 2.</_>
        <_>
          15 7 1 4 2.</_></rects>
      <tilted>0</tilted></_>
    <_>
      <rects>
        <_>
          14 5 2 8 -1.</_>
        <_>
          14 5 1 8 2.</_></rects>
      <tilted>1</tilted></_>
    <_>
      <rects>
        <_>
          14 8 2 8 -1.</_>
        <_>
          14 12 2 4 2.</_></rects>
      <tilted>0</tilted></_>
    <_>
      <rects>
        <_>
          14 10 6 10 -1.</_>
        <_>
          14 10 3 5 2.</_>
        <_>
          17 15 3 5 2.</_></rects>
      <tilted>0</tilted></_>
    <_>
      <rects>
        <_>
          14 15 2 1 -1.</_>
        <_>
          15 15 1 1 2.</_></rects>
      <tilted>0</tilted></_>
    <_>
      <rects>
        <_>
          15 3 4 3 -1.</_>
        <_>
          14 4 4 1 3.</_></rects>
      <tilted>1</tilted></_>
    <_>
      <rects>
        <_>
          15 5 2 6 -1.</_>
        <_>
          15 5 1 3 2.</_>
        <_>
          16 8 1 3 2.</_></rects>
      <tilted>0</tilted></_>
    <_>
      <rects>
        <_>
          15 6 2 4 -1.</_>
        <_>
          15 7 2 2 2.</_></rects>
      <tilted>0</tilted></_>
    <_>
      <rects>
        <_>
          15 6 2 8 -1.</_>
        <_>
          15 6 2 4 2.</_></rects>
      <tilted>1</tilted></_>
    <_>
      <rects>
        <_>
          15 6 3 8 -1.</_>
        <_>
          15 6 3 4 2.</_></rects>
      <tilted>1</tilted></_>
    <_>
      <rects>
        <_>
          15 7 1 4 -1.</_>
        <_>
          15 9 1 2 2.</_></rects>
      <tilted>0</tilted></_>
    <_>
      <rects>
        <_>
          15 8 1 6 -1.</_>
        <_>
          13 10 1 2 3.</_></rects>
      <tilted>1</tilted></_>
    <_>
      <rects>
        <_>
          15 9 2 6 -1.</_>
        <_>
          15 9 1 3 2.</_>
        <_>
          16 12 1 3 2.</_></rects>
      <tilted>0</tilted></_>
    <_>
      <rects>
        <_>
          15 9 3 4 -1.</_>
        <_>
          16 9 1 4 3.</_></rects>
      <tilted>0</tilted></_>
    <_>
      <rects>
        <_>
          15 9 3 5 -1.</_>
        <_>
          16 9 1 5 3.</_></rects>
      <tilted>0</tilted></_>
    <_>
      <rects>
        <_>
          15 11 2 6 -1.</_>
        <_>
          15 11 2 3 2.</_></rects>
      <tilted>1</tilted></_>
    <_>
      <rects>
        <_>
          15 11 4 3 -1.</_>
        <_>
          15 12 4 1 3.</_></rects>
      <tilted>0</tilted></_>
    <_>
      <rects>
        <_>
          15 12 2 2 -1.</_>
        <_>
          15 12 1 2 2.</_></rects>
      <tilted>1</tilted></_>
    <_>
      <rects>
        <_>
          15 12 3 3 -1.</_>
        <_>
          16 13 1 3 3.</_></rects>
      <tilted>1</tilted></_>
    <_>
      <rects>
        <_>
          15 13 3 3 -1.</_>
        <_>
          14 14 3 1 3.</_></rects>
      <tilted>1</tilted></_>
    <_>
      <rects>
        <_>
          16 8 2 3 -1.</_>
        <_>
          16 9 2 1 3.</_></rects>
      <tilted>0</tilted></_>
    <_>
      <rects>
        <_>
          16 11 3 5 -1.</_>
        <_>
          17 12 1 5 3.</_></rects>
      <tilted>1</tilted></_>
    <_>
      <rects>
        <_>
          16 12 2 2 -1.</_>
        <_>
          16 12 2 1 2.</_></rects>
      <tilted>1</tilted></_>
    <_>
      <rects>
        <_>
          16 12 2 4 -1.</_>
        <_>
          16 12 2 2 2.</_></rects>
      <tilted>1</tilted></_>
    <_>
      <rects>
        <_>
          17 11 3 1 -1.</_>
        <_>
          18 12 1 1 3.</_></rects>
      <tilted>1</tilted></_>
    <_>
      <rects>
        <_>
          18 9 1 6 -1.</_>
        <_>
          18 12 1 3 2.</_></rects>
      <tilted>0</tilted></_>
    <_>
      <rects>
        <_>
          18 10 2 6 -1.</_>
        <_>
          18 10 1 3 2.</_>
        <_>
          19 13 1 3 2.</_></rects>
      <tilted>0</tilted></_>
    <_>
      <rects>
        <_>
          19 0 1 20 -1.</_>
        <_>
          19 5 1 10 2.</_></rects>
      <tilted>0</tilted></_>
    <_>
      <rects>
        <_>
          19 4 1 15 -1.</_>
        <_>
          19 9 1 5 3.</_></rects>
      <tilted>0</tilted></_>
    <_>
      <rects>
        <_>
          19 12 1 8 -1.</_>
        <_>
          19 16 1 4 2.</_></rects>
      <tilted>0</tilted></_></features></cascade>
</opencv_storage>
