<?xml version="1.0"?>
<opencv_storage>
<cascade>
  <stageType>BOOST</stageType>
  <featureType>HAAR</featureType>
  <height>20</height>
  <width>20</width>
  <stageParams>
    <boostType>GAB</boostType>
    <minHitRate>9.9900001287460327e-01</minHitRate>
    <maxFalseAlarm>5.0000000000000000e-01</maxFalseAlarm>
    <weightTrimRate>9.4999999999999996e-01</weightTrimRate>
    <maxDepth>1</maxDepth>
    <maxWeakCount>100</maxWeakCount></stageParams>
  <featureParams>
    <maxCatCount>0</maxCatCount>
    <featSize>1</featSize>
    <mode>ALL</mode></featureParams>
  <stageNum>19</stageNum>
  <stages>
    <!-- stage 0 -->
    <_>
      <maxWeakCount>6</maxWeakCount>
      <stageThreshold>-1.7433354854583740e+00</stageThreshold>
      <weakClassifiers>
        <_>
          <internalNodes>
            0 -1 70 1.4475620351731777e-02</internalNodes>
          <leafValues>
            -7.3166924715042114e-01 7.7475726604461670e-01</leafValues></_>
        <_>
          <internalNodes>
            0 -1 124 -1.0118164122104645e-02</internalNodes>
          <leafValues>
            7.8015983104705811e-01 -5.2575969696044922e-01</leafValues></_>
        <_>
          <internalNodes>
            0 -1 88 -3.9123417809605598e-03</internalNodes>
          <leafValues>
            4.5584806799888611e-01 -8.8916873931884766e-01</leafValues></_>
        <_>
          <internalNodes>
            0 -1 172 -8.4495265036821365e-03</internalNodes>
          <leafValues>
            4.8196560144424438e-01 -7.5009351968765259e-01</leafValues></_>
        <_>
          <internalNodes>
            0 -1 109 -1.5845488756895065e-02</internalNodes>
          <leafValues>
            -8.9879131317138672e-01 3.2091027498245239e-01</leafValues></_>
        <_>
          <internalNodes>
            0 -1 84 7.2904507396742702e-04</internalNodes>
          <leafValues>
            -6.7398107051849365e-01 4.2378228902816772e-01</leafValues></_></weakClassifiers></_>
    <!-- stage 1 -->
    <_>
      <maxWeakCount>6</maxWeakCount>
      <stageThreshold>-1.6279888153076172e+00</stageThreshold>
      <weakClassifiers>
        <_>
          <internalNodes>
            0 -1 72 2.5515109300613403e-03</internalNodes>
          <leafValues>
            -6.9372129440307617e-01 7.6817286014556885e-01</leafValues></_>
        <_>
          <internalNodes>
            0 -1 156 6.2441560439765453e-03</internalNodes>
          <leafValues>
            -6.2262940406799316e-01 6.5262997150421143e-01</leafValues></_>
        <_>
          <internalNodes>
            0 -1 4 -7.2190193459391594e-03</internalNodes>
          <leafValues>
            7.7516126632690430e-01 -4.5061933994293213e-01</leafValues></_>
        <_>
          <internalNodes>
            0 -1 146 -1.8410733900964260e-03</internalNodes>
          <leafValues>
            5.0404059886932373e-01 -7.1628350019454956e-01</leafValues></_>
        <_>
          <internalNodes>
            0 -1 13 7.4856309220194817e-03</internalNodes>
          <leafValues>
            -6.1780482530593872e-01 5.0494962930679321e-01</leafValues></_>
        <_>
          <internalNodes>
            0 -1 44 1.6933216247707605e-03</internalNodes>
          <leafValues>
            3.4333235025405884e-01 -8.7000906467437744e-01</leafValues></_></weakClassifiers></_>
    <!-- stage 2 -->
    <_>
      <maxWeakCount>7</maxWeakCount>
      <stageThreshold>-1.4837797880172729e+00</stageThreshold>
      <weakClassifiers>
        <_>
          <internalNodes>
            0 -1 75 1.1112833162769675e-03</internalNodes>
          <leafValues>
            -7.5518673658370972e-01 5.8284270763397217e-01</leafValues></_>
        <_>
          <internalNodes>
            0 -1 107 -1.6350832302123308e-03</internalNodes>
          <leafValues>
            3.8090604543685913e-01 -8.8990199565887451e-01</leafValues></_>
        <_>
          <internalNodes>
            0 -1 37 -8.1590404734015465e-03</internalNodes>
          <leafValues>
            5.8084207773208618e-01 -5.9787482023239136e-01</leafValues></_>
        <_>
          <internalNodes>
            0 -1 119 -1.1039711534976959e-03</internalNodes>
          <leafValues>
            4.2146092653274536e-01 -6.4723533391952515e-01</leafValues></_>
        <_>
          <internalNodes>
            0 -1 131 8.0052316188812256e-03</internalNodes>
          <leafValues>
            2.5333318114280701e-01 -9.6283316612243652e-01</leafValues></_>
        <_>
          <internalNodes>
            0 -1 195 1.6401028260588646e-03</internalNodes>
          <leafValues>
            3.0844551324844360e-01 -9.5934069156646729e-01</leafValues></_>
        <_>
          <internalNodes>
            0 -1 11 -1.0391996055841446e-01</internalNodes>
          <leafValues>
            7.2380620241165161e-01 -4.2616760730743408e-01</leafValues></_></weakClassifiers></_>
    <!-- stage 3 -->
    <_>
      <maxWeakCount>6</maxWeakCount>
      <stageThreshold>-8.7431836128234863e-01</stageThreshold>
      <weakClassifiers>
        <_>
          <internalNodes>
            0 -1 57 3.5670492798089981e-04</internalNodes>
          <leafValues>
            5.2403843402862549e-01 -7.6832151412963867e-01</leafValues></_>
        <_>
          <internalNodes>
            0 -1 9 4.7783773392438889e-02</internalNodes>
          <leafValues>
            -5.4997712373733521e-01 6.6554075479507446e-01</leafValues></_>
        <_>
          <internalNodes>
            0 -1 185 -8.7722465395927429e-03</internalNodes>
          <leafValues>
            8.0296778678894043e-01 -3.6626064777374268e-01</leafValues></_>
        <_>
          <internalNodes>
            0 -1 91 -9.7155476396437734e-05</internalNodes>
          <leafValues>
            -9.4634807109832764e-01 3.3796000480651855e-01</leafValues></_>
        <_>
          <internalNodes>
            0 -1 128 -7.3240804485976696e-03</internalNodes>
          <leafValues>
            -9.0567427873611450e-01 2.4280694127082825e-01</leafValues></_>
        <_>
          <internalNodes>
            0 -1 83 1.9004046916961670e-02</internalNodes>
          <leafValues>
            2.2947397828102112e-01 -8.1246811151504517e-01</leafValues></_></weakClassifiers></_>
    <!-- stage 4 -->
    <_>
      <maxWeakCount>8</maxWeakCount>
      <stageThreshold>-1.1301029920578003e+00</stageThreshold>
      <weakClassifiers>
        <_>
          <internalNodes>
            0 -1 127 -1.2444619089365005e-02</internalNodes>
          <leafValues>
            6.4235764741897583e-01 -4.6865671873092651e-01</leafValues></_>
        <_>
          <internalNodes>
            0 -1 148 5.7487754384055734e-04</internalNodes>
          <leafValues>
            -8.4208649396896362e-01 3.4152165055274963e-01</leafValues></_>
        <_>
          <internalNodes>
            0 -1 97 -2.2101279348134995e-02</internalNodes>
          <leafValues>
            7.0663833618164062e-01 -3.9639294147491455e-01</leafValues></_>
        <_>
          <internalNodes>
            0 -1 197 -2.0967308431863785e-02</internalNodes>
          <leafValues>
            7.7993547916412354e-01 -2.8987151384353638e-01</leafValues></_>
        <_>
          <internalNodes>
            0 -1 166 -3.6637499928474426e-02</internalNodes>
          <leafValues>
            -9.0823304653167725e-01 2.5722253322601318e-01</leafValues></_>
        <_>
          <internalNodes>
            0 -1 140 1.8970502540469170e-02</internalNodes>
          <leafValues>
            2.2457741200923920e-01 -9.1651219129562378e-01</leafValues></_>
        <_>
          <internalNodes>
            0 -1 129 -1.4989157207310200e-03</internalNodes>
          <leafValues>
            -8.4342217445373535e-01 2.3655928671360016e-01</leafValues></_>
        <_>
          <internalNodes>
            0 -1 149 -2.1042651496827602e-04</internalNodes>
          <leafValues>
            1.7993685603141785e-01 -8.9632362127304077e-01</leafValues></_></weakClassifiers></_>
    <!-- stage 5 -->
    <_>
      <maxWeakCount>9</maxWeakCount>
      <stageThreshold>-1.0019493103027344e+00</stageThreshold>
      <weakClassifiers>
        <_>
          <internalNodes>
            0 -1 51 -3.0672278255224228e-02</internalNodes>
          <leafValues>
            6.3445377349853516e-01 -3.8247567415237427e-01</leafValues></_>
        <_>
          <internalNodes>
            0 -1 189 -1.1696828529238701e-02</internalNodes>
          <leafValues>
            6.1190998554229736e-01 -3.6727097630500793e-01</leafValues></_>
        <_>
          <internalNodes>
            0 -1 6 -6.2970638275146484e-02</internalNodes>
          <leafValues>
            6.1466729640960693e-01 -3.2632523775100708e-01</leafValues></_>
        <_>
          <internalNodes>
            0 -1 142 -1.3694951776415110e-03</internalNodes>
          <leafValues>
            -8.3216297626495361e-01 2.0596975088119507e-01</leafValues></_>
        <_>
          <internalNodes>
            0 -1 62 4.7326809726655483e-03</internalNodes>
          <leafValues>
            2.5479313731193542e-01 -7.5516712665557861e-01</leafValues></_>
        <_>
          <internalNodes>
            0 -1 145 5.5146776139736176e-04</internalNodes>
          <leafValues>
            2.2513473033905029e-01 -8.5478115081787109e-01</leafValues></_>
        <_>
          <internalNodes>
            0 -1 41 -5.6898459792137146e-02</internalNodes>
          <leafValues>
            -7.6282954216003418e-01 2.1120217442512512e-01</leafValues></_>
        <_>
          <internalNodes>
            0 -1 183 1.4608319615945220e-03</internalNodes>
          <leafValues>
            2.3170067369937897e-01 -8.2019239664077759e-01</leafValues></_>
        <_>
          <internalNodes>
            0 -1 163 -8.6375493556261063e-03</internalNodes>
          <leafValues>
            -8.9074975252151489e-01 1.5734179317951202e-01</leafValues></_></weakClassifiers></_>
    <!-- stage 6 -->
    <_>
      <maxWeakCount>10</maxWeakCount>
      <stageThreshold>-1.0377210378646851e+00</stageThreshold>
      <weakClassifiers>
        <_>
          <internalNodes>
            0 -1 12 3.6814603954553604e-02</internalNodes>
          <leafValues>
            -3.3419689536094666e-01 6.5294772386550903e-01</leafValues></_>
        <_>
          <internalNodes>
            0 -1 68 3.9992225356400013e-04</internalNodes>
          <leafValues>
            3.3269089460372925e-01 -7.0931202173233032e-01</leafValues></_>
        <_>
          <internalNodes>
            0 -1 184 -6.6760024055838585e-03</internalNodes>
          <leafValues>
            5.7726877927780151e-01 -3.9691492915153503e-01</leafValues></_>
        <_>
          <internalNodes>
            0 -1 24 -9.8105343058705330e-03</internalNodes>
          <leafValues>
            6.4320266246795654e-01 -3.5081773996353149e-01</leafValues></_>
        <_>
          <internalNodes>
            0 -1 15 4.7398181632161140e-03</internalNodes>
          <leafValues>
            2.4583837389945984e-01 -8.5609984397888184e-01</leafValues></_>
        <_>
          <internalNodes>
            0 -1 135 -1.0840111644938588e-03</internalNodes>
          <leafValues>
            3.8712230324745178e-01 -5.4906386137008667e-01</leafValues></_>
        <_>
          <internalNodes>
            0 -1 136 1.1154966428875923e-02</internalNodes>
          <leafValues>
            2.2353231906890869e-01 -8.3474260568618774e-01</leafValues></_>
        <_>
          <internalNodes>
            0 -1 116 -1.5963697806000710e-03</internalNodes>
          <leafValues>
            -8.9607948064804077e-01 1.1621422320604324e-01</leafValues></_>
        <_>
          <internalNodes>
            0 -1 100 3.2471335725858808e-04</internalNodes>
          <leafValues>
            -8.6130440235137939e-01 2.1213597059249878e-01</leafValues></_>
        <_>
          <internalNodes>
            0 -1 81 -1.1140078306198120e-02</internalNodes>
          <leafValues>
            7.2737962007522583e-01 -3.0025711655616760e-01</leafValues></_></weakClassifiers></_>
    <!-- stage 7 -->
    <_>
      <maxWeakCount>11</maxWeakCount>
      <stageThreshold>-1.3016046285629272e+00</stageThreshold>
      <weakClassifiers>
        <_>
          <internalNodes>
            0 -1 49 -4.7628581523895264e-02</internalNodes>
          <leafValues>
            6.7181926965713501e-01 -2.8433734178543091e-01</leafValues></_>
        <_>
          <internalNodes>
            0 -1 118 2.1576243452727795e-03</internalNodes>
          <leafValues>
            -5.7724434137344360e-01 3.6515614390373230e-01</leafValues></_>
        <_>
          <internalNodes>
            0 -1 152 -3.0719418078660965e-02</internalNodes>
          <leafValues>
            -8.3282011747360229e-01 2.1234847605228424e-01</leafValues></_>
        <_>
          <internalNodes>
            0 -1 8 -4.0436200797557831e-02</internalNodes>
          <leafValues>
            7.1219301223754883e-01 -2.6476323604583740e-01</leafValues></_>
        <_>
          <internalNodes>
            0 -1 179 -1.7191383522003889e-03</internalNodes>
          <leafValues>
            4.8648712038993835e-01 -3.5478529334068298e-01</leafValues></_>
        <_>
          <internalNodes>
            0 -1 140 1.4029969461262226e-02</internalNodes>
          <leafValues>
            2.4312402307987213e-01 -7.7750873565673828e-01</leafValues></_>
        <_>
          <internalNodes>
            0 -1 43 2.1123390644788742e-02</internalNodes>
          <leafValues>
            1.7050842940807343e-01 -9.2628097534179688e-01</leafValues></_>
        <_>
          <internalNodes>
            0 -1 191 -1.8127825111150742e-02</internalNodes>
          <leafValues>
            6.0452884435653687e-01 -3.1400480866432190e-01</leafValues></_>
        <_>
          <internalNodes>
            0 -1 78 -1.6136836260557175e-02</internalNodes>
          <leafValues>
            6.2153887748718262e-01 -2.9530748724937439e-01</leafValues></_>
        <_>
          <internalNodes>
            0 -1 34 1.7352711409330368e-02</internalNodes>
          <leafValues>
            2.5287434458732605e-01 -9.0953975915908813e-01</leafValues></_>
        <_>
          <internalNodes>
            0 -1 175 -2.7428427711129189e-03</internalNodes>
          <leafValues>
            -7.8257495164871216e-01 1.9447232782840729e-01</leafValues></_></weakClassifiers></_>
    <!-- stage 8 -->
    <_>
      <maxWeakCount>12</maxWeakCount>
      <stageThreshold>-9.7233259677886963e-01</stageThreshold>
      <weakClassifiers>
        <_>
          <internalNodes>
            0 -1 94 1.5484405681490898e-02</internalNodes>
          <leafValues>
            -2.5423729419708252e-01 6.3786983489990234e-01</leafValues></_>
        <_>
          <internalNodes>
            0 -1 196 -2.3859017528593540e-03</internalNodes>
          <leafValues>
            -7.6137930154800415e-01 3.0969193577766418e-01</leafValues></_>
        <_>
          <internalNodes>
            0 -1 154 -4.1089579463005066e-03</internalNodes>
          <leafValues>
            2.9546430706977844e-01 -6.2020725011825562e-01</leafValues></_>
        <_>
          <internalNodes>
            0 -1 144 7.5458688661456108e-03</internalNodes>
          <leafValues>
            2.3721395432949066e-01 -7.8912621736526489e-01</leafValues></_>
        <_>
          <internalNodes>
            0 -1 3 -2.0514540374279022e-02</internalNodes>
          <leafValues>
            6.9588178396224976e-01 -3.0087137222290039e-01</leafValues></_>
        <_>
          <internalNodes>
            0 -1 89 1.4925026334822178e-03</internalNodes>
          <leafValues>
            1.9291619956493378e-01 -8.0740064382553101e-01</leafValues></_>
        <_>
          <internalNodes>
            0 -1 82 -5.5350344628095627e-03</internalNodes>
          <leafValues>
            -8.4840190410614014e-01 1.8149039149284363e-01</leafValues></_>
        <_>
          <internalNodes>
            0 -1 198 -2.3238200694322586e-02</internalNodes>
          <leafValues>
            5.4372322559356689e-01 -3.0967071652412415e-01</leafValues></_>
        <_>
          <internalNodes>
            0 -1 2 3.1024533510208130e-01</internalNodes>
          <leafValues>
            -2.1640704572200775e-01 7.3871654272079468e-01</leafValues></_>
        <_>
          <internalNodes>
            0 -1 10 3.9066269993782043e-02</internalNodes>
          <leafValues>
            -2.4431005120277405e-01 6.4731055498123169e-01</leafValues></_>
        <_>
          <internalNodes>
            0 -1 86 -1.0480282362550497e-03</internalNodes>
          <leafValues>
            2.0289590954780579e-01 -8.0449312925338745e-01</leafValues></_>
        <_>
          <internalNodes>
            0 -1 21 -3.5839088261127472e-02</internalNodes>
          <leafValues>
            -7.4693459272384644e-01 1.7917656898498535e-01</leafValues></_></weakClassifiers></_>
    <!-- stage 9 -->
    <_>
      <maxWeakCount>13</maxWeakCount>
      <stageThreshold>-1.4949436187744141e+00</stageThreshold>
      <weakClassifiers>
        <_>
          <internalNodes>
            0 -1 7 -6.8248070776462555e-02</internalNodes>
          <leafValues>
            6.5500605106353760e-01 -2.5415676832199097e-01</leafValues></_>
        <_>
          <internalNodes>
            0 -1 174 6.9517339579761028e-04</internalNodes>
          <leafValues>
            -3.8239547610282898e-01 5.2701419591903687e-01</leafValues></_>
        <_>
          <internalNodes>
            0 -1 106 1.4635237166658044e-03</internalNodes>
          <leafValues>
            2.4390250444412231e-01 -8.3418279886245728e-01</leafValues></_>
        <_>
          <internalNodes>
            0 -1 92 -7.7265349682420492e-04</internalNodes>
          <leafValues>
            -8.0446302890777588e-01 2.1532768011093140e-01</leafValues></_>
        <_>
          <internalNodes>
            0 -1 178 -7.0219282060861588e-03</internalNodes>
          <leafValues>
            6.5448939800262451e-01 -3.0553233623504639e-01</leafValues></_>
        <_>
          <internalNodes>
            0 -1 32 1.1821763589978218e-02</internalNodes>
          <leafValues>
            -3.7420096993446350e-01 4.5531815290451050e-01</leafValues></_>
        <_>
          <internalNodes>
            0 -1 29 1.6597649082541466e-03</internalNodes>
          <leafValues>
            2.0859465003013611e-01 -8.1552797555923462e-01</leafValues></_>
        <_>
          <internalNodes>
            0 -1 53 1.7221091315150261e-02</internalNodes>
          <leafValues>
            1.0035820305347443e-01 -9.2311561107635498e-01</leafValues></_>
        <_>
          <internalNodes>
            0 -1 47 -9.6535804914310575e-05</internalNodes>
          <leafValues>
            2.6504305005073547e-01 -5.1946997642517090e-01</leafValues></_>
        <_>
          <internalNodes>
            0 -1 176 1.5752404928207397e-02</internalNodes>
          <leafValues>
            -2.8377288579940796e-01 5.7573193311691284e-01</leafValues></_>
        <_>
          <internalNodes>
            0 -1 99 -1.5289986040443182e-03</internalNodes>
          <leafValues>
            -7.2427272796630859e-01 2.3306627571582794e-01</leafValues></_>
        <_>
          <internalNodes>
            0 -1 60 -3.8636814802885056e-02</internalNodes>
          <leafValues>
            6.0467553138732910e-01 -2.7498081326484680e-01</leafValues></_>
        <_>
          <internalNodes>
            0 -1 177 -1.2411717325448990e-03</internalNodes>
          <leafValues>
            -7.1985602378845215e-01 2.3511126637458801e-01</leafValues></_></weakClassifiers></_>
    <!-- stage 10 -->
    <_>
      <maxWeakCount>12</maxWeakCount>
      <stageThreshold>-1.2473032474517822e+00</stageThreshold>
      <weakClassifiers>
        <_>
          <internalNodes>
            0 -1 23 -5.7928911410272121e-03</internalNodes>
          <leafValues>
            5.1181101799011230e-01 -4.8484849929809570e-01</leafValues></_>
        <_>
          <internalNodes>
            0 -1 133 -9.9507521372288465e-04</internalNodes>
          <leafValues>
            5.2459079027175903e-01 -3.3897712826728821e-01</leafValues></_>
        <_>
          <internalNodes>
            0 -1 31 2.1548731252551079e-02</internalNodes>
          <leafValues>
            -2.3291714489459991e-01 7.1596753597259521e-01</leafValues></_>
        <_>
          <internalNodes>
            0 -1 117 -3.8771645631641150e-03</internalNodes>
          <leafValues>
            3.0672040581703186e-01 -5.4321026802062988e-01</leafValues></_>
        <_>
          <internalNodes>
            0 -1 113 6.3427956774830818e-03</internalNodes>
          <leafValues>
            1.8575215339660645e-01 -7.1571117639541626e-01</leafValues></_>
        <_>
          <internalNodes>
            0 -1 105 1.1113942600786686e-02</internalNodes>
          <leafValues>
            1.4255262911319733e-01 -9.2460960149765015e-01</leafValues></_>
        <_>
          <internalNodes>
            0 -1 173 4.2116209864616394e-02</internalNodes>
          <leafValues>
            -2.2966466844081879e-01 7.1360200643539429e-01</leafValues></_>
        <_>
          <internalNodes>
            0 -1 182 -1.0477948933839798e-02</internalNodes>
          <leafValues>
            5.2352821826934814e-01 -2.6659724116325378e-01</leafValues></_>
        <_>
          <internalNodes>
            0 -1 66 -5.9557671193033457e-04</internalNodes>
          <leafValues>
            -5.8374214172363281e-01 2.4557243287563324e-01</leafValues></_>
        <_>
          <internalNodes>
            0 -1 126 -4.6278126537799835e-03</internalNodes>
          <leafValues>
            5.4076200723648071e-01 -2.8500258922576904e-01</leafValues></_>
        <_>
          <internalNodes>
            0 -1 180 3.8250095676630735e-03</internalNodes>
          <leafValues>
            2.2257179021835327e-01 -7.2869521379470825e-01</leafValues></_>
        <_>
          <internalNodes>
            0 -1 79 -4.8432694748044014e-03</internalNodes>
          <leafValues>
            3.7536066770553589e-01 -3.3373397588729858e-01</leafValues></_></weakClassifiers></_>
    <!-- stage 11 -->
    <_>
      <maxWeakCount>9</maxWeakCount>
      <stageThreshold>-1.0196052789688110e+00</stageThreshold>
      <weakClassifiers>
        <_>
          <internalNodes>
            0 -1 40 9.8373973742127419e-04</internalNodes>
          <leafValues>
            -6.0000002384185791e-01 4.2352035641670227e-01</leafValues></_>
        <_>
          <internalNodes>
            0 -1 45 3.6263449146645144e-05</internalNodes>
          <leafValues>
            -7.8228139877319336e-01 2.2992533445358276e-01</leafValues></_>
        <_>
          <internalNodes>
            0 -1 151 -9.4006441533565521e-02</internalNodes>
          <leafValues>
            6.5175974369049072e-01 -2.8368520736694336e-01</leafValues></_>
        <_>
          <internalNodes>
            0 -1 153 -6.7341938847675920e-04</internalNodes>
          <leafValues>
            -7.5377756357192993e-01 2.1956616640090942e-01</leafValues></_>
        <_>
          <internalNodes>
            0 -1 132 -1.2679795734584332e-02</internalNodes>
          <leafValues>
            -8.9280468225479126e-01 1.6003394126892090e-01</leafValues></_>
        <_>
          <internalNodes>
            0 -1 186 6.2486925162374973e-03</internalNodes>
          <leafValues>
            -2.9301953315734863e-01 6.2789654731750488e-01</leafValues></_>
        <_>
          <internalNodes>
            0 -1 194 3.4923732746392488e-03</internalNodes>
          <leafValues>
            2.0788834989070892e-01 -7.4757307767868042e-01</leafValues></_>
        <_>
          <internalNodes>
            0 -1 200 -3.2779006287455559e-03</internalNodes>
          <leafValues>
            -7.9790395498275757e-01 1.5020838379859924e-01</leafValues></_>
        <_>
          <internalNodes>
            0 -1 200 5.7043693959712982e-03</internalNodes>
          <leafValues>
            1.4493873715400696e-01 -9.0251064300537109e-01</leafValues></_></weakClassifiers></_>
    <!-- stage 12 -->
    <_>
      <maxWeakCount>15</maxWeakCount>
      <stageThreshold>-1.5902537107467651e+00</stageThreshold>
      <weakClassifiers>
        <_>
          <internalNodes>
            0 -1 58 3.4887162037193775e-03</internalNodes>
          <leafValues>
            -4.0165290236473083e-01 5.3658539056777954e-01</leafValues></_>
        <_>
          <internalNodes>
            0 -1 65 2.3030121810734272e-03</internalNodes>
          <leafValues>
            2.8371280431747437e-01 -7.1581548452377319e-01</leafValues></_>
        <_>
          <internalNodes>
            0 -1 137 4.2479407042264938e-02</internalNodes>
          <leafValues>
            -4.3692418932914734e-01 4.2485433816909790e-01</leafValues></_>
        <_>
          <internalNodes>
            0 -1 138 -8.4591546328738332e-04</internalNodes>
          <leafValues>
            -8.2070195674896240e-01 1.4846579730510712e-01</leafValues></_>
        <_>
          <internalNodes>
            0 -1 181 -6.6149109043180943e-03</internalNodes>
          <leafValues>
            4.9644398689270020e-01 -3.1502512097358704e-01</leafValues></_>
        <_>
          <internalNodes>
            0 -1 25 1.7040185630321503e-02</internalNodes>
          <leafValues>
            -2.4925771355628967e-01 7.2411209344863892e-01</leafValues></_>
        <_>
          <internalNodes>
            0 -1 96 -9.3759642913937569e-04</internalNodes>
          <leafValues>
            2.7655994892120361e-01 -5.3040474653244019e-01</leafValues></_>
        <_>
          <internalNodes>
            0 -1 85 6.5526766702532768e-03</internalNodes>
          <leafValues>
            1.8013618886470795e-01 -6.6993570327758789e-01</leafValues></_>
        <_>
          <internalNodes>
            0 -1 56 -2.3982622660696507e-03</internalNodes>
          <leafValues>
            2.6336255669593811e-01 -5.2449947595596313e-01</leafValues></_>
        <_>
          <internalNodes>
            0 -1 42 -3.8469517603516579e-03</internalNodes>
          <leafValues>
            -7.7579748630523682e-01 1.6323283314704895e-01</leafValues></_>
        <_>
          <internalNodes>
            0 -1 73 2.5093057192862034e-03</internalNodes>
          <leafValues>
            1.3489702343940735e-01 -8.7889194488525391e-01</leafValues></_>
        <_>
          <internalNodes>
            0 -1 102 1.1284628883004189e-02</internalNodes>
          <leafValues>
            -2.8009673953056335e-01 5.2284735441207886e-01</leafValues></_>
        <_>
          <internalNodes>
            0 -1 14 1.4032506383955479e-02</internalNodes>
          <leafValues>
            1.9398346543312073e-01 -6.6136813163757324e-01</leafValues></_>
        <_>
          <internalNodes>
            0 -1 130 2.7892977232113481e-04</internalNodes>
          <leafValues>
            -4.4769909977912903e-01 2.7159479260444641e-01</leafValues></_>
        <_>
          <internalNodes>
            0 -1 35 2.5738892145454884e-03</internalNodes>
          <leafValues>
            -2.6367896795272827e-01 4.8430138826370239e-01</leafValues></_></weakClassifiers></_>
    <!-- stage 13 -->
    <_>
      <maxWeakCount>13</maxWeakCount>
      <stageThreshold>-1.3308819532394409e+00</stageThreshold>
      <weakClassifiers>
        <_>
          <internalNodes>
            0 -1 120 6.1937427381053567e-04</internalNodes>
          <leafValues>
            -5.6621003150939941e-01 4.6796432137489319e-01</leafValues></_>
        <_>
          <internalNodes>
            0 -1 5 -5.1415041089057922e-03</internalNodes>
          <leafValues>
            5.3029096126556396e-01 -3.7608933448791504e-01</leafValues></_>
        <_>
          <internalNodes>
            0 -1 199 1.3194433413445950e-03</internalNodes>
          <leafValues>
            2.2308546304702759e-01 -8.2113623619079590e-01</leafValues></_>
        <_>
          <internalNodes>
            0 -1 115 -2.1901903674006462e-03</internalNodes>
          <leafValues>
            3.2775595784187317e-01 -4.9635004997253418e-01</leafValues></_>
        <_>
          <internalNodes>
            0 -1 64 -2.6163306087255478e-02</internalNodes>
          <leafValues>
            -7.5102525949478149e-01 2.3691387474536896e-01</leafValues></_>
        <_>
          <internalNodes>
            0 -1 188 2.0955500076524913e-04</internalNodes>
          <leafValues>
            -4.0424507856369019e-01 3.6105626821517944e-01</leafValues></_>
        <_>
          <internalNodes>
            0 -1 54 6.2788547948002815e-03</internalNodes>
          <leafValues>
            1.6168694198131561e-01 -8.4174990653991699e-01</leafValues></_>
        <_>
          <internalNodes>
            0 -1 46 -1.0070437565445900e-03</internalNodes>
          <leafValues>
            3.8982546329498291e-01 -3.6241883039474487e-01</leafValues></_>
        <_>
          <internalNodes>
            0 -1 20 3.9817909710109234e-03</internalNodes>
          <leafValues>
            2.0175857841968536e-01 -8.8098937273025513e-01</leafValues></_>
        <_>
          <internalNodes>
            0 -1 147 5.2053935360163450e-04</internalNodes>
          <leafValues>
            -3.1016278266906738e-01 4.5616275072097778e-01</leafValues></_>
        <_>
          <internalNodes>
            0 -1 159 2.2874400019645691e-02</internalNodes>
          <leafValues>
            -1.9507630169391632e-01 7.9866129159927368e-01</leafValues></_>
        <_>
          <internalNodes>
            0 -1 192 -1.1637219227850437e-02</internalNodes>
          <leafValues>
            6.1807674169540405e-01 -2.3840560019016266e-01</leafValues></_>
        <_>
          <internalNodes>
            0 -1 55 -2.2299487609416246e-03</internalNodes>
          <leafValues>
            -6.6077709197998047e-01 2.6502475142478943e-01</leafValues></_></weakClassifiers></_>
    <!-- stage 14 -->
    <_>
      <maxWeakCount>15</maxWeakCount>
      <stageThreshold>-1.6842688322067261e+00</stageThreshold>
      <weakClassifiers>
        <_>
          <internalNodes>
            0 -1 196 -1.4908240409567952e-03</internalNodes>
          <leafValues>
            -5.6315791606903076e-01 4.2060416936874390e-01</leafValues></_>
        <_>
          <internalNodes>
            0 -1 48 -6.7967600189149380e-03</internalNodes>
          <leafValues>
            5.3373354673385620e-01 -3.2364234328269958e-01</leafValues></_>
        <_>
          <internalNodes>
            0 -1 169 4.3703019618988037e-03</internalNodes>
          <leafValues>
            2.5120559334754944e-01 -7.2534066438674927e-01</leafValues></_>
        <_>
          <internalNodes>
            0 -1 139 2.7431652415543795e-03</internalNodes>
          <leafValues>
            -6.1310416460037231e-01 2.3974917829036713e-01</leafValues></_>
        <_>
          <internalNodes>
            0 -1 114 3.7773294025100768e-04</internalNodes>
          <leafValues>
            2.6658317446708679e-01 -5.1514345407485962e-01</leafValues></_>
        <_>
          <internalNodes>
            0 -1 61 -1.4772089198231697e-03</internalNodes>
          <leafValues>
            -7.0631486177444458e-01 2.1882051229476929e-01</leafValues></_>
        <_>
          <internalNodes>
            0 -1 121 -6.7773973569273949e-04</internalNodes>
          <leafValues>
            -7.8597718477249146e-01 1.3294173777103424e-01</leafValues></_>
        <_>
          <internalNodes>
            0 -1 141 -4.4527901336550713e-03</internalNodes>
          <leafValues>
            4.2706531286239624e-01 -3.3297696709632874e-01</leafValues></_>
        <_>
          <internalNodes>
            0 -1 18 -5.3691521286964417e-02</internalNodes>
          <leafValues>
            6.6140902042388916e-01 -2.0709775388240814e-01</leafValues></_>
        <_>
          <internalNodes>
            0 -1 19 -5.3503356873989105e-02</internalNodes>
          <leafValues>
            7.6015323400497437e-01 -1.9675494730472565e-01</leafValues></_>
        <_>
          <internalNodes>
            0 -1 22 -2.5650352239608765e-02</internalNodes>
          <leafValues>
            3.8722643256187439e-01 -3.4913617372512817e-01</leafValues></_>
        <_>
          <internalNodes>
            0 -1 98 3.1485415995121002e-02</internalNodes>
          <leafValues>
            -1.7497724294662476e-01 8.6389166116714478e-01</leafValues></_>
        <_>
          <internalNodes>
            0 -1 168 2.1616125013679266e-03</internalNodes>
          <leafValues>
            2.7459722757339478e-01 -5.5905824899673462e-01</leafValues></_>
        <_>
          <internalNodes>
            0 -1 111 4.4796039583161473e-04</internalNodes>
          <leafValues>
            -3.0312526226043701e-01 4.4908234477043152e-01</leafValues></_>
        <_>
          <internalNodes>
            0 -1 101 -1.5919644385576248e-02</internalNodes>
          <leafValues>
            -9.3665069341659546e-01 1.5151463449001312e-01</leafValues></_></weakClassifiers></_>
    <!-- stage 15 -->
    <_>
      <maxWeakCount>17</maxWeakCount>
      <stageThreshold>-1.1206394433975220e+00</stageThreshold>
      <weakClassifiers>
        <_>
          <internalNodes>
            0 -1 103 3.5603162832558155e-03</internalNodes>
          <leafValues>
            -1.5317286550998688e-01 6.1955088376998901e-01</leafValues></_>
        <_>
          <internalNodes>
            0 -1 8 -4.7549996525049210e-02</internalNodes>
          <leafValues>
            7.6083290576934814e-01 -1.7164967954158783e-01</leafValues></_>
        <_>
          <internalNodes>
            0 -1 157 -9.6380850300192833e-04</internalNodes>
          <leafValues>
            3.6586841940879822e-01 -3.5284921526908875e-01</leafValues></_>
        <_>
          <internalNodes>
            0 -1 163 -5.5267065763473511e-03</internalNodes>
          <leafValues>
            -7.8945320844650269e-01 1.5718166530132294e-01</leafValues></_>
        <_>
          <internalNodes>
            0 -1 143 4.1576973162591457e-03</internalNodes>
          <leafValues>
            1.9390375912189484e-01 -6.9604033231735229e-01</leafValues></_>
        <_>
          <internalNodes>
            0 -1 125 2.5123175233602524e-02</internalNodes>
          <leafValues>
            8.6234755814075470e-02 -7.9788690805435181e-01</leafValues></_>
        <_>
          <internalNodes>
            0 -1 123 -6.4664587378501892e-02</internalNodes>
          <leafValues>
            5.6017130613327026e-01 -2.4568077921867371e-01</leafValues></_>
        <_>
          <internalNodes>
            0 -1 155 1.7167426645755768e-02</internalNodes>
          <leafValues>
            -1.6855600476264954e-01 7.3959761857986450e-01</leafValues></_>
        <_>
          <internalNodes>
            0 -1 30 1.0737402737140656e-01</internalNodes>
          <leafValues>
            -2.2579520940780640e-01 4.9580618739128113e-01</leafValues></_>
        <_>
          <internalNodes>
            0 -1 59 -9.8143685609102249e-03</internalNodes>
          <leafValues>
            4.2852056026458740e-01 -2.6939389109611511e-01</leafValues></_>
        <_>
          <internalNodes>
            0 -1 77 -2.2175889462232590e-02</internalNodes>
          <leafValues>
            -7.9782766103744507e-01 1.5811283886432648e-01</leafValues></_>
        <_>
          <internalNodes>
            0 -1 104 -5.9584167320281267e-04</internalNodes>
          <leafValues>
            1.1958283931016922e-01 -7.8344845771789551e-01</leafValues></_>
        <_>
          <internalNodes>
            0 -1 75 4.9140071496367455e-05</internalNodes>
          <leafValues>
            -7.2971296310424805e-01 1.4256778359413147e-01</leafValues></_>
        <_>
          <internalNodes>
            0 -1 158 6.5220415592193604e-02</internalNodes>
          <leafValues>
            1.1965367943048477e-01 -8.3329874277114868e-01</leafValues></_>
        <_>
          <internalNodes>
            0 -1 128 -2.9181977733969688e-03</internalNodes>
          <leafValues>
            -7.5175935029983521e-01 1.5378569066524506e-01</leafValues></_>
        <_>
          <internalNodes>
            0 -1 28 -2.7048438787460327e-02</internalNodes>
          <leafValues>
            -8.9299160242080688e-01 9.1028511524200439e-02</leafValues></_>
        <_>
          <internalNodes>
            0 -1 50 -7.8509198501706123e-03</internalNodes>
          <leafValues>
            5.9122121334075928e-01 -2.3204542696475983e-01</leafValues></_></weakClassifiers></_>
    <!-- stage 16 -->
    <_>
      <maxWeakCount>17</maxWeakCount>
      <stageThreshold>-1.7689629793167114e+00</stageThreshold>
      <weakClassifiers>
        <_>
          <internalNodes>
            0 -1 165 1.9629311282187700e-04</internalNodes>
          <leafValues>
            -4.4444444775581360e-01 4.7386461496353149e-01</leafValues></_>
        <_>
          <internalNodes>
            0 -1 122 -6.6499551758170128e-03</internalNodes>
          <leafValues>
            5.3670406341552734e-01 -3.3476433157920837e-01</leafValues></_>
        <_>
          <internalNodes>
            0 -1 171 5.2222530357539654e-03</internalNodes>
          <leafValues>
            2.1762780845165253e-01 -7.9501205682754517e-01</leafValues></_>
        <_>
          <internalNodes>
            0 -1 203 -4.2862547561526299e-03</internalNodes>
          <leafValues>
            -6.5801054239273071e-01 2.7732193470001221e-01</leafValues></_>
        <_>
          <internalNodes>
            0 -1 39 -3.6870883777737617e-03</internalNodes>
          <leafValues>
            4.3703737854957581e-01 -3.9522713422775269e-01</leafValues></_>
        <_>
          <internalNodes>
            0 -1 33 1.8030798062682152e-02</internalNodes>
          <leafValues>
            -3.4482756257057190e-01 4.7139841318130493e-01</leafValues></_>
        <_>
          <internalNodes>
            0 -1 26 -2.2186483256518841e-03</internalNodes>
          <leafValues>
            5.1210808753967285e-01 -2.6231580972671509e-01</leafValues></_>
        <_>
          <internalNodes>
            0 -1 52 2.4899032432585955e-03</internalNodes>
          <leafValues>
            2.0330227911472321e-01 -6.4833945035934448e-01</leafValues></_>
        <_>
          <internalNodes>
            0 -1 160 -2.0970315672457218e-03</internalNodes>
          <leafValues>
            -8.7637346982955933e-01 1.3759070634841919e-01</leafValues></_>
        <_>
          <internalNodes>
            0 -1 164 4.3194560566917062e-04</internalNodes>
          <leafValues>
            -3.9410457015037537e-01 3.5785323381423950e-01</leafValues></_>
        <_>
          <internalNodes>
            0 -1 63 2.5104053318500519e-02</internalNodes>
          <leafValues>
            1.7018459737300873e-01 -8.2849174737930298e-01</leafValues></_>
        <_>
          <internalNodes>
            0 -1 27 -3.2789431512355804e-02</internalNodes>
          <leafValues>
            7.8918582201004028e-01 -2.0100726187229156e-01</leafValues></_>
        <_>
          <internalNodes>
            0 -1 1 6.1126943677663803e-02</internalNodes>
          <leafValues>
            -1.9092279672622681e-01 6.0039013624191284e-01</leafValues></_>
        <_>
          <internalNodes>
            0 -1 170 -5.1791677251458168e-03</internalNodes>
          <leafValues>
            7.5854176282882690e-01 -1.8118219077587128e-01</leafValues></_>
        <_>
          <internalNodes>
            0 -1 93 -1.6613133251667023e-02</internalNodes>
          <leafValues>
            -7.4595445394515991e-01 2.0322993397712708e-01</leafValues></_>
        <_>
          <internalNodes>
            0 -1 67 7.9348897561430931e-03</internalNodes>
          <leafValues>
            1.5080878138542175e-01 -7.8324204683303833e-01</leafValues></_>
        <_>
          <internalNodes>
            0 -1 112 8.6309050675481558e-04</internalNodes>
          <leafValues>
            -3.0301502346992493e-01 5.5401092767715454e-01</leafValues></_></weakClassifiers></_>
    <!-- stage 17 -->
    <_>
      <maxWeakCount>17</maxWeakCount>
      <stageThreshold>-1.0735718011856079e+00</stageThreshold>
      <weakClassifiers>
        <_>
          <internalNodes>
            0 -1 76 -8.0874038394540548e-04</internalNodes>
          <leafValues>
            4.8623853921890259e-01 -5.3813558816909790e-01</leafValues></_>
        <_>
          <internalNodes>
            0 -1 167 2.0525284344330430e-04</internalNodes>
          <leafValues>
            -4.0103903412818909e-01 5.4105532169342041e-01</leafValues></_>
        <_>
          <internalNodes>
            0 -1 17 -6.4502297900617123e-03</internalNodes>
          <leafValues>
            4.4798222184181213e-01 -4.1702049970626831e-01</leafValues></_>
        <_>
          <internalNodes>
            0 -1 110 -4.4551752507686615e-03</internalNodes>
          <leafValues>
            6.8056786060333252e-01 -2.2878617048263550e-01</leafValues></_>
        <_>
          <internalNodes>
            0 -1 38 -1.0846420191228390e-03</internalNodes>
          <leafValues>
            4.3039572238922119e-01 -3.6556330323219299e-01</leafValues></_>
        <_>
          <internalNodes>
            0 -1 69 -6.8653305061161518e-03</internalNodes>
          <leafValues>
            -7.6404792070388794e-01 2.9512190818786621e-01</leafValues></_>
        <_>
          <internalNodes>
            0 -1 134 4.9980514449998736e-04</internalNodes>
          <leafValues>
            -3.6834239959716797e-01 5.3118354082107544e-01</leafValues></_>
        <_>
          <internalNodes>
            0 -1 87 8.6795119568705559e-03</internalNodes>
          <leafValues>
            2.4877251684665680e-01 -7.1453440189361572e-01</leafValues></_>
        <_>
          <internalNodes>
            0 -1 202 3.8422760553658009e-03</internalNodes>
          <leafValues>
            -3.3646208047866821e-01 4.7582855820655823e-01</leafValues></_>
        <_>
          <internalNodes>
            0 -1 193 4.9074068665504456e-03</internalNodes>
          <leafValues>
            -3.1138995289802551e-01 6.0553586483001709e-01</leafValues></_>
        <_>
          <internalNodes>
            0 -1 187 -2.2430049721151590e-03</internalNodes>
          <leafValues>
            -8.0760663747787476e-01 2.1107590198516846e-01</leafValues></_>
        <_>
          <internalNodes>
            0 -1 190 -1.1880869045853615e-02</internalNodes>
          <leafValues>
            8.2935816049575806e-01 -2.0871475338935852e-01</leafValues></_>
        <_>
          <internalNodes>
            0 -1 108 4.1900129872374237e-05</internalNodes>
          <leafValues>
            -3.0562433600425720e-01 4.5591139793395996e-01</leafValues></_>
        <_>
          <internalNodes>
            0 -1 71 -3.2106814906001091e-03</internalNodes>
          <leafValues>
            5.4724025726318359e-01 -2.6746687293052673e-01</leafValues></_>
        <_>
          <internalNodes>
            0 -1 90 4.8441537655889988e-03</internalNodes>
          <leafValues>
            2.4982298910617828e-01 -7.1242016553878784e-01</leafValues></_>
        <_>
          <internalNodes>
            0 -1 36 2.6260938495397568e-02</internalNodes>
          <leafValues>
            2.0668990910053253e-01 -7.5183725357055664e-01</leafValues></_>
        <_>
          <internalNodes>
            0 -1 161 5.1091918721795082e-03</internalNodes>
          <leafValues>
            -1.9915354251861572e-01 8.7005442380905151e-01</leafValues></_></weakClassifiers></_>
    <!-- stage 18 -->
    <_>
      <maxWeakCount>8</maxWeakCount>
      <stageThreshold>-1.5029473304748535e+00</stageThreshold>
      <weakClassifiers>
        <_>
          <internalNodes>
            0 -1 16 5.2166958339512348e-03</internalNodes>
          <leafValues>
            -4.2898133397102356e-01 6.4476388692855835e-01</leafValues></_>
        <_>
          <internalNodes>
            0 -1 0 -5.5453933775424957e-02</internalNodes>
          <leafValues>
            7.9981434345245361e-01 -3.7389820814132690e-01</leafValues></_>
        <_>
          <internalNodes>
            0 -1 150 -2.0047435536980629e-03</internalNodes>
          <leafValues>
            7.8012698888778687e-01 -3.1115740537643433e-01</leafValues></_>
        <_>
          <internalNodes>
            0 -1 201 -3.6284343805164099e-03</internalNodes>
          <leafValues>
            -6.5210390090942383e-01 4.2904400825500488e-01</leafValues></_>
        <_>
          <internalNodes>
            0 -1 162 -5.6949993595480919e-03</internalNodes>
          <leafValues>
            -7.6864784955978394e-01 3.9045774936676025e-01</leafValues></_>
        <_>
          <internalNodes>
            0 -1 80 -3.0701099894940853e-03</internalNodes>
          <leafValues>
            -5.5708450078964233e-01 4.9550133943557739e-01</leafValues></_>
        <_>
          <internalNodes>
            0 -1 95 -2.7328007854521275e-03</internalNodes>
          <leafValues>
            8.6397516727447510e-01 -3.1494152545928955e-01</leafValues></_>
        <_>
          <internalNodes>
            0 -1 74 -2.6218898710794747e-04</internalNodes>
          <leafValues>
            8.2271951436996460e-01 -3.3940917253494263e-01</leafValues></_></weakClassifiers></_></stages>
  <features>
    <_>
      <rects>
        <_>
          0 1 3 18 -1.</_>
        <_>
          1 7 1 6 9.</_></rects>
      <tilted>0</tilted></_>
    <_>
      <rects>
        <_>
          0 1 8 10 -1.</_>
        <_>
          0 1 4 5 2.</_>
        <_>
          4 6 4 5 2.</_></rects>
      <tilted>0</tilted></_>
    <_>
      <rects>
        <_>
          0 4 20 11 -1.</_>
        <_>
          5 4 10 11 2.</_></rects>
      <tilted>0</tilted></_>
    <_>
      <rects>
        <_>
          0 5 2 13 -1.</_>
        <_>
          1 5 1 13 2.</_></rects>
      <tilted>0</tilted></_>
    <_>
      <rects>
        <_>
          0 5 2 14 -1.</_>
        <_>
          1 5 1 14 2.</_></rects>
      <tilted>0</tilted></_>
    <_>
      <rects>
        <_>
          0 6 3 9 -1.</_>
        <_>
          1 6 1 9 3.</_></rects>
      <tilted>0</tilted></_>
    <_>
      <rects>
        <_>
          0 8 8 12 -1.</_>
        <_>
          0 8 4 6 2.</_>
        <_>
          4 14 4 6 2.</_></rects>
      <tilted>0</tilted></_>
    <_>
      <rects>
        <_>
          0 10 10 10 -1.</_>
        <_>
          0 10 5 5 2.</_>
        <_>
          5 15 5 5 2.</_></rects>
      <tilted>0</tilted></_>
    <_>
      <rects>
        <_>
          0 19 20 1 -1.</_>
        <_>
          5 19 10 1 2.</_></rects>
      <tilted>0</tilted></_>
    <_>
      <rects>
        <_>
          1 0 8 14 -1.</_>
        <_>
          1 0 4 7 2.</_>
        <_>
          5 7 4 7 2.</_></rects>
      <tilted>0</tilted></_>
    <_>
      <rects>
        <_>
          1 0 12 1 -1.</_>
        <_>
          1 0 6 1 2.</_></rects>
      <tilted>1</tilted></_>
    <_>
      <rects>
        <_>
          1 0 19 6 -1.</_>
        <_>
          1 3 19 3 2.</_></rects>
      <tilted>0</tilted></_>
    <_>
      <rects>
        <_>
          1 2 12 6 -1.</_>
        <_>
          1 2 6 3 2.</_>
        <_>
          7 5 6 3 2.</_></rects>
      <tilted>0</tilted></_>
    <_>
      <rects>
        <_>
          1 4 14 4 -1.</_>
        <_>
          1 4 7 2 2.</_>
        <_>
          8 6 7 2 2.</_></rects>
      <tilted>0</tilted></_>
    <_>
      <rects>
        <_>
          1 8 11 6 -1.</_>
        <_>
          1 11 11 3 2.</_></rects>
      <tilted>0</tilted></_>
    <_>
      <rects>
        <_>
          1 11 11 2 -1.</_>
        <_>
          1 12 11 1 2.</_></rects>
      <tilted>0</tilted></_>
    <_>
      <rects>
        <_>
          1 13 11 3 -1.</_>
        <_>
          1 14 11 1 3.</_></rects>
      <tilted>0</tilted></_>
    <_>
      <rects>
        <_>
          1 14 6 6 -1.</_>
        <_>
          1 14 3 3 2.</_>
        <_>
          4 17 3 3 2.</_></rects>
      <tilted>0</tilted></_>
    <_>
      <rects>
        <_>
          2 0 8 2 -1.</_>
        <_>
          4 2 4 2 2.</_></rects>
      <tilted>1</tilted></_>
    <_>
      <rects>
        <_>
          2 5 18 5 -1.</_>
        <_>
          8 5 6 5 3.</_></rects>
      <tilted>0</tilted></_>
    <_>
      <rects>
        <_>
          2 8 3 4 -1.</_>
        <_>
          2 9 3 2 2.</_></rects>
      <tilted>0</tilted></_>
    <_>
      <rects>
        <_>
          2 9 17 6 -1.</_>
        <_>
          2 11 17 2 3.</_></rects>
      <tilted>0</tilted></_>
    <_>
      <rects>
        <_>
          2 13 13 6 -1.</_>
        <_>
          2 15 13 2 3.</_></rects>
      <tilted>0</tilted></_>
    <_>
      <rects>
        <_>
          2 14 13 4 -1.</_>
        <_>
          2 15 13 2 2.</_></rects>
      <tilted>0</tilted></_>
    <_>
      <rects>
        <_>
          2 15 3 2 -1.</_>
        <_>
          2 15 3 1 2.</_></rects>
      <tilted>1</tilted></_>
    <_>
      <rects>
        <_>
          3 0 2 3 -1.</_>
        <_>
          3 0 1 3 2.</_></rects>
      <tilted>1</tilted></_>
    <_>
      <rects>
        <_>
          3 0 3 2 -1.</_>
        <_>
          3 1 3 1 2.</_></rects>
      <tilted>0</tilted></_>
    <_>
      <rects>
        <_>
          3 5 16 2 -1.</_>
        <_>
          7 5 8 2 2.</_></rects>
      <tilted>0</tilted></_>
    <_>
      <rects>
        <_>
          3 8 16 6 -1.</_>
        <_>
          3 8 8 3 2.</_>
        <_>
          11 11 8 3 2.</_></rects>
      <tilted>0</tilted></_>
    <_>
      <rects>
        <_>
          3 10 3 2 -1.</_>
        <_>
          3 11 3 1 2.</_></rects>
      <tilted>0</tilted></_>
    <_>
      <rects>
        <_>
          3 13 15 6 -1.</_>
        <_>
          8 13 5 6 3.</_></rects>
      <tilted>0</tilted></_>
    <_>
      <rects>
        <_>
          4 0 2 4 -1.</_>
        <_>
          4 0 1 4 2.</_></rects>
      <tilted>1</tilted></_>
    <_>
      <rects>
        <_>
          4 2 4 10 -1.</_>
        <_>
          4 2 2 5 2.</_>
        <_>
          6 7 2 5 2.</_></rects>
      <tilted>0</tilted></_>
    <_>
      <rects>
        <_>
          4 3 4 10 -1.</_>
        <_>
          4 3 2 5 2.</_>
        <_>
          6 8 2 5 2.</_></rects>
      <tilted>0</tilted></_>
    <_>
      <rects>
        <_>
          4 8 14 6 -1.</_>
        <_>
          4 8 7 3 2.</_>
        <_>
          11 11 7 3 2.</_></rects>
      <tilted>0</tilted></_>
    <_>
      <rects>
        <_>
          4 9 3 3 -1.</_>
        <_>
          5 9 1 3 3.</_></rects>
      <tilted>0</tilted></_>
    <_>
      <rects>
        <_>
          4 9 10 8 -1.</_>
        <_>
          4 13 10 4 2.</_></rects>
      <tilted>0</tilted></_>
    <_>
      <rects>
        <_>
          4 10 4 10 -1.</_>
        <_>
          4 10 2 5 2.</_>
        <_>
          6 15 2 5 2.</_></rects>
      <tilted>0</tilted></_>
    <_>
      <rects>
        <_>
          4 12 6 4 -1.</_>
        <_>
          4 12 3 2 2.</_>
        <_>
          7 14 3 2 2.</_></rects>
      <tilted>0</tilted></_>
    <_>
      <rects>
        <_>
          4 17 13 3 -1.</_>
        <_>
          4 18 13 1 3.</_></rects>
      <tilted>0</tilted></_>
    <_>
      <rects>
        <_>
          5 8 3 8 -1.</_>
        <_>
          5 10 3 4 2.</_></rects>
      <tilted>0</tilted></_>
    <_>
      <rects>
        <_>
          5 8 12 6 -1.</_>
        <_>
          9 10 4 2 9.</_></rects>
      <tilted>0</tilted></_>
    <_>
      <rects>
        <_>
          5 8 4 6 -1.</_>
        <_>
          5 11 4 3 2.</_></rects>
      <tilted>0</tilted></_>
    <_>
      <rects>
        <_>
          5 9 5 6 -1.</_>
        <_>
          5 12 5 3 2.</_></rects>
      <tilted>0</tilted></_>
    <_>
      <rects>
        <_>
          5 10 12 2 -1.</_>
        <_>
          11 10 6 2 2.</_></rects>
      <tilted>0</tilted></_>
    <_>
      <rects>
        <_>
          5 11 8 4 -1.</_>
        <_>
          5 13 8 2 2.</_></rects>
      <tilted>0</tilted></_>
    <_>
      <rects>
        <_>
          5 13 4 2 -1.</_>
        <_>
          5 13 2 1 2.</_>
        <_>
          7 14 2 1 2.</_></rects>
      <tilted>0</tilted></_>
    <_>
      <rects>
        <_>
          5 13 3 4 -1.</_>
        <_>
          5 14 3 2 2.</_></rects>
      <tilted>0</tilted></_>
    <_>
      <rects>
        <_>
          5 17 12 3 -1.</_>
        <_>
          5 18 12 1 3.</_></rects>
      <tilted>0</tilted></_>
    <_>
      <rects>
        <_>
          6 0 6 6 -1.</_>
        <_>
          8 2 2 6 3.</_></rects>
      <tilted>1</tilted></_>
    <_>
      <rects>
        <_>
          6 0 10 2 -1.</_>
        <_>
          6 0 5 1 2.</_>
        <_>
          11 1 5 1 2.</_></rects>
      <tilted>0</tilted></_>
    <_>
      <rects>
        <_>
          6 0 9 8 -1.</_>
        <_>
          6 2 9 4 2.</_></rects>
      <tilted>0</tilted></_>
    <_>
      <rects>
        <_>
          6 4 2 2 -1.</_>
        <_>
          6 4 2 1 2.</_></rects>
      <tilted>1</tilted></_>
    <_>
      <rects>
        <_>
          6 5 6 12 -1.</_>
        <_>
          6 5 3 6 2.</_>
        <_>
          9 11 3 6 2.</_></rects>
      <tilted>0</tilted></_>
    <_>
      <rects>
        <_>
          6 8 9 6 -1.</_>
        <_>
          9 10 3 2 9.</_></rects>
      <tilted>0</tilted></_>
    <_>
      <rects>
        <_>
          6 8 4 6 -1.</_>
        <_>
          6 11 4 3 2.</_></rects>
      <tilted>0</tilted></_>
    <_>
      <rects>
        <_>
          6 9 7 4 -1.</_>
        <_>
          5 10 7 2 2.</_></rects>
      <tilted>1</tilted></_>
    <_>
      <rects>
        <_>
          6 11 9 3 -1.</_>
        <_>
          9 12 3 1 9.</_></rects>
      <tilted>0</tilted></_>
    <_>
      <rects>
        <_>
          6 14 4 2 -1.</_>
        <_>
          8 14 2 2 2.</_></rects>
      <tilted>0</tilted></_>
    <_>
      <rects>
        <_>
          7 0 2 12 -1.</_>
        <_>
          7 3 2 6 2.</_></rects>
      <tilted>0</tilted></_>
    <_>
      <rects>
        <_>
          7 3 8 6 -1.</_>
        <_>
          7 5 8 2 3.</_></rects>
      <tilted>0</tilted></_>
    <_>
      <rects>
        <_>
          7 4 1 2 -1.</_>
        <_>
          7 4 1 1 2.</_></rects>
      <tilted>1</tilted></_>
    <_>
      <rects>
        <_>
          7 5 8 10 -1.</_>
        <_>
          11 5 4 10 2.</_></rects>
      <tilted>0</tilted></_>
    <_>
      <rects>
        <_>
          7 5 5 4 -1.</_>
        <_>
          7 5 5 2 2.</_></rects>
      <tilted>1</tilted></_>
    <_>
      <rects>
        <_>
          7 5 9 10 -1.</_>
        <_>
          7 10 9 5 2.</_></rects>
      <tilted>0</tilted></_>
    <_>
      <rects>
        <_>
          7 7 9 6 -1.</_>
        <_>
          10 9 3 2 9.</_></rects>
      <tilted>0</tilted></_>
    <_>
      <rects>
        <_>
          7 8 2 6 -1.</_>
        <_>
          7 11 2 3 2.</_></rects>
      <tilted>0</tilted></_>
    <_>
      <rects>
        <_>
          7 8 9 6 -1.</_>
        <_>
          10 10 3 2 9.</_></rects>
      <tilted>0</tilted></_>
    <_>
      <rects>
        <_>
          7 11 4 3 -1.</_>
        <_>
          9 11 2 3 2.</_></rects>
      <tilted>0</tilted></_>
    <_>
      <rects>
        <_>
          7 11 4 7 -1.</_>
        <_>
          9 11 2 7 2.</_></rects>
      <tilted>0</tilted></_>
    <_>
      <rects>
        <_>
          7 11 6 6 -1.</_>
        <_>
          7 13 6 2 3.</_></rects>
      <tilted>0</tilted></_>
    <_>
      <rects>
        <_>
          7 12 1 6 -1.</_>
        <_>
          7 14 1 2 3.</_></rects>
      <tilted>0</tilted></_>
    <_>
      <rects>
        <_>
          7 12 4 4 -1.</_>
        <_>
          7 12 2 2 2.</_>
        <_>
          9 14 2 2 2.</_></rects>
      <tilted>0</tilted></_>
    <_>
      <rects>
        <_>
          7 13 2 1 -1.</_>
        <_>
          7 13 1 1 2.</_></rects>
      <tilted>1</tilted></_>
    <_>
      <rects>
        <_>
          7 13 4 4 -1.</_>
        <_>
          7 14 4 2 2.</_></rects>
      <tilted>0</tilted></_>
    <_>
      <rects>
        <_>
          7 14 4 2 -1.</_>
        <_>
          9 14 2 2 2.</_></rects>
      <tilted>0</tilted></_>
    <_>
      <rects>
        <_>
          7 14 4 4 -1.</_>
        <_>
          7 15 4 2 2.</_></rects>
      <tilted>0</tilted></_>
    <_>
      <rects>
        <_>
          8 2 5 6 -1.</_>
        <_>
          8 2 5 3 2.</_></rects>
      <tilted>1</tilted></_>
    <_>
      <rects>
        <_>
          8 3 4 5 -1.</_>
        <_>
          9 4 2 5 2.</_></rects>
      <tilted>1</tilted></_>
    <_>
      <rects>
        <_>
          8 4 2 3 -1.</_>
        <_>
          8 4 1 3 2.</_></rects>
      <tilted>1</tilted></_>
    <_>
      <rects>
        <_>
          8 4 6 2 -1.</_>
        <_>
          11 4 3 2 2.</_></rects>
      <tilted>0</tilted></_>
    <_>
      <rects>
        <_>
          8 4 5 4 -1.</_>
        <_>
          8 5 5 2 2.</_></rects>
      <tilted>0</tilted></_>
    <_>
      <rects>
        <_>
          8 5 4 11 -1.</_>
        <_>
          10 5 2 11 2.</_></rects>
      <tilted>0</tilted></_>
    <_>
      <rects>
        <_>
          8 5 8 2 -1.</_>
        <_>
          8 5 4 2 2.</_></rects>
      <tilted>1</tilted></_>
    <_>
      <rects>
        <_>
          8 6 6 1 -1.</_>
        <_>
          10 6 2 1 3.</_></rects>
      <tilted>0</tilted></_>
    <_>
      <rects>
        <_>
          8 6 6 12 -1.</_>
        <_>
          11 6 3 12 2.</_></rects>
      <tilted>0</tilted></_>
    <_>
      <rects>
        <_>
          8 7 6 9 -1.</_>
        <_>
          10 10 2 3 9.</_></rects>
      <tilted>0</tilted></_>
    <_>
      <rects>
        <_>
          8 7 6 10 -1.</_>
        <_>
          11 7 3 10 2.</_></rects>
      <tilted>0</tilted></_>
    <_>
      <rects>
        <_>
          8 7 5 8 -1.</_>
        <_>
          8 9 5 4 2.</_></rects>
      <tilted>0</tilted></_>
    <_>
      <rects>
        <_>
          8 7 7 6 -1.</_>
        <_>
          8 10 7 3 2.</_></rects>
      <tilted>0</tilted></_>
    <_>
      <rects>
        <_>
          8 8 6 3 -1.</_>
        <_>
          8 8 3 3 2.</_></rects>
      <tilted>1</tilted></_>
    <_>
      <rects>
        <_>
          8 9 5 6 -1.</_>
        <_>
          8 12 5 3 2.</_></rects>
      <tilted>0</tilted></_>
    <_>
      <rects>
        <_>
          8 9 10 6 -1.</_>
        <_>
          8 12 10 3 2.</_></rects>
      <tilted>0</tilted></_>
    <_>
      <rects>
        <_>
          8 10 9 3 -1.</_>
        <_>
          11 11 3 1 9.</_></rects>
      <tilted>0</tilted></_>
    <_>
      <rects>
        <_>
          8 10 4 3 -1.</_>
        <_>
          7 11 4 1 3.</_></rects>
      <tilted>1</tilted></_>
    <_>
      <rects>
        <_>
          8 10 7 2 -1.</_>
        <_>
          8 10 7 1 2.</_></rects>
      <tilted>1</tilted></_>
    <_>
      <rects>
        <_>
          8 10 10 4 -1.</_>
        <_>
          8 11 10 2 2.</_></rects>
      <tilted>0</tilted></_>
    <_>
      <rects>
        <_>
          8 11 1 8 -1.</_>
        <_>
          6 13 1 4 2.</_></rects>
      <tilted>1</tilted></_>
    <_>
      <rects>
        <_>
          8 11 4 3 -1.</_>
        <_>
          7 12 4 1 3.</_></rects>
      <tilted>1</tilted></_>
    <_>
      <rects>
        <_>
          8 14 2 2 -1.</_>
        <_>
          8 14 1 2 2.</_></rects>
      <tilted>1</tilted></_>
    <_>
      <rects>
        <_>
          8 14 6 3 -1.</_>
        <_>
          10 14 2 3 3.</_></rects>
      <tilted>0</tilted></_>
    <_>
      <rects>
        <_>
          9 3 6 14 -1.</_>
        <_>
          11 3 2 14 3.</_></rects>
      <tilted>0</tilted></_>
    <_>
      <rects>
        <_>
          9 5 3 4 -1.</_>
        <_>
          10 6 1 4 3.</_></rects>
      <tilted>1</tilted></_>
    <_>
      <rects>
        <_>
          9 5 2 3 -1.</_>
        <_>
          9 6 2 1 3.</_></rects>
      <tilted>0</tilted></_>
    <_>
      <rects>
        <_>
          9 6 2 6 -1.</_>
        <_>
          9 9 2 3 2.</_></rects>
      <tilted>0</tilted></_>
    <_>
      <rects>
        <_>
          9 6 3 12 -1.</_>
        <_>
          9 12 3 6 2.</_></rects>
      <tilted>0</tilted></_>
    <_>
      <rects>
        <_>
          9 6 6 11 -1.</_>
        <_>
          12 6 3 11 2.</_></rects>
      <tilted>0</tilted></_>
    <_>
      <rects>
        <_>
          9 6 4 6 -1.</_>
        <_>
          9 9 4 3 2.</_></rects>
      <tilted>0</tilted></_>
    <_>
      <rects>
        <_>
          9 9 2 4 -1.</_>
        <_>
          9 10 2 2 2.</_></rects>
      <tilted>0</tilted></_>
    <_>
      <rects>
        <_>
          9 9 6 4 -1.</_>
        <_>
          9 9 3 4 2.</_></rects>
      <tilted>1</tilted></_>
    <_>
      <rects>
        <_>
          9 9 4 3 -1.</_>
        <_>
          8 10 4 1 3.</_></rects>
      <tilted>1</tilted></_>
    <_>
      <rects>
        <_>
          9 10 3 2 -1.</_>
        <_>
          10 10 1 2 3.</_></rects>
      <tilted>0</tilted></_>
    <_>
      <rects>
        <_>
          9 10 3 3 -1.</_>
        <_>
          10 10 1 3 3.</_></rects>
      <tilted>0</tilted></_>
    <_>
      <rects>
        <_>
          9 10 4 4 -1.</_>
        <_>
          9 10 2 4 2.</_></rects>
      <tilted>1</tilted></_>
    <_>
      <rects>
        <_>
          9 11 3 2 -1.</_>
        <_>
          9 12 3 1 2.</_></rects>
      <tilted>0</tilted></_>
    <_>
      <rects>
        <_>
          9 11 3 4 -1.</_>
        <_>
          9 12 3 2 2.</_></rects>
      <tilted>0</tilted></_>
    <_>
      <rects>
        <_>
          9 12 4 2 -1.</_>
        <_>
          9 12 2 2 2.</_></rects>
      <tilted>1</tilted></_>
    <_>
      <rects>
        <_>
          9 12 6 4 -1.</_>
        <_>
          9 12 3 2 2.</_>
        <_>
          12 14 3 2 2.</_></rects>
      <tilted>0</tilted></_>
    <_>
      <rects>
        <_>
          9 13 2 3 -1.</_>
        <_>
          9 14 2 1 3.</_></rects>
      <tilted>0</tilted></_>
    <_>
      <rects>
        <_>
          9 13 6 2 -1.</_>
        <_>
          9 13 3 1 2.</_>
        <_>
          12 14 3 1 2.</_></rects>
      <tilted>0</tilted></_>
    <_>
      <rects>
        <_>
          9 14 4 2 -1.</_>
        <_>
          10 14 2 2 2.</_></rects>
      <tilted>0</tilted></_>
    <_>
      <rects>
        <_>
          9 14 2 3 -1.</_>
        <_>
          10 14 1 3 2.</_></rects>
      <tilted>0</tilted></_>
    <_>
      <rects>
        <_>
          9 15 3 3 -1.</_>
        <_>
          9 16 3 1 3.</_></rects>
      <tilted>0</tilted></_>
    <_>
      <rects>
        <_>
          10 0 10 8 -1.</_>
        <_>
          10 0 5 4 2.</_>
        <_>
          15 4 5 4 2.</_></rects>
      <tilted>0</tilted></_>
    <_>
      <rects>
        <_>
          10 2 6 6 -1.</_>
        <_>
          10 2 3 3 2.</_>
        <_>
          13 5 3 3 2.</_></rects>
      <tilted>0</tilted></_>
    <_>
      <rects>
        <_>
          10 3 7 6 -1.</_>
        <_>
          10 3 7 3 2.</_></rects>
      <tilted>1</tilted></_>
    <_>
      <rects>
        <_>
          10 4 2 4 -1.</_>
        <_>
          10 5 2 2 2.</_></rects>
      <tilted>0</tilted></_>
    <_>
      <rects>
        <_>
          10 4 10 4 -1.</_>
        <_>
          10 4 5 2 2.</_>
        <_>
          15 6 5 2 2.</_></rects>
      <tilted>0</tilted></_>
    <_>
      <rects>
        <_>
          10 5 8 4 -1.</_>
        <_>
          10 5 4 4 2.</_></rects>
      <tilted>1</tilted></_>
    <_>
      <rects>
        <_>
          10 5 5 4 -1.</_>
        <_>
          10 5 5 2 2.</_></rects>
      <tilted>1</tilted></_>
    <_>
      <rects>
        <_>
          10 6 3 2 -1.</_>
        <_>
          11 6 1 2 3.</_></rects>
      <tilted>0</tilted></_>
    <_>
      <rects>
        <_>
          10 6 2 12 -1.</_>
        <_>
          10 12 2 6 2.</_></rects>
      <tilted>0</tilted></_>
    <_>
      <rects>
        <_>
          10 6 6 10 -1.</_>
        <_>
          12 6 2 10 3.</_></rects>
      <tilted>0</tilted></_>
    <_>
      <rects>
        <_>
          10 7 1 3 -1.</_>
        <_>
          10 8 1 1 3.</_></rects>
      <tilted>0</tilted></_>
    <_>
      <rects>
        <_>
          10 7 2 2 -1.</_>
        <_>
          10 7 1 1 2.</_>
        <_>
          11 8 1 1 2.</_></rects>
      <tilted>0</tilted></_>
    <_>
      <rects>
        <_>
          10 7 2 4 -1.</_>
        <_>
          10 8 2 2 2.</_></rects>
      <tilted>0</tilted></_>
    <_>
      <rects>
        <_>
          10 9 4 5 -1.</_>
        <_>
          10 9 2 5 2.</_></rects>
      <tilted>1</tilted></_>
    <_>
      <rects>
        <_>
          10 12 10 8 -1.</_>
        <_>
          10 12 5 4 2.</_>
        <_>
          15 16 5 4 2.</_></rects>
      <tilted>0</tilted></_>
    <_>
      <rects>
        <_>
          10 15 3 2 -1.</_>
        <_>
          11 15 1 2 3.</_></rects>
      <tilted>0</tilted></_>
    <_>
      <rects>
        <_>
          11 4 5 3 -1.</_>
        <_>
          10 5 5 1 3.</_></rects>
      <tilted>1</tilted></_>
    <_>
      <rects>
        <_>
          11 4 7 6 -1.</_>
        <_>
          11 4 7 3 2.</_></rects>
      <tilted>1</tilted></_>
    <_>
      <rects>
        <_>
          11 5 6 2 -1.</_>
        <_>
          11 5 3 1 2.</_>
        <_>
          14 6 3 1 2.</_></rects>
      <tilted>0</tilted></_>
    <_>
      <rects>
        <_>
          11 6 4 4 -1.</_>
        <_>
          11 6 4 2 2.</_></rects>
      <tilted>1</tilted></_>
    <_>
      <rects>
        <_>
          11 7 5 6 -1.</_>
        <_>
          11 10 5 3 2.</_></rects>
      <tilted>0</tilted></_>
    <_>
      <rects>
        <_>
          11 7 7 4 -1.</_>
        <_>
          11 7 7 2 2.</_></rects>
      <tilted>1</tilted></_>
    <_>
      <rects>
        <_>
          11 9 4 3 -1.</_>
        <_>
          11 9 2 3 2.</_></rects>
      <tilted>1</tilted></_>
    <_>
      <rects>
        <_>
          11 10 4 6 -1.</_>
        <_>
          11 10 2 3 2.</_>
        <_>
          13 13 2 3 2.</_></rects>
      <tilted>0</tilted></_>
    <_>
      <rects>
        <_>
          11 11 2 2 -1.</_>
        <_>
          11 11 1 1 2.</_>
        <_>
          12 12 1 1 2.</_></rects>
      <tilted>0</tilted></_>
    <_>
      <rects>
        <_>
          11 14 2 1 -1.</_>
        <_>
          11 14 1 1 2.</_></rects>
      <tilted>1</tilted></_>
    <_>
      <rects>
        <_>
          11 14 4 2 -1.</_>
        <_>
          13 14 2 2 2.</_></rects>
      <tilted>0</tilted></_>
    <_>
      <rects>
        <_>
          11 15 1 3 -1.</_>
        <_>
          11 16 1 1 3.</_></rects>
      <tilted>0</tilted></_>
    <_>
      <rects>
        <_>
          12 0 8 14 -1.</_>
        <_>
          12 0 4 7 2.</_>
        <_>
          16 7 4 7 2.</_></rects>
      <tilted>0</tilted></_>
    <_>
      <rects>
        <_>
          12 4 5 8 -1.</_>
        <_>
          12 4 5 4 2.</_></rects>
      <tilted>1</tilted></_>
    <_>
      <rects>
        <_>
          12 5 4 6 -1.</_>
        <_>
          12 5 2 6 2.</_></rects>
      <tilted>1</tilted></_>
    <_>
      <rects>
        <_>
          13 1 4 4 -1.</_>
        <_>
          12 2 4 2 2.</_></rects>
      <tilted>1</tilted></_>
    <_>
      <rects>
        <_>
          13 2 7 2 -1.</_>
        <_>
          13 2 7 1 2.</_></rects>
      <tilted>1</tilted></_>
    <_>
      <rects>
        <_>
          13 10 4 10 -1.</_>
        <_>
          13 10 2 5 2.</_>
        <_>
          15 15 2 5 2.</_></rects>
      <tilted>0</tilted></_>
    <_>
      <rects>
        <_>
          13 14 1 3 -1.</_>
        <_>
          13 15 1 1 3.</_></rects>
      <tilted>0</tilted></_>
    <_>
      <rects>
        <_>
          14 2 6 5 -1.</_>
        <_>
          14 2 3 5 2.</_></rects>
      <tilted>1</tilted></_>
    <_>
      <rects>
        <_>
          14 2 6 2 -1.</_>
        <_>
          14 2 6 1 2.</_></rects>
      <tilted>1</tilted></_>
    <_>
      <rects>
        <_>
          14 4 4 4 -1.</_>
        <_>
          14 4 2 4 2.</_></rects>
      <tilted>1</tilted></_>
    <_>
      <rects>
        <_>
          14 6 2 4 -1.</_>
        <_>
          14 6 1 2 2.</_>
        <_>
          15 8 1 2 2.</_></rects>
      <tilted>0</tilted></_>
    <_>
      <rects>
        <_>
          14 6 2 9 -1.</_>
        <_>
          14 9 2 3 3.</_></rects>
      <tilted>0</tilted></_>
    <_>
      <rects>
        <_>
          14 6 2 8 -1.</_>
        <_>
          14 10 2 4 2.</_></rects>
      <tilted>0</tilted></_>
    <_>
      <rects>
        <_>
          14 7 2 2 -1.</_>
        <_>
          14 8 2 1 2.</_></rects>
      <tilted>0</tilted></_>
    <_>
      <rects>
        <_>
          14 7 2 9 -1.</_>
        <_>
          14 10 2 3 3.</_></rects>
      <tilted>0</tilted></_>
    <_>
      <rects>
        <_>
          14 7 4 8 -1.</_>
        <_>
          14 7 4 4 2.</_></rects>
      <tilted>1</tilted></_>
    <_>
      <rects>
        <_>
          14 8 2 2 -1.</_>
        <_>
          14 8 1 1 2.</_>
        <_>
          15 9 1 1 2.</_></rects>
      <tilted>0</tilted></_>
    <_>
      <rects>
        <_>
          14 8 2 8 -1.</_>
        <_>
          14 12 2 4 2.</_></rects>
      <tilted>0</tilted></_>
    <_>
      <rects>
        <_>
          14 8 5 6 -1.</_>
        <_>
          14 8 5 3 2.</_></rects>
      <tilted>1</tilted></_>
    <_>
      <rects>
        <_>
          14 10 2 6 -1.</_>
        <_>
          14 10 1 3 2.</_>
        <_>
          15 13 1 3 2.</_></rects>
      <tilted>0</tilted></_>
    <_>
      <rects>
        <_>
          14 10 4 4 -1.</_>
        <_>
          14 10 4 2 2.</_></rects>
      <tilted>1</tilted></_>
    <_>
      <rects>
        <_>
          14 11 6 3 -1.</_>
        <_>
          16 13 2 3 3.</_></rects>
      <tilted>1</tilted></_>
    <_>
      <rects>
        <_>
          14 12 6 8 -1.</_>
        <_>
          14 12 3 4 2.</_>
        <_>
          17 16 3 4 2.</_></rects>
      <tilted>0</tilted></_>
    <_>
      <rects>
        <_>
          14 13 2 2 -1.</_>
        <_>
          14 13 1 1 2.</_>
        <_>
          15 14 1 1 2.</_></rects>
      <tilted>0</tilted></_>
    <_>
      <rects>
        <_>
          14 14 3 2 -1.</_>
        <_>
          14 14 3 1 2.</_></rects>
      <tilted>1</tilted></_>
    <_>
      <rects>
        <_>
          14 14 6 6 -1.</_>
        <_>
          14 14 3 3 2.</_>
        <_>
          17 17 3 3 2.</_></rects>
      <tilted>0</tilted></_>
    <_>
      <rects>
        <_>
          15 5 2 1 -1.</_>
        <_>
          15 5 1 1 2.</_></rects>
      <tilted>1</tilted></_>
    <_>
      <rects>
        <_>
          15 5 2 6 -1.</_>
        <_>
          15 5 1 3 2.</_>
        <_>
          16 8 1 3 2.</_></rects>
      <tilted>0</tilted></_>
    <_>
      <rects>
        <_>
          15 6 2 4 -1.</_>
        <_>
          15 6 1 2 2.</_>
        <_>
          16 8 1 2 2.</_></rects>
      <tilted>0</tilted></_>
    <_>
      <rects>
        <_>
          15 6 5 4 -1.</_>
        <_>
          15 7 5 2 2.</_></rects>
      <tilted>0</tilted></_>
    <_>
      <rects>
        <_>
          15 7 3 5 -1.</_>
        <_>
          16 7 1 5 3.</_></rects>
      <tilted>0</tilted></_>
    <_>
      <rects>
        <_>
          15 7 3 7 -1.</_>
        <_>
          16 7 1 7 3.</_></rects>
      <tilted>0</tilted></_>
    <_>
      <rects>
        <_>
          15 8 1 6 -1.</_>
        <_>
          13 10 1 2 3.</_></rects>
      <tilted>1</tilted></_>
    <_>
      <rects>
        <_>
          15 8 3 5 -1.</_>
        <_>
          16 8 1 5 3.</_></rects>
      <tilted>0</tilted></_>
    <_>
      <rects>
        <_>
          15 9 3 5 -1.</_>
        <_>
          16 9 1 5 3.</_></rects>
      <tilted>0</tilted></_>
    <_>
      <rects>
        <_>
          15 10 2 6 -1.</_>
        <_>
          15 10 1 3 2.</_>
        <_>
          16 13 1 3 2.</_></rects>
      <tilted>0</tilted></_>
    <_>
      <rects>
        <_>
          15 10 2 4 -1.</_>
        <_>
          15 11 2 2 2.</_></rects>
      <tilted>0</tilted></_>
    <_>
      <rects>
        <_>
          15 12 2 2 -1.</_>
        <_>
          15 12 1 1 2.</_>
        <_>
          16 13 1 1 2.</_></rects>
      <tilted>0</tilted></_>
    <_>
      <rects>
        <_>
          15 12 3 3 -1.</_>
        <_>
          16 13 1 3 3.</_></rects>
      <tilted>1</tilted></_>
    <_>
      <rects>
        <_>
          16 0 4 8 -1.</_>
        <_>
          17 0 2 8 2.</_></rects>
      <tilted>0</tilted></_>
    <_>
      <rects>
        <_>
          16 0 4 12 -1.</_>
        <_>
          16 0 2 6 2.</_>
        <_>
          18 6 2 6 2.</_></rects>
      <tilted>0</tilted></_>
    <_>
      <rects>
        <_>
          16 2 4 14 -1.</_>
        <_>
          17 2 2 14 2.</_></rects>
      <tilted>0</tilted></_>
    <_>
      <rects>
        <_>
          16 4 4 10 -1.</_>
        <_>
          17 4 2 10 2.</_></rects>
      <tilted>0</tilted></_>
    <_>
      <rects>
        <_>
          16 5 2 2 -1.</_>
        <_>
          16 5 1 2 2.</_></rects>
      <tilted>1</tilted></_>
    <_>
      <rects>
        <_>
          16 7 2 8 -1.</_>
        <_>
          16 7 2 4 2.</_></rects>
      <tilted>1</tilted></_>
    <_>
      <rects>
        <_>
          16 11 1 6 -1.</_>
        <_>
          16 11 1 3 2.</_></rects>
      <tilted>1</tilted></_>
    <_>
      <rects>
        <_>
          16 11 3 5 -1.</_>
        <_>
          17 12 1 5 3.</_></rects>
      <tilted>1</tilted></_>
    <_>
      <rects>
        <_>
          16 11 3 6 -1.</_>
        <_>
          17 12 1 6 3.</_></rects>
      <tilted>1</tilted></_>
    <_>
      <rects>
        <_>
          16 13 1 2 -1.</_>
        <_>
          16 13 1 1 2.</_></rects>
      <tilted>1</tilted></_>
    <_>
      <rects>
        <_>
          16 13 2 3 -1.</_>
        <_>
          15 14 2 1 3.</_></rects>
      <tilted>1</tilted></_>
    <_>
      <rects>
        <_>
          17 11 2 6 -1.</_>
        <_>
          17 11 2 3 2.</_></rects>
      <tilted>1</tilted></_>
    <_>
      <rects>
        <_>
          18 4 2 13 -1.</_>
        <_>
          19 4 1 13 2.</_></rects>
      <tilted>0</tilted></_>
    <_>
      <rects>
        <_>
          19 9 1 10 -1.</_>
        <_>
          19 9 1 5 2.</_></rects>
      <tilted>1</tilted></_></features></cascade>
</opencv_storage>
