<?xml version="1.0"?>
<opencv_storage>
<cascade>
  <stageType>BOOST</stageType>
  <featureType>LBP</featureType>
  <height>30</height>
  <width>30</width>
  <stageParams>
    <boostType>GAB</boostType>
    <minHitRate>9.9500000476837158e-01</minHitRate>
    <maxFalseAlarm>5.0000000000000000e-01</maxFalseAlarm>
    <weightTrimRate>9.4999999999999996e-01</weightTrimRate>
    <maxDepth>1</maxDepth>
    <maxWeakCount>100</maxWeakCount></stageParams>
  <featureParams>
    <maxCatCount>256</maxCatCount>
    <featSize>1</featSize></featureParams>
  <stageNum>2</stageNum>
  <stages>
    <!-- stage 0 -->
    <_>
      <maxWeakCount>2</maxWeakCount>
      <stageThreshold>-2.4120034277439117e-01</stageThreshold>
      <weakClassifiers>
        <_>
          <internalNodes>
            0 -1 2 -551028737 -10505769 1570336223 -11155173 -1735730243
            -71589704 -355614721 -4212497</internalNodes>
          <leafValues>
            -9.9578946828842163e-01 7.5000000000000000e-01</leafValues></_>
        <_>
          <internalNodes>
            0 -1 1 -41943041 -145844975 -573245537 -541257577 -202377237
            -71356001 -107230469 -2106385</internalNodes>
          <leafValues>
            -9.9120032787322998e-01 8.7566089630126953e-01</leafValues></_></weakClassifiers></_>
    <!-- stage 1 -->
    <_>
      <maxWeakCount>1</maxWeakCount>
      <stageThreshold>1.</stageThreshold>
      <weakClassifiers>
        <_>
          <internalNodes>
            0 -1 0 32 1073807425 0 0 8 1073741824 2097152 0</internalNodes>
          <leafValues>
            -1. 1.</leafValues></_></weakClassifiers></_></stages>
  <features>
    <_>
      <rect>
        0 0 2 4</rect></_>
    <_>
      <rect>
        7 16 4 4</rect></_>
    <_>
      <rect>
        12 17 6 3</rect></_></features></cascade>
</opencv_storage>
