<?xml version="1.0"?>
<opencv_storage>
<stage14>
  <maxWeakCount>11</maxWeakCount>
  <stageThreshold>-1.0945600271224976e+00</stageThreshold>
  <weakClassifiers>
    <_>
      <internalNodes>
        0 -1 117013 7.2939973324537277e-04</internalNodes>
      <leafValues>
        -3.6226415634155273e-01 5.1228070259094238e-01</leafValues></_>
    <_>
      <internalNodes>
        0 -1 20163 -1.3130262494087219e-02</internalNodes>
      <leafValues>
        6.3717544078826904e-01 -2.9193425178527832e-01</leafValues></_>
    <_>
      <internalNodes>
        0 -1 69027 4.5553930103778839e-03</internalNodes>
      <leafValues>
        2.8220435976982117e-01 -6.2404209375381470e-01</leafValues></_>
    <_>
      <internalNodes>
        0 -1 76564 5.4829167202115059e-03</internalNodes>
      <leafValues>
        2.1887026727199554e-01 -6.5481626987457275e-01</leafValues></_>
    <_>
      <internalNodes>
        0 -1 93335 -6.8986075930297375e-03</internalNodes>
      <leafValues>
        4.0600475668907166e-01 -4.1406181454658508e-01</leafValues></_>
    <_>
      <internalNodes>
        0 -1 68013 -1.5697313472628593e-02</internalNodes>
      <leafValues>
        -8.4423238039016724e-01 1.7441096901893616e-01</leafValues></_>
    <_>
      <internalNodes>
        0 -1 63049 1.2673012912273407e-02</internalNodes>
      <leafValues>
        2.2002111375331879e-01 -6.8139731884002686e-01</leafValues></_>
    <_>
      <internalNodes>
        0 -1 9619 -1.3706903904676437e-02</internalNodes>
      <leafValues>
        3.4745088219642639e-01 -4.0553379058837891e-01</leafValues></_>
    <_>
      <internalNodes>
        0 -1 116153 -2.3256082087755203e-02</internalNodes>
      <leafValues>
        7.6406681537628174e-01 -2.2170969843864441e-01</leafValues></_>
    <_>
      <internalNodes>
        0 -1 53866 -2.1385490254033357e-04</internalNodes>
      <leafValues>
        2.7155432105064392e-01 -6.0980463027954102e-01</leafValues></_>
    <_>
      <internalNodes>
        0 -1 70409 -4.9773873761296272e-03</internalNodes>
      <leafValues>
        5.3317183256149292e-01 -3.0045869946479797e-01</leafValues></_></weakClassifiers></stage14>
</opencv_storage>
