<?xml version="1.0"?>
<opencv_storage>
<stage17>
  <maxWeakCount>12</maxWeakCount>
  <stageThreshold>-1.2322391271591187e+00</stageThreshold>
  <weakClassifiers>
    <_>
      <internalNodes>
        0 -1 78232 -6.4477627165615559e-04</internalNodes>
      <leafValues>
        4.2024964094161987e-01 -4.2595419287681580e-01</leafValues></_>
    <_>
      <internalNodes>
        0 -1 54605 1.3456994201987982e-03</internalNodes>
      <leafValues>
        2.5566205382347107e-01 -5.9488761425018311e-01</leafValues></_>
    <_>
      <internalNodes>
        0 -1 117283 -1.5517975203692913e-02</internalNodes>
      <leafValues>
        6.3721466064453125e-01 -2.6027947664260864e-01</leafValues></_>
    <_>
      <internalNodes>
        0 -1 45931 -1.8519051373004913e-02</internalNodes>
      <leafValues>
        5.8531451225280762e-01 -2.7715235948562622e-01</leafValues></_>
    <_>
      <internalNodes>
        0 -1 85169 7.1603208780288696e-03</internalNodes>
      <leafValues>
        2.8136250376701355e-01 -8.5617607831954956e-01</leafValues></_>
    <_>
      <internalNodes>
        0 -1 56133 -4.7321077436208725e-03</internalNodes>
      <leafValues>
        6.7719477415084839e-01 -2.8323495388031006e-01</leafValues></_>
    <_>
      <internalNodes>
        0 -1 103148 -4.8241480253636837e-03</internalNodes>
      <leafValues>
        -7.0744395256042480e-01 2.2723700106143951e-01</leafValues></_>
    <_>
      <internalNodes>
        0 -1 110063 -7.3141802567988634e-04</internalNodes>
      <leafValues>
        4.3419891595840454e-01 -3.8789287209510803e-01</leafValues></_>
    <_>
      <internalNodes>
        0 -1 74582 -8.3546433597803116e-03</internalNodes>
      <leafValues>
        -8.2600188255310059e-01 1.9392381608486176e-01</leafValues></_>
    <_>
      <internalNodes>
        0 -1 79449 -4.2047648457810283e-04</internalNodes>
      <leafValues>
        -6.4048743247985840e-01 1.8831726908683777e-01</leafValues></_>
    <_>
      <internalNodes>
        0 -1 71038 -1.8119178712368011e-03</internalNodes>
      <leafValues>
        3.9908584952354431e-01 -4.0782764554023743e-01</leafValues></_>
    <_>
      <internalNodes>
        0 -1 123987 1.1989384889602661e-02</internalNodes>
      <leafValues>
        -3.0794242024421692e-01 5.2981519699096680e-01</leafValues></_></weakClassifiers></stage17>
</opencv_storage>
