<?xml version="1.0"?>
<opencv_storage>
<stage1>
  <maxWeakCount>6</maxWeakCount>
  <stageThreshold>-1.5757454633712769e+00</stageThreshold>
  <weakClassifiers>
    <_>
      <internalNodes>
        0 -1 79329 4.2531057260930538e-03</internalNodes>
      <leafValues>
        -7.3273271322250366e-01 7.2112673521041870e-01</leafValues></_>
    <_>
      <internalNodes>
        0 -1 18040 -3.4297641366720200e-02</internalNodes>
      <leafValues>
        6.9625079631805420e-01 -6.0653156042098999e-01</leafValues></_>
    <_>
      <internalNodes>
        0 -1 117620 -1.5404915902763605e-03</internalNodes>
      <leafValues>
        7.8723126649856567e-01 -4.7594478726387024e-01</leafValues></_>
    <_>
      <internalNodes>
        0 -1 68968 -1.1693442938849330e-03</internalNodes>
      <leafValues>
        7.8227359056472778e-01 -4.6163323521614075e-01</leafValues></_>
    <_>
      <internalNodes>
        0 -1 53923 8.4736919961869717e-04</internalNodes>
      <leafValues>
        -9.2094212770462036e-01 3.7142458558082581e-01</leafValues></_>
    <_>
      <internalNodes>
        0 -1 90460 -1.2069734744727612e-02</internalNodes>
      <leafValues>
        -8.6164456605911255e-01 3.2967224717140198e-01</leafValues></_></weakClassifiers></stage1>
</opencv_storage>
