<?xml version="1.0"?>
<opencv_storage>
<stage0>
  <maxWeakCount>6</maxWeakCount>
  <stageThreshold>-1.7433354854583740e+00</stageThreshold>
  <weakClassifiers>
    <_>
      <internalNodes>
        0 -1 70885 1.4475620351731777e-02</internalNodes>
      <leafValues>
        -7.3166924715042114e-01 7.7475726604461670e-01</leafValues></_>
    <_>
      <internalNodes>
        0 -1 88533 -1.0118164122104645e-02</internalNodes>
      <leafValues>
        7.8015983104705811e-01 -5.2575969696044922e-01</leafValues></_>
    <_>
      <internalNodes>
        0 -1 77185 -3.9123417809605598e-03</internalNodes>
      <leafValues>
        4.5584806799888611e-01 -8.8916873931884766e-01</leafValues></_>
    <_>
      <internalNodes>
        0 -1 114237 -8.4495265036821365e-03</internalNodes>
      <leafValues>
        4.8196560144424438e-01 -7.5009351968765259e-01</leafValues></_>
    <_>
      <internalNodes>
        0 -1 85235 -1.5845488756895065e-02</internalNodes>
      <leafValues>
        -8.9879131317138672e-01 3.2091027498245239e-01</leafValues></_>
    <_>
      <internalNodes>
        0 -1 76391 7.2904507396742702e-04</internalNodes>
      <leafValues>
        -6.7398107051849365e-01 4.2378228902816772e-01</leafValues></_></weakClassifiers></stage0>
</opencv_storage>
