<?xml version="1.0"?>
<opencv_storage>
<stage16>
  <maxWeakCount>13</maxWeakCount>
  <stageThreshold>-1.2764402627944946e+00</stageThreshold>
  <weakClassifiers>
    <_>
      <internalNodes>
        0 -1 112817 -1.2685381807386875e-03</internalNodes>
      <leafValues>
        6.0526317358016968e-01 -2.7391305565834045e-01</leafValues></_>
    <_>
      <internalNodes>
        0 -1 121184 7.8510362654924393e-03</internalNodes>
      <leafValues>
        -3.3687502145767212e-01 4.7222283482551575e-01</leafValues></_>
    <_>
      <internalNodes>
        0 -1 93273 1.1812439188361168e-03</internalNodes>
      <leafValues>
        -5.9036976099014282e-01 2.4429054558277130e-01</leafValues></_>
    <_>
      <internalNodes>
        0 -1 119825 2.1575328428298235e-03</internalNodes>
      <leafValues>
        1.4614041149616241e-01 -7.8823560476303101e-01</leafValues></_>
    <_>
      <internalNodes>
        0 -1 76680 9.1946357861161232e-03</internalNodes>
      <leafValues>
        1.5286646783351898e-01 -7.5595307350158691e-01</leafValues></_>
    <_>
      <internalNodes>
        0 -1 52595 -6.5466682426631451e-03</internalNodes>
      <leafValues>
        -6.5929150581359863e-01 2.1726886928081512e-01</leafValues></_>
    <_>
      <internalNodes>
        0 -1 104427 2.9906202107667923e-03</internalNodes>
      <leafValues>
        1.2850794196128845e-01 -8.0918699502944946e-01</leafValues></_>
    <_>
      <internalNodes>
        0 -1 2826 -4.3576103635132313e-03</internalNodes>
      <leafValues>
        3.7031373381614685e-01 -3.3652594685554504e-01</leafValues></_>
    <_>
      <internalNodes>
        0 -1 84288 -6.2421848997473717e-04</internalNodes>
      <leafValues>
        2.5943440198898315e-01 -5.1766312122344971e-01</leafValues></_>
    <_>
      <internalNodes>
        0 -1 92038 -2.3655775003135204e-03</internalNodes>
      <leafValues>
        2.2376371920108795e-01 -5.1117199659347534e-01</leafValues></_>
    <_>
      <internalNodes>
        0 -1 45133 -2.3092335090041161e-02</internalNodes>
      <leafValues>
        -7.5338459014892578e-01 2.0677787065505981e-01</leafValues></_>
    <_>
      <internalNodes>
        0 -1 114484 -3.5495632328093052e-03</internalNodes>
      <leafValues>
        5.9269517660140991e-01 -2.5638231635093689e-01</leafValues></_>
    <_>
      <internalNodes>
        0 -1 80750 6.6114654764533043e-03</internalNodes>
      <leafValues>
        1.8749988079071045e-01 -9.0747708082199097e-01</leafValues></_></weakClassifiers></stage16>
</opencv_storage>
