<?xml version="1.0"?>
<opencv_storage>
<stage7>
  <maxWeakCount>11</maxWeakCount>
  <stageThreshold>-1.3016046285629272e+00</stageThreshold>
  <weakClassifiers>
    <_>
      <internalNodes>
        0 -1 55955 -4.7628581523895264e-02</internalNodes>
      <leafValues>
        6.7181926965713501e-01 -2.8433734178543091e-01</leafValues></_>
    <_>
      <internalNodes>
        0 -1 86290 2.1576243452727795e-03</internalNodes>
      <leafValues>
        -5.7724434137344360e-01 3.6515614390373230e-01</leafValues></_>
    <_>
      <internalNodes>
        0 -1 102435 -3.0719418078660965e-02</internalNodes>
      <leafValues>
        -8.3282011747360229e-01 2.1234847605228424e-01</leafValues></_>
    <_>
      <internalNodes>
        0 -1 9941 -4.0436200797557831e-02</internalNodes>
      <leafValues>
        7.1219301223754883e-01 -2.6476323604583740e-01</leafValues></_>
    <_>
      <internalNodes>
        0 -1 116776 -1.7191383522003889e-03</internalNodes>
      <leafValues>
        4.8648712038993835e-01 -3.5478529334068298e-01</leafValues></_>
    <_>
      <internalNodes>
        0 -1 96456 1.4029969461262226e-02</internalNodes>
      <leafValues>
        2.4312402307987213e-01 -7.7750873565673828e-01</leafValues></_>
    <_>
      <internalNodes>
        0 -1 53544 2.1123390644788742e-02</internalNodes>
      <leafValues>
        1.7050842940807343e-01 -9.2628097534179688e-01</leafValues></_>
    <_>
      <internalNodes>
        0 -1 118576 -1.8127825111150742e-02</internalNodes>
      <leafValues>
        6.0452884435653687e-01 -3.1400480866432190e-01</leafValues></_>
    <_>
      <internalNodes>
        0 -1 74426 -1.6136836260557175e-02</internalNodes>
      <leafValues>
        6.2153887748718262e-01 -2.9530748724937439e-01</leafValues></_>
    <_>
      <internalNodes>
        0 -1 44318 1.7352711409330368e-02</internalNodes>
      <leafValues>
        2.5287434458732605e-01 -9.0953975915908813e-01</leafValues></_>
    <_>
      <internalNodes>
        0 -1 114681 -2.7428427711129189e-03</internalNodes>
      <leafValues>
        -7.8257495164871216e-01 1.9447232782840729e-01</leafValues></_></weakClassifiers></stage7>
</opencv_storage>
