<?xml version="1.0"?>
<opencv_storage>
<stage4>
  <maxWeakCount>6</maxWeakCount>
  <stageThreshold>-1.1545656919479370e+00</stageThreshold>
  <weakClassifiers>
    <_>
      <internalNodes>
        0 -1 101964 -6.5037515014410019e-03</internalNodes>
      <leafValues>
        5.8028167486190796e-01 -5.8258259296417236e-01</leafValues></_>
    <_>
      <internalNodes>
        0 -1 71533 2.4284134269692004e-04</internalNodes>
      <leafValues>
        -8.9848864078521729e-01 2.9499608278274536e-01</leafValues></_>
    <_>
      <internalNodes>
        0 -1 69954 1.2228359701111913e-03</internalNodes>
      <leafValues>
        2.2533510625362396e-01 -9.2031961679458618e-01</leafValues></_>
    <_>
      <internalNodes>
        0 -1 72307 -3.4427076578140259e-02</internalNodes>
      <leafValues>
        5.4607480764389038e-01 -4.7260397672653198e-01</leafValues></_>
    <_>
      <internalNodes>
        0 -1 90351 -8.7958164513111115e-03</internalNodes>
      <leafValues>
        -9.3891292810440063e-01 2.8327807784080505e-01</leafValues></_>
    <_>
      <internalNodes>
        0 -1 90798 1.9717209041118622e-02</internalNodes>
      <leafValues>
        2.9049625992774963e-01 -8.2942253351211548e-01</leafValues></_></weakClassifiers></stage4>
</opencv_storage>
