<?xml version="1.0"?>
<opencv_storage>
<stage15>
  <maxWeakCount>12</maxWeakCount>
  <stageThreshold>-1.1272732019424438e+00</stageThreshold>
  <weakClassifiers>
    <_>
      <internalNodes>
        0 -1 90684 -4.8053479986265302e-04</internalNodes>
      <leafValues>
        2.6095238327980042e-01 -7.6687115430831909e-01</leafValues></_>
    <_>
      <internalNodes>
        0 -1 37850 -9.1677289456129074e-03</internalNodes>
      <leafValues>
        5.1780164241790771e-01 -3.7103128433227539e-01</leafValues></_>
    <_>
      <internalNodes>
        0 -1 117429 -2.6160040870308876e-03</internalNodes>
      <leafValues>
        6.2258023023605347e-01 -2.3755390942096710e-01</leafValues></_>
    <_>
      <internalNodes>
        0 -1 76308 4.6042772009968758e-04</internalNodes>
      <leafValues>
        -5.0028413534164429e-01 2.9633489251136780e-01</leafValues></_>
    <_>
      <internalNodes>
        0 -1 68007 -1.4156933873891830e-02</internalNodes>
      <leafValues>
        -8.5914981365203857e-01 2.0158870518207550e-01</leafValues></_>
    <_>
      <internalNodes>
        0 -1 113729 2.3851514561101794e-04</internalNodes>
      <leafValues>
        1.7259019613265991e-01 -7.5652158260345459e-01</leafValues></_>
    <_>
      <internalNodes>
        0 -1 336 8.9350864291191101e-02</internalNodes>
      <leafValues>
        -2.6952189207077026e-01 6.2637686729431152e-01</leafValues></_>
    <_>
      <internalNodes>
        0 -1 121314 -1.5979257877916098e-03</internalNodes>
      <leafValues>
        -8.7284785509109497e-01 1.6125574707984924e-01</leafValues></_>
    <_>
      <internalNodes>
        0 -1 98636 5.5600213818252087e-04</internalNodes>
      <leafValues>
        -5.5418121814727783e-01 2.2767105698585510e-01</leafValues></_>
    <_>
      <internalNodes>
        0 -1 106380 -5.4754048585891724e-02</internalNodes>
      <leafValues>
        -9.4018405675888062e-01 1.4068071544170380e-01</leafValues></_>
    <_>
      <internalNodes>
        0 -1 44515 5.6387446820735931e-03</internalNodes>
      <leafValues>
        -2.4073539674282074e-01 6.9706457853317261e-01</leafValues></_>
    <_>
      <internalNodes>
        0 -1 25587 -8.5719553753733635e-03</internalNodes>
      <leafValues>
        3.8785311579704285e-01 -4.3468350172042847e-01</leafValues></_></weakClassifiers></stage15>
</opencv_storage>
