<?xml version="1.0"?>
<opencv_storage>
<stage5>
  <maxWeakCount>8</maxWeakCount>
  <stageThreshold>-1.1524085998535156e+00</stageThreshold>
  <weakClassifiers>
    <_>
      <internalNodes>
        0 -1 60093 -3.4877896308898926e-02</internalNodes>
      <leafValues>
        -8.7405544519424438e-01 3.7895810604095459e-01</leafValues></_>
    <_>
      <internalNodes>
        0 -1 78383 9.5360409468412399e-03</internalNodes>
      <leafValues>
        -5.5629646778106689e-01 4.9554494023323059e-01</leafValues></_>
    <_>
      <internalNodes>
        0 -1 121017 -1.5363189391791821e-02</internalNodes>
      <leafValues>
        6.9724869728088379e-01 -3.8758975267410278e-01</leafValues></_>
    <_>
      <internalNodes>
        0 -1 102784 -6.8555194884538651e-03</internalNodes>
      <leafValues>
        -8.2843130826950073e-01 3.2948699593544006e-01</leafValues></_>
    <_>
      <internalNodes>
        0 -1 70779 -1.7712390981614590e-03</internalNodes>
      <leafValues>
        -8.4762364625930786e-01 2.5218921899795532e-01</leafValues></_>
    <_>
      <internalNodes>
        0 -1 113549 6.9860694929957390e-04</internalNodes>
      <leafValues>
        2.2737711668014526e-01 -9.1995269060134888e-01</leafValues></_>
    <_>
      <internalNodes>
        0 -1 37980 1.7089288681745529e-02</internalNodes>
      <leafValues>
        -3.5231348872184753e-01 8.1875026226043701e-01</leafValues></_>
    <_>
      <internalNodes>
        0 -1 76471 -5.3608939051628113e-03</internalNodes>
      <leafValues>
        -8.4934532642364502e-01 3.1487014889717102e-01</leafValues></_></weakClassifiers></stage5>
</opencv_storage>
