<?xml version="1.0"?>
<opencv_storage>
<stage10>
  <maxWeakCount>9</maxWeakCount>
  <stageThreshold>-1.0148782730102539e+00</stageThreshold>
  <weakClassifiers>
    <_>
      <internalNodes>
        0 -1 99455 1.4827055856585503e-03</internalNodes>
      <leafValues>
        -7.0854270458221436e-01 3.1288343667984009e-01</leafValues></_>
    <_>
      <internalNodes>
        0 -1 114219 -3.4657120704650879e-04</internalNodes>
      <leafValues>
        3.0426952242851257e-01 -6.3712775707244873e-01</leafValues></_>
    <_>
      <internalNodes>
        0 -1 76973 -3.8700285367667675e-03</internalNodes>
      <leafValues>
        2.2055736184120178e-01 -8.7357944250106812e-01</leafValues></_>
    <_>
      <internalNodes>
        0 -1 75860 -9.0502755483612418e-04</internalNodes>
      <leafValues>
        -7.5272434949874878e-01 2.1030233800411224e-01</leafValues></_>
    <_>
      <internalNodes>
        0 -1 124830 -3.1797502189874649e-02</internalNodes>
      <leafValues>
        6.9278144836425781e-01 -3.0351716279983521e-01</leafValues></_>
    <_>
      <internalNodes>
        0 -1 121278 -3.8977642543613911e-03</internalNodes>
      <leafValues>
        -7.0296686887741089e-01 2.5086960196495056e-01</leafValues></_>
    <_>
      <internalNodes>
        0 -1 117952 -2.1010432392358780e-02</internalNodes>
      <leafValues>
        6.5381920337677002e-01 -2.9911008477210999e-01</leafValues></_>
    <_>
      <internalNodes>
        0 -1 90735 -1.2438403442502022e-02</internalNodes>
      <leafValues>
        -8.0633038282394409e-01 2.3457165062427521e-01</leafValues></_>
    <_>
      <internalNodes>
        0 -1 93393 -1.0487079853191972e-03</internalNodes>
      <leafValues>
        -8.5156816244125366e-01 1.7822477221488953e-01</leafValues></_></weakClassifiers></stage10>
</opencv_storage>
