<?xml version="1.0"?>
<opencv_storage>
<stage5>
  <maxWeakCount>9</maxWeakCount>
  <stageThreshold>-1.0019493103027344e+00</stageThreshold>
  <weakClassifiers>
    <_>
      <internalNodes>
        0 -1 56447 -3.0672278255224228e-02</internalNodes>
      <leafValues>
        6.3445377349853516e-01 -3.8247567415237427e-01</leafValues></_>
    <_>
      <internalNodes>
        0 -1 117944 -1.1696828529238701e-02</internalNodes>
      <leafValues>
        6.1190998554229736e-01 -3.6727097630500793e-01</leafValues></_>
    <_>
      <internalNodes>
        0 -1 6575 -6.2970638275146484e-02</internalNodes>
      <leafValues>
        6.1466729640960693e-01 -3.2632523775100708e-01</leafValues></_>
    <_>
      <internalNodes>
        0 -1 97290 -1.3694951776415110e-03</internalNodes>
      <leafValues>
        -8.3216297626495361e-01 2.0596975088119507e-01</leafValues></_>
    <_>
      <internalNodes>
        0 -1 68083 4.7326809726655483e-03</internalNodes>
      <leafValues>
        2.5479313731193542e-01 -7.5516712665557861e-01</leafValues></_>
    <_>
      <internalNodes>
        0 -1 98331 5.5146776139736176e-04</internalNodes>
      <leafValues>
        2.2513473033905029e-01 -8.5478115081787109e-01</leafValues></_>
    <_>
      <internalNodes>
        0 -1 53005 -5.6898459792137146e-02</internalNodes>
      <leafValues>
        -7.6282954216003418e-01 2.1120217442512512e-01</leafValues></_>
    <_>
      <internalNodes>
        0 -1 117245 1.4608319615945220e-03</internalNodes>
      <leafValues>
        2.3170067369937897e-01 -8.2019239664077759e-01</leafValues></_>
    <_>
      <internalNodes>
        0 -1 112961 -8.6375493556261063e-03</internalNodes>
      <leafValues>
        -8.9074975252151489e-01 1.5734179317951202e-01</leafValues></_></weakClassifiers></stage5>
</opencv_storage>
