<?xml version="1.0"?>
<opencv_storage>
<stage9>
  <maxWeakCount>13</maxWeakCount>
  <stageThreshold>-1.4949436187744141e+00</stageThreshold>
  <weakClassifiers>
    <_>
      <internalNodes>
        0 -1 7677 -6.8248070776462555e-02</internalNodes>
      <leafValues>
        6.5500605106353760e-01 -2.5415676832199097e-01</leafValues></_>
    <_>
      <internalNodes>
        0 -1 114486 6.9517339579761028e-04</internalNodes>
      <leafValues>
        -3.8239547610282898e-01 5.2701419591903687e-01</leafValues></_>
    <_>
      <internalNodes>
        0 -1 83949 1.4635237166658044e-03</internalNodes>
      <leafValues>
        2.4390250444412231e-01 -8.3418279886245728e-01</leafValues></_>
    <_>
      <internalNodes>
        0 -1 78203 -7.7265349682420492e-04</internalNodes>
      <leafValues>
        -8.0446302890777588e-01 2.1532768011093140e-01</leafValues></_>
    <_>
      <internalNodes>
        0 -1 116529 -7.0219282060861588e-03</internalNodes>
      <leafValues>
        6.5448939800262451e-01 -3.0553233623504639e-01</leafValues></_>
    <_>
      <internalNodes>
        0 -1 39867 1.1821763589978218e-02</internalNodes>
      <leafValues>
        -3.7420096993446350e-01 4.5531815290451050e-01</leafValues></_>
    <_>
      <internalNodes>
        0 -1 35835 1.6597649082541466e-03</internalNodes>
      <leafValues>
        2.0859465003013611e-01 -8.1552797555923462e-01</leafValues></_>
    <_>
      <internalNodes>
        0 -1 59794 1.7221091315150261e-02</internalNodes>
      <leafValues>
        1.0035820305347443e-01 -9.2311561107635498e-01</leafValues></_>
    <_>
      <internalNodes>
        0 -1 54898 -9.6535804914310575e-05</internalNodes>
      <leafValues>
        2.6504305005073547e-01 -5.1946997642517090e-01</leafValues></_>
    <_>
      <internalNodes>
        0 -1 114689 1.5752404928207397e-02</internalNodes>
      <leafValues>
        -2.8377288579940796e-01 5.7573193311691284e-01</leafValues></_>
    <_>
      <internalNodes>
        0 -1 79443 -1.5289986040443182e-03</internalNodes>
      <leafValues>
        -7.2427272796630859e-01 2.3306627571582794e-01</leafValues></_>
    <_>
      <internalNodes>
        0 -1 66955 -3.8636814802885056e-02</internalNodes>
      <leafValues>
        6.0467553138732910e-01 -2.7498081326484680e-01</leafValues></_>
    <_>
      <internalNodes>
        0 -1 116503 -1.2411717325448990e-03</internalNodes>
      <leafValues>
        -7.1985602378845215e-01 2.3511126637458801e-01</leafValues></_></weakClassifiers></stage9>
</opencv_storage>
