<?xml version="1.0"?>
<opencv_storage>
<stage7>
  <maxWeakCount>11</maxWeakCount>
  <stageThreshold>-1.9419015645980835e+00</stageThreshold>
  <weakClassifiers>
    <_>
      <internalNodes>
        0 -1 55955 -5.2998669445514679e-02</internalNodes>
      <leafValues>
        6.0750854015350342e-01 -4.2025315761566162e-01</leafValues></_>
    <_>
      <internalNodes>
        0 -1 62733 -2.4432314094156027e-03</internalNodes>
      <leafValues>
        3.2951459288597107e-01 -7.3263686895370483e-01</leafValues></_>
    <_>
      <internalNodes>
        0 -1 71673 -4.7021065838634968e-03</internalNodes>
      <leafValues>
        3.6075586080551147e-01 -5.8843851089477539e-01</leafValues></_>
    <_>
      <internalNodes>
        0 -1 53618 2.8366442769765854e-02</internalNodes>
      <leafValues>
        2.1846447885036469e-01 -8.7920409440994263e-01</leafValues></_>
    <_>
      <internalNodes>
        0 -1 92006 2.8679063543677330e-03</internalNodes>
      <leafValues>
        2.5605493783950806e-01 -7.0953905582427979e-01</leafValues></_>
    <_>
      <internalNodes>
        0 -1 9941 -4.1055895388126373e-02</internalNodes>
      <leafValues>
        7.4507319927215576e-01 -2.9169821739196777e-01</leafValues></_>
    <_>
      <internalNodes>
        0 -1 62789 1.9203741103410721e-03</internalNodes>
      <leafValues>
        2.5569766759872437e-01 -8.1693255901336670e-01</leafValues></_>
    <_>
      <internalNodes>
        0 -1 117637 4.8572523519396782e-03</internalNodes>
      <leafValues>
        -3.3435866236686707e-01 5.9577232599258423e-01</leafValues></_>
    <_>
      <internalNodes>
        0 -1 62678 -1.0027679381892085e-03</internalNodes>
      <leafValues>
        -7.7343243360519409e-01 2.2961448132991791e-01</leafValues></_>
    <_>
      <internalNodes>
        0 -1 103190 1.2838573893532157e-03</internalNodes>
      <leafValues>
        -7.0138889551162720e-01 1.9458188116550446e-01</leafValues></_>
    <_>
      <internalNodes>
        0 -1 25418 -6.6308237612247467e-02</internalNodes>
      <leafValues>
        -9.1681998968124390e-01 1.6877973079681396e-01</leafValues></_></weakClassifiers></stage7>
</opencv_storage>
