<?xml version="1.0"?>
<opencv_storage>
<stage10>
  <maxWeakCount>12</maxWeakCount>
  <stageThreshold>-1.2473032474517822e+00</stageThreshold>
  <weakClassifiers>
    <_>
      <internalNodes>
        0 -1 28288 -5.7928911410272121e-03</internalNodes>
      <leafValues>
        5.1181101799011230e-01 -4.8484849929809570e-01</leafValues></_>
    <_>
      <internalNodes>
        0 -1 91019 -9.9507521372288465e-04</internalNodes>
      <leafValues>
        5.2459079027175903e-01 -3.3897712826728821e-01</leafValues></_>
    <_>
      <internalNodes>
        0 -1 37980 2.1548731252551079e-02</internalNodes>
      <leafValues>
        -2.3291714489459991e-01 7.1596753597259521e-01</leafValues></_>
    <_>
      <internalNodes>
        0 -1 86122 -3.8771645631641150e-03</internalNodes>
      <leafValues>
        3.0672040581703186e-01 -5.4321026802062988e-01</leafValues></_>
    <_>
      <internalNodes>
        0 -1 85514 6.3427956774830818e-03</internalNodes>
      <leafValues>
        1.8575215339660645e-01 -7.1571117639541626e-01</leafValues></_>
    <_>
      <internalNodes>
        0 -1 83933 1.1113942600786686e-02</internalNodes>
      <leafValues>
        1.4255262911319733e-01 -9.2460960149765015e-01</leafValues></_>
    <_>
      <internalNodes>
        0 -1 114444 4.2116209864616394e-02</internalNodes>
      <leafValues>
        -2.2966466844081879e-01 7.1360200643539429e-01</leafValues></_>
    <_>
      <internalNodes>
        0 -1 117071 -1.0477948933839798e-02</internalNodes>
      <leafValues>
        5.2352821826934814e-01 -2.6659724116325378e-01</leafValues></_>
    <_>
      <internalNodes>
        0 -1 69492 -5.9557671193033457e-04</internalNodes>
      <leafValues>
        -5.8374214172363281e-01 2.4557243287563324e-01</leafValues></_>
    <_>
      <internalNodes>
        0 -1 89579 -4.6278126537799835e-03</internalNodes>
      <leafValues>
        5.4076200723648071e-01 -2.8500258922576904e-01</leafValues></_>
    <_>
      <internalNodes>
        0 -1 116977 3.8250095676630735e-03</internalNodes>
      <leafValues>
        2.2257179021835327e-01 -7.2869521379470825e-01</leafValues></_>
    <_>
      <internalNodes>
        0 -1 75076 -4.8432694748044014e-03</internalNodes>
      <leafValues>
        3.7536066770553589e-01 -3.3373397588729858e-01</leafValues></_></weakClassifiers></stage10>
</opencv_storage>
