<?xml version="1.0"?>
<opencv_storage>
<stage11>
  <maxWeakCount>11</maxWeakCount>
  <stageThreshold>-1.1679310798645020e+00</stageThreshold>
  <weakClassifiers>
    <_>
      <internalNodes>
        0 -1 8569 -9.2721477150917053e-02</internalNodes>
      <leafValues>
        5.7777780294418335e-01 -3.4449762105941772e-01</leafValues></_>
    <_>
      <internalNodes>
        0 -1 90659 -1.0423660278320312e-03</internalNodes>
      <leafValues>
        3.9834377169609070e-01 -5.2525794506072998e-01</leafValues></_>
    <_>
      <internalNodes>
        0 -1 79447 7.1477363235317171e-05</internalNodes>
      <leafValues>
        -7.7418345212936401e-01 2.1227245032787323e-01</leafValues></_>
    <_>
      <internalNodes>
        0 -1 53646 1.4312718994915485e-03</internalNodes>
      <leafValues>
        2.5572124123573303e-01 -7.0281928777694702e-01</leafValues></_>
    <_>
      <internalNodes>
        0 -1 88 -2.6010982692241669e-02</internalNodes>
      <leafValues>
        6.8701392412185669e-01 -2.9835680127143860e-01</leafValues></_>
    <_>
      <internalNodes>
        0 -1 119761 -1.2438125908374786e-02</internalNodes>
      <leafValues>
        6.0516434907913208e-01 -2.8623697161674500e-01</leafValues></_>
    <_>
      <internalNodes>
        0 -1 82052 -2.1238137036561966e-02</internalNodes>
      <leafValues>
        8.2064521312713623e-01 -1.5428315103054047e-01</leafValues></_>
    <_>
      <internalNodes>
        0 -1 54374 3.8581124972552061e-03</internalNodes>
      <leafValues>
        2.1107685565948486e-01 -8.1582033634185791e-01</leafValues></_>
    <_>
      <internalNodes>
        0 -1 113440 1.8822193669620901e-04</internalNodes>
      <leafValues>
        -6.0257500410079956e-01 2.3175978660583496e-01</leafValues></_>
    <_>
      <internalNodes>
        0 -1 46006 -2.0006373524665833e-02</internalNodes>
      <leafValues>
        -9.2666852474212646e-01 1.1047797650098801e-01</leafValues></_>
    <_>
      <internalNodes>
        0 -1 71252 9.1729010455310345e-04</internalNodes>
      <leafValues>
        -3.4321334958076477e-01 4.4629028439521790e-01</leafValues></_></weakClassifiers></stage11>
</opencv_storage>
