<?xml version="1.0"?>
<opencv_storage>
<stage8>
  <maxWeakCount>12</maxWeakCount>
  <stageThreshold>-9.7233259677886963e-01</stageThreshold>
  <weakClassifiers>
    <_>
      <internalNodes>
        0 -1 78440 1.5484405681490898e-02</internalNodes>
      <leafValues>
        -2.5423729419708252e-01 6.3786983489990234e-01</leafValues></_>
    <_>
      <internalNodes>
        0 -1 121007 -2.3859017528593540e-03</internalNodes>
      <leafValues>
        -7.6137930154800415e-01 3.0969193577766418e-01</leafValues></_>
    <_>
      <internalNodes>
        0 -1 106412 -4.1089579463005066e-03</internalNodes>
      <leafValues>
        2.9546430706977844e-01 -6.2020725011825562e-01</leafValues></_>
    <_>
      <internalNodes>
        0 -1 97789 7.5458688661456108e-03</internalNodes>
      <leafValues>
        2.3721395432949066e-01 -7.8912621736526489e-01</leafValues></_>
    <_>
      <internalNodes>
        0 -1 4421 -2.0514540374279022e-02</internalNodes>
      <leafValues>
        6.9588178396224976e-01 -3.0087137222290039e-01</leafValues></_>
    <_>
      <internalNodes>
        0 -1 77266 1.4925026334822178e-03</internalNodes>
      <leafValues>
        1.9291619956493378e-01 -8.0740064382553101e-01</leafValues></_>
    <_>
      <internalNodes>
        0 -1 75885 -5.5350344628095627e-03</internalNodes>
      <leafValues>
        -8.4840190410614014e-01 1.8149039149284363e-01</leafValues></_>
    <_>
      <internalNodes>
        0 -1 121029 -2.3238200694322586e-02</internalNodes>
      <leafValues>
        5.4372322559356689e-01 -3.0967071652412415e-01</leafValues></_>
    <_>
      <internalNodes>
        0 -1 3946 3.1024533510208130e-01</internalNodes>
      <leafValues>
        -2.1640704572200775e-01 7.3871654272079468e-01</leafValues></_>
    <_>
      <internalNodes>
        0 -1 10434 3.9066269993782043e-02</internalNodes>
      <leafValues>
        -2.4431005120277405e-01 6.4731055498123169e-01</leafValues></_>
    <_>
      <internalNodes>
        0 -1 76973 -1.0480282362550497e-03</internalNodes>
      <leafValues>
        2.0289590954780579e-01 -8.0449312925338745e-01</leafValues></_>
    <_>
      <internalNodes>
        0 -1 26510 -3.5839088261127472e-02</internalNodes>
      <leafValues>
        -7.4693459272384644e-01 1.7917656898498535e-01</leafValues></_></weakClassifiers></stage8>
</opencv_storage>
