<?xml version="1.0"?>
<opencv_storage>
<stage13>
  <maxWeakCount>13</maxWeakCount>
  <stageThreshold>-1.3308819532394409e+00</stageThreshold>
  <weakClassifiers>
    <_>
      <internalNodes>
        0 -1 86446 6.1937427381053567e-04</internalNodes>
      <leafValues>
        -5.6621003150939941e-01 4.6796432137489319e-01</leafValues></_>
    <_>
      <internalNodes>
        0 -1 5123 -5.1415041089057922e-03</internalNodes>
      <leafValues>
        5.3029096126556396e-01 -3.7608933448791504e-01</leafValues></_>
    <_>
      <internalNodes>
        0 -1 121223 1.3194433413445950e-03</internalNodes>
      <leafValues>
        2.2308546304702759e-01 -8.2113623619079590e-01</leafValues></_>
    <_>
      <internalNodes>
        0 -1 85848 -2.1901903674006462e-03</internalNodes>
      <leafValues>
        3.2775595784187317e-01 -4.9635004997253418e-01</leafValues></_>
    <_>
      <internalNodes>
        0 -1 68248 -2.6163306087255478e-02</internalNodes>
      <leafValues>
        -7.5102525949478149e-01 2.3691387474536896e-01</leafValues></_>
    <_>
      <internalNodes>
        0 -1 117916 2.0955500076524913e-04</internalNodes>
      <leafValues>
        -4.0424507856369019e-01 3.6105626821517944e-01</leafValues></_>
    <_>
      <internalNodes>
        0 -1 61458 6.2788547948002815e-03</internalNodes>
      <leafValues>
        1.6168694198131561e-01 -8.4174990653991699e-01</leafValues></_>
    <_>
      <internalNodes>
        0 -1 54859 -1.0070437565445900e-03</internalNodes>
      <leafValues>
        3.8982546329498291e-01 -3.6241883039474487e-01</leafValues></_>
    <_>
      <internalNodes>
        0 -1 25613 3.9817909710109234e-03</internalNodes>
      <leafValues>
        2.0175857841968536e-01 -8.8098937273025513e-01</leafValues></_>
    <_>
      <internalNodes>
        0 -1 98823 5.2053935360163450e-04</internalNodes>
      <leafValues>
        -3.1016278266906738e-01 4.5616275072097778e-01</leafValues></_>
    <_>
      <internalNodes>
        0 -1 111668 2.2874400019645691e-02</internalNodes>
      <leafValues>
        -1.9507630169391632e-01 7.9866129159927368e-01</leafValues></_>
    <_>
      <internalNodes>
        0 -1 119124 -1.1637219227850437e-02</internalNodes>
      <leafValues>
        6.1807674169540405e-01 -2.3840560019016266e-01</leafValues></_>
    <_>
      <internalNodes>
        0 -1 61534 -2.2299487609416246e-03</internalNodes>
      <leafValues>
        -6.6077709197998047e-01 2.6502475142478943e-01</leafValues></_></weakClassifiers></stage13>
</opencv_storage>
