<?xml version="1.0"?>
<opencv_storage>
<stage13>
  <maxWeakCount>10</maxWeakCount>
  <stageThreshold>-9.7098201513290405e-01</stageThreshold>
  <weakClassifiers>
    <_>
      <internalNodes>
        0 -1 51217 -1.5094217844307423e-02</internalNodes>
      <leafValues>
        5.2447551488876343e-01 -3.4328359365463257e-01</leafValues></_>
    <_>
      <internalNodes>
        0 -1 28925 2.1214611828327179e-02</internalNodes>
      <leafValues>
        -2.0077420771121979e-01 7.9586011171340942e-01</leafValues></_>
    <_>
      <internalNodes>
        0 -1 92838 2.7850880287587643e-03</internalNodes>
      <leafValues>
        2.1334239840507507e-01 -7.9886752367019653e-01</leafValues></_>
    <_>
      <internalNodes>
        0 -1 73080 -4.1937559843063354e-02</internalNodes>
      <leafValues>
        5.1222765445709229e-01 -3.5673800110816956e-01</leafValues></_>
    <_>
      <internalNodes>
        0 -1 78403 -8.3831259980797768e-03</internalNodes>
      <leafValues>
        -8.2566511631011963e-01 2.8253328800201416e-01</leafValues></_>
    <_>
      <internalNodes>
        0 -1 117916 4.2595554259605706e-04</internalNodes>
      <leafValues>
        -4.6894145011901855e-01 3.6573001742362976e-01</leafValues></_>
    <_>
      <internalNodes>
        0 -1 114444 3.0211698263883591e-02</internalNodes>
      <leafValues>
        -2.7124816179275513e-01 6.4642655849456787e-01</leafValues></_>
    <_>
      <internalNodes>
        0 -1 113649 3.2856357283890247e-03</internalNodes>
      <leafValues>
        2.0704284310340881e-01 -8.4252208471298218e-01</leafValues></_>
    <_>
      <internalNodes>
        0 -1 86297 1.9442875054664910e-04</internalNodes>
      <leafValues>
        2.2125455737113953e-01 -7.0727306604385376e-01</leafValues></_>
    <_>
      <internalNodes>
        0 -1 63514 -2.7136183343827724e-03</internalNodes>
      <leafValues>
        -8.9831745624542236e-01 1.1400213837623596e-01</leafValues></_></weakClassifiers></stage13>
</opencv_storage>
