<?xml version="1.0"?>
<opencv_storage>
<stage15>
  <maxWeakCount>17</maxWeakCount>
  <stageThreshold>-1.1206394433975220e+00</stageThreshold>
  <weakClassifiers>
    <_>
      <internalNodes>
        0 -1 83265 3.5603162832558155e-03</internalNodes>
      <leafValues>
        -1.5317286550998688e-01 6.1955088376998901e-01</leafValues></_>
    <_>
      <internalNodes>
        0 -1 9941 -4.7549996525049210e-02</internalNodes>
      <leafValues>
        7.6083290576934814e-01 -1.7164967954158783e-01</leafValues></_>
    <_>
      <internalNodes>
        0 -1 110063 -9.6380850300192833e-04</internalNodes>
      <leafValues>
        3.6586841940879822e-01 -3.5284921526908875e-01</leafValues></_>
    <_>
      <internalNodes>
        0 -1 112961 -5.5267065763473511e-03</internalNodes>
      <leafValues>
        -7.8945320844650269e-01 1.5718166530132294e-01</leafValues></_>
    <_>
      <internalNodes>
        0 -1 97752 4.1576973162591457e-03</internalNodes>
      <leafValues>
        1.9390375912189484e-01 -6.9604033231735229e-01</leafValues></_>
    <_>
      <internalNodes>
        0 -1 89370 2.5123175233602524e-02</internalNodes>
      <leafValues>
        8.6234755814075470e-02 -7.9788690805435181e-01</leafValues></_>
    <_>
      <internalNodes>
        0 -1 87411 -6.4664587378501892e-02</internalNodes>
      <leafValues>
        5.6017130613327026e-01 -2.4568077921867371e-01</leafValues></_>
    <_>
      <internalNodes>
        0 -1 106953 1.7167426645755768e-02</internalNodes>
      <leafValues>
        -1.6855600476264954e-01 7.3959761857986450e-01</leafValues></_>
    <_>
      <internalNodes>
        0 -1 37050 1.0737402737140656e-01</internalNodes>
      <leafValues>
        -2.2579520940780640e-01 4.9580618739128113e-01</leafValues></_>
    <_>
      <internalNodes>
        0 -1 64319 -9.8143685609102249e-03</internalNodes>
      <leafValues>
        4.2852056026458740e-01 -2.6939389109611511e-01</leafValues></_>
    <_>
      <internalNodes>
        0 -1 74109 -2.2175889462232590e-02</internalNodes>
      <leafValues>
        -7.9782766103744507e-01 1.5811283886432648e-01</leafValues></_>
    <_>
      <internalNodes>
        0 -1 83812 -5.9584167320281267e-04</internalNodes>
      <leafValues>
        1.1958283931016922e-01 -7.8344845771789551e-01</leafValues></_>
    <_>
      <internalNodes>
        0 -1 71533 4.9140071496367455e-05</internalNodes>
      <leafValues>
        -7.2971296310424805e-01 1.4256778359413147e-01</leafValues></_>
    <_>
      <internalNodes>
        0 -1 111567 6.5220415592193604e-02</internalNodes>
      <leafValues>
        1.1965367943048477e-01 -8.3329874277114868e-01</leafValues></_>
    <_>
      <internalNodes>
        0 -1 90351 -2.9181977733969688e-03</internalNodes>
      <leafValues>
        -7.5175935029983521e-01 1.5378569066524506e-01</leafValues></_>
    <_>
      <internalNodes>
        0 -1 35124 -2.7048438787460327e-02</internalNodes>
      <leafValues>
        -8.9299160242080688e-01 9.1028511524200439e-02</leafValues></_>
    <_>
      <internalNodes>
        0 -1 56227 -7.8509198501706123e-03</internalNodes>
      <leafValues>
        5.9122121334075928e-01 -2.3204542696475983e-01</leafValues></_></weakClassifiers></stage15>
</opencv_storage>
