<?xml version="1.0"?>
<opencv_storage>
<stage11>
  <maxWeakCount>9</maxWeakCount>
  <stageThreshold>-1.0196052789688110e+00</stageThreshold>
  <weakClassifiers>
    <_>
      <internalNodes>
        0 -1 52935 9.8373973742127419e-04</internalNodes>
      <leafValues>
        -6.0000002384185791e-01 4.2352035641670227e-01</leafValues></_>
    <_>
      <internalNodes>
        0 -1 54417 3.6263449146645144e-05</internalNodes>
      <leafValues>
        -7.8228139877319336e-01 2.2992533445358276e-01</leafValues></_>
    <_>
      <internalNodes>
        0 -1 100302 -9.4006441533565521e-02</internalNodes>
      <leafValues>
        6.5175974369049072e-01 -2.8368520736694336e-01</leafValues></_>
    <_>
      <internalNodes>
        0 -1 102710 -6.7341938847675920e-04</internalNodes>
      <leafValues>
        -7.5377756357192993e-01 2.1956616640090942e-01</leafValues></_>
    <_>
      <internalNodes>
        0 -1 90728 -1.2679795734584332e-02</internalNodes>
      <leafValues>
        -8.9280468225479126e-01 1.6003394126892090e-01</leafValues></_>
    <_>
      <internalNodes>
        0 -1 117637 6.2486925162374973e-03</internalNodes>
      <leafValues>
        -2.9301953315734863e-01 6.2789654731750488e-01</leafValues></_>
    <_>
      <internalNodes>
        0 -1 119839 3.4923732746392488e-03</internalNodes>
      <leafValues>
        2.0788834989070892e-01 -7.4757307767868042e-01</leafValues></_>
    <_>
      <internalNodes>
        0 -1 121271 -3.2779006287455559e-03</internalNodes>
      <leafValues>
        -7.9790395498275757e-01 1.5020838379859924e-01</leafValues></_>
    <_>
      <internalNodes>
        0 -1 121271 5.7043693959712982e-03</internalNodes>
      <leafValues>
        1.4493873715400696e-01 -9.0251064300537109e-01</leafValues></_></weakClassifiers></stage11>
</opencv_storage>
