<?xml version="1.0"?>
<opencv_storage>
<stage10>
  <maxWeakCount>10</maxWeakCount>
  <stageThreshold>-1.0461711883544922e+00</stageThreshold>
  <weakClassifiers>
    <_>
      <internalNodes>
        0 -1 83800 -1.7712584231048822e-03</internalNodes>
      <leafValues>
        4.8286604881286621e-01 -4.5851528644561768e-01</leafValues></_>
    <_>
      <internalNodes>
        0 -1 64907 -6.7047193646430969e-02</internalNodes>
      <leafValues>
        5.1068663597106934e-01 -4.2525327205657959e-01</leafValues></_>
    <_>
      <internalNodes>
        0 -1 85848 -1.4012460596859455e-03</internalNodes>
      <leafValues>
        3.7811613082885742e-01 -5.0020253658294678e-01</leafValues></_>
    <_>
      <internalNodes>
        0 -1 108988 4.6667886635987088e-05</internalNodes>
      <leafValues>
        -5.9806644916534424e-01 3.7195250391960144e-01</leafValues></_>
    <_>
      <internalNodes>
        0 -1 102386 -9.3255313113331795e-03</internalNodes>
      <leafValues>
        -8.1660783290863037e-01 1.7934165894985199e-01</leafValues></_>
    <_>
      <internalNodes>
        0 -1 61456 8.4228010382503271e-04</internalNodes>
      <leafValues>
        -7.0487231016159058e-01 2.3134660720825195e-01</leafValues></_>
    <_>
      <internalNodes>
        0 -1 84733 2.0123652648180723e-03</internalNodes>
      <leafValues>
        1.8411359190940857e-01 -7.7424490451812744e-01</leafValues></_>
    <_>
      <internalNodes>
        0 -1 90344 4.6907723299227655e-04</internalNodes>
      <leafValues>
        -8.7432295083999634e-01 1.7917194962501526e-01</leafValues></_>
    <_>
      <internalNodes>
        0 -1 426 7.3377147316932678e-02</internalNodes>
      <leafValues>
        -3.2612195611000061e-01 5.5370652675628662e-01</leafValues></_>
    <_>
      <internalNodes>
        0 -1 4674 -4.5836951583623886e-02</internalNodes>
      <leafValues>
        8.2694613933563232e-01 -2.7819064259529114e-01</leafValues></_></weakClassifiers></stage10>
</opencv_storage>
