<?xml version="1.0"?>
<opencv_storage>
<stage5>
  <maxWeakCount>8</maxWeakCount>
  <stageThreshold>-1.1782324314117432e+00</stageThreshold>
  <weakClassifiers>
    <_>
      <internalNodes>
        0 -1 117932 5.7285465300083160e-03</internalNodes>
      <leafValues>
        -4.2708334326744080e-01 6.6030532121658325e-01</leafValues></_>
    <_>
      <internalNodes>
        0 -1 78625 -1.9845204427838326e-02</internalNodes>
      <leafValues>
        6.1524248123168945e-01 -3.5028716921806335e-01</leafValues></_>
    <_>
      <internalNodes>
        0 -1 85514 7.1112937293946743e-03</internalNodes>
      <leafValues>
        3.0957657098770142e-01 -8.7194740772247314e-01</leafValues></_>
    <_>
      <internalNodes>
        0 -1 83933 1.2182853184640408e-02</internalNodes>
      <leafValues>
        2.3737275600433350e-01 -9.3651169538497925e-01</leafValues></_>
    <_>
      <internalNodes>
        0 -1 91122 -1.0813851840794086e-03</internalNodes>
      <leafValues>
        3.4969753026962280e-01 -5.7564985752105713e-01</leafValues></_>
    <_>
      <internalNodes>
        0 -1 23011 4.3622222729027271e-03</internalNodes>
      <leafValues>
        -5.8146113157272339e-01 3.4688839316368103e-01</leafValues></_>
    <_>
      <internalNodes>
        0 -1 98634 -2.0057170186191797e-03</internalNodes>
      <leafValues>
        -7.3016196489334106e-01 2.7163788676261902e-01</leafValues></_>
    <_>
      <internalNodes>
        0 -1 96456 2.1118769422173500e-02</internalNodes>
      <leafValues>
        2.2710648179054260e-01 -9.3334364891052246e-01</leafValues></_></weakClassifiers></stage5>
</opencv_storage>
