<?xml version="1.0"?>
<opencv_storage>
<stage13>
  <maxWeakCount>14</maxWeakCount>
  <stageThreshold>-1.5527098178863525e+00</stageThreshold>
  <weakClassifiers>
    <_>
      <internalNodes>
        0 -1 4420 -1.4735884964466095e-02</internalNodes>
      <leafValues>
        6.9950741529464722e-01 -2.6512968540191650e-01</leafValues></_>
    <_>
      <internalNodes>
        0 -1 117944 -1.1409474536776543e-02</internalNodes>
      <leafValues>
        5.8596074581146240e-01 -3.6424726247787476e-01</leafValues></_>
    <_>
      <internalNodes>
        0 -1 63062 -5.4035271750763059e-04</internalNodes>
      <leafValues>
        3.1958264112472534e-01 -6.8684667348861694e-01</leafValues></_>
    <_>
      <internalNodes>
        0 -1 104798 -1.2601560447365046e-03</internalNodes>
      <leafValues>
        -9.2214518785476685e-01 1.7939478158950806e-01</leafValues></_>
    <_>
      <internalNodes>
        0 -1 111674 -4.5420188456773758e-02</internalNodes>
      <leafValues>
        6.0584497451782227e-01 -3.2762607932090759e-01</leafValues></_>
    <_>
      <internalNodes>
        0 -1 111599 5.1131509244441986e-02</internalNodes>
      <leafValues>
        -3.6112901568412781e-01 5.2719092369079590e-01</leafValues></_>
    <_>
      <internalNodes>
        0 -1 35324 1.6160020604729652e-03</internalNodes>
      <leafValues>
        1.6270962357521057e-01 -9.3944919109344482e-01</leafValues></_>
    <_>
      <internalNodes>
        0 -1 118110 -3.8942848332226276e-03</internalNodes>
      <leafValues>
        -6.8647336959838867e-01 1.8279400467872620e-01</leafValues></_>
    <_>
      <internalNodes>
        0 -1 59508 6.8488977849483490e-03</internalNodes>
      <leafValues>
        2.2113364934921265e-01 -6.8151003122329712e-01</leafValues></_>
    <_>
      <internalNodes>
        0 -1 70577 -1.0100763756781816e-03</internalNodes>
      <leafValues>
        -7.3513829708099365e-01 1.8490707874298096e-01</leafValues></_>
    <_>
      <internalNodes>
        0 -1 62631 1.3807401992380619e-03</internalNodes>
      <leafValues>
        -3.8635179400444031e-01 3.6726951599121094e-01</leafValues></_>
    <_>
      <internalNodes>
        0 -1 84377 -4.8302471637725830e-02</internalNodes>
      <leafValues>
        -8.4547358751296997e-01 1.7997814714908600e-01</leafValues></_>
    <_>
      <internalNodes>
        0 -1 43353 8.2458529504947364e-05</internalNodes>
      <leafValues>
        -4.1546979546546936e-01 3.6316716670989990e-01</leafValues></_>
    <_>
      <internalNodes>
        0 -1 63329 -5.5412622168660164e-03</internalNodes>
      <leafValues>
        -7.2458600997924805e-01 2.0812116563320160e-01</leafValues></_></weakClassifiers></stage13>
</opencv_storage>
