<?xml version="1.0"?>
<opencv_storage>
<stage2>
  <maxWeakCount>6</maxWeakCount>
  <stageThreshold>-1.6052215099334717e+00</stageThreshold>
  <weakClassifiers>
    <_>
      <internalNodes>
        0 -1 93304 7.6017277315258980e-03</internalNodes>
      <leafValues>
        -6.2138730287551880e-01 6.6374266147613525e-01</leafValues></_>
    <_>
      <internalNodes>
        0 -1 2405 5.4183825850486755e-02</internalNodes>
      <leafValues>
        -4.5071038603782654e-01 7.7390140295028687e-01</leafValues></_>
    <_>
      <internalNodes>
        0 -1 83812 -8.1076571950688958e-04</internalNodes>
      <leafValues>
        4.1142308712005615e-01 -8.2336986064910889e-01</leafValues></_>
    <_>
      <internalNodes>
        0 -1 62148 3.2773064449429512e-03</internalNodes>
      <leafValues>
        -8.7881219387054443e-01 3.4639579057693481e-01</leafValues></_>
    <_>
      <internalNodes>
        0 -1 100435 -2.4361865594983101e-02</internalNodes>
      <leafValues>
        7.7582132816314697e-01 -3.9903384447097778e-01</leafValues></_>
    <_>
      <internalNodes>
        0 -1 90704 6.7258859053254128e-03</internalNodes>
      <leafValues>
        3.3329910039901733e-01 -9.0567064285278320e-01</leafValues></_></weakClassifiers></stage2>
</opencv_storage>
